{
    "mode": "train",
    "input": 42,
    "output": 1,
    "GameSets": 67557,
    "Layers": 4,
    "weights": [
        [
            [
                -0.2301787038829819,
                -0.13199472413740465,
                -0.06630648946979878,
                -0.09996960092628947,
                0.0912682580789435,
                -0.010389311626545494,
                0.17508654784653285,
                0.006955257602479946,
                -0.10752356570077183,
                0.23177216354606894,
                0.2126367320247991,
                -0.13775944186938932,
                -0.10170448991078053,
                -0.11183395724083713,
                -0.10230352601550044,
                -0.0767361182053389,
                0.26224993834817345,
                -0.05481126965856515,
                0.07415264275477501,
                0.06712986401009917,
                0.0395397303601618,
                -0.12090074964610109,
                0.0010630956896625224,
                -0.002600616160501001,
                0.10232607361892536,
                -0.13682080431094468,
                -0.01939022741362256,
                0.18102639964136394,
                0.11997097572022623,
                -0.1572370645945257,
                0.024198042760412826,
                -0.14868262384232858,
                -0.14592663642501022,
                0.1654586077967769,
                -0.0334687367435871,
                -0.06825498263315781,
                -0.04123174783333986,
                -0.049938773812131756,
                0.060664283864310865,
                0.009899116561007034,
                0.17892850272059446,
                -0.15857960721880301
            ],
            [
                1.5338583513977144,
                -0.09370263114009011,
                -0.1937697536752325,
                -0.2544940701136281,
                0.03202130861264036,
                0.03542636439781962,
                -0.032703482802100926,
                0.564996179777899,
                -0.007089268410736349,
                -0.1385784543999045,
                -0.0059892234036938545,
                -0.14383527570707583,
                -2.0260422614040627,
                -0.9698291172086067,
                0.09900626428734424,
                -0.18546568545358463,
                0.005098737165926359,
                -0.20511300146829123,
                -0.25809028542033224,
                -0.07079759628360996,
                0.29946293358892745,
                0.0418994513994903,
                -0.20219237279791105,
                -1.4548392224711577,
                0.8825399815438234,
                0.5737386159038071,
                0.1371864551559646,
                0.1750929117488503,
                0.10534389519182473,
                -0.12276570475620198,
                -0.31596512109228087,
                -0.060869293607667345,
                0.07211367834562617,
                -0.04609280840017372,
                0.16193417204771715,
                -0.03093414785731509,
                1.138567575489474,
                0.9617761566431055,
                -0.15047047852735818,
                -0.19211676768022765,
                0.08245995002097734,
                0.21874799461064534
            ],
            [
                0.3146022618225679,
                -0.010324735640460983,
                0.15362965129705394,
                0.03148530190001049,
                -0.025038694188114302,
                0.08659565034594238,
                1.4031437400350122,
                -0.09771130194809682,
                0.14608061705429132,
                -0.09527585028869912,
                -0.11637556674430925,
                0.0867331242741585,
                -2.1598917515421676,
                -0.5483459291591706,
                0.0829775316875886,
                0.0776427290820553,
                -0.0671734020952119,
                0.1731553439689464,
                -0.4345322100056624,
                0.3367265317718579,
                -0.3262012880417125,
                0.16998039084383412,
                -0.30377325823425433,
                -0.7376465544273733,
                1.1253759458724057,
                -0.018920499223013358,
                0.13935892960135335,
                0.15742702077427648,
                0.03110469265756348,
                -0.056461549080125045,
                -1.2166979210464912,
                -0.18810782795052325,
                -0.045196822323680406,
                0.03579722827787673,
                -0.12470081568969166,
                0.039907358556408,
                0.8544284168311486,
                0.5777202128750918,
                0.04793191415582891,
                -0.24005044276334142,
                -0.11387519920237744,
                -0.005124991930999383
            ],
            [
                1.1131508952355926,
                -0.022501062807588252,
                -0.1498000789149546,
                -0.1352020975903639,
                -0.022690893472001917,
                0.06695206187471299,
                0.8865463674483296,
                -0.7115813773473201,
                -0.33063314519687,
                -0.14986702001695434,
                0.15631863985306202,
                -0.08090589485875682,
                -0.9229351230651887,
                0.650249894190975,
                0.06539746354702454,
                -0.26366175376703277,
                0.15731932097976267,
                0.05784408166223822,
                -0.28890205449857875,
                0.6254609265355333,
                -0.7350254885321426,
                0.3399975188477591,
                -0.6661868056743867,
                2.3571229488481222,
                -0.12167388194124802,
                -1.1280516641822842,
                -0.06606867569015525,
                -0.09428177125459854,
                -0.0321023334194356,
                0.37646450241242896,
                -1.2697164164119834,
                0.010336397313708463,
                -0.18522749756630014,
                0.2119362401525927,
                -0.208168706037806,
                -0.03647343142927206,
                -0.2025534183431042,
                0.4130852390955143,
                0.03159939881001602,
                0.1710855075221016,
                0.03886894675542638,
                -0.19688323946643102
            ],
            [
                -0.003644698577560133,
                -0.1365927953736008,
                0.1012727841713515,
                0.0020650859809128418,
                -0.14853483677470128,
                -0.15178215551439886,
                -0.03416614530558583,
                -0.08594072381648928,
                -0.045734498050833176,
                -0.20395235585496563,
                -0.08454869760387901,
                0.06394265370385027,
                -0.04367319019488947,
                -0.48255309171946814,
                0.20071264885764412,
                -0.03274339172711205,
                -0.19279728609647004,
                -0.017008294916690092,
                -0.10297967230894513,
                0.3660642354416077,
                0.03979969864992093,
                -0.15786698424806148,
                0.2068798029847035,
                -0.18245733212998458,
                0.17960842901209378,
                -0.02951407576080092,
                -0.07928085189980408,
                0.13792058419098643,
                0.11665147133471487,
                -0.07753938608016214,
                0.3723775389395125,
                -0.019122813170686363,
                -0.16705412845547232,
                -0.015850710350058233,
                -0.22551316416357842,
                -0.17643967341015476,
                0.12034756857808962,
                0.09527407998306574,
                0.25716480028694877,
                0.135763693583896,
                -0.07630308134427292,
                -0.2155168724152419
            ],
            [
                -0.05529298894702989,
                0.12668527581113398,
                0.22903325950045153,
                0.04009449341272808,
                -0.008459641502962767,
                -0.1251567129641419,
                0.03316518208595544,
                -0.07816723768917529,
                -0.013925900134034818,
                0.24900011986224874,
                -0.09938732051351457,
                -0.1554108724431103,
                0.11126927595782928,
                0.009168074792019382,
                -0.18564197628243778,
                -0.053737092452769815,
                -0.37117187147340097,
                0.2670985458607823,
                -0.09407518370095255,
                0.045603994864843074,
                0.21736448422544352,
                0.2839294865308788,
                0.14033326383249528,
                0.21069892539181917,
                0.22437461852870405,
                -0.1853876526867844,
                0.02057203187559149,
                -0.07450477528648568,
                0.08788550002418793,
                -0.015819578268579812,
                -0.031038583602504315,
                -0.08821733263393997,
                -0.036482850721195365,
                -0.08206536487822119,
                -0.21409983572164218,
                0.12754477514779064,
                0.057326653759264115,
                -0.12401707466678832,
                -0.15630640123777476,
                -0.05449479976720867,
                -0.18381417575512085,
                0.14461054403595397
            ],
            [
                -0.0967036231374645,
                0.011811735114279869,
                0.19288289282283835,
                0.02750804162957693,
                -0.023700538960041963,
                -0.21942379284470703,
                0.0817016873050196,
                0.049198781561653034,
                -0.1355986763585438,
                0.33527447480889816,
                0.1586251060362709,
                -0.09633800183063321,
                -0.024188447001733063,
                0.07052139797771002,
                0.20711183718554055,
                0.20078993582423213,
                0.17104999775280655,
                -0.027499173944526757,
                0.48658782565712677,
                0.07521299639320184,
                0.07702465488159854,
                -0.11114637850596293,
                -0.02698238175675831,
                -0.1693449682770062,
                0.2002486885938062,
                -0.020041970303762396,
                -0.007091194876070735,
                -0.05812124133750877,
                -0.06030718483330485,
                0.052349980383479475,
                0.16816804416905143,
                0.05774407059540707,
                -0.11596669820513525,
                -0.09041930740517881,
                -0.03930977680030727,
                0.08632439906484442,
                0.01115264312104197,
                -0.08929998586260476,
                -0.070334115705546,
                0.08527458683045594,
                -0.08657481855409335,
                -0.2074321665569527
            ],
            [
                0.07049195475179204,
                0.14089667906472308,
                -0.0663771752301686,
                0.06952401067300386,
                -0.1132247852538256,
                -0.18973330660977072,
                -0.011742665092080997,
                -0.035747984872110186,
                -0.07868631399692787,
                0.18681166521568623,
                0.12352281996625952,
                0.1308860431631864,
                0.3503867092774074,
                -0.005136866461433389,
                0.23092319184355795,
                0.09773797537578564,
                0.04773362450416555,
                -0.09297570118535885,
                -0.27531901071905385,
                -0.010001921314516476,
                -0.011933728551533775,
                0.07417718176870765,
                -0.0736622075643993,
                0.05036064776156466,
                0.20741848510725147,
                0.08209359044375235,
                0.13243743146446263,
                -0.017963446155086236,
                0.033908337345318805,
                0.06983388081189719,
                -0.17302336831587636,
                0.14171668993460748,
                0.03145320330542536,
                0.15183864743484707,
                -0.09413033361986495,
                -0.40535178741530187,
                -0.2596572474391687,
                0.05239735203211575,
                0.16863987394863883,
                -0.17302316636739418,
                0.13264417286634092,
                0.09607840715694911
            ],
            [
                -0.22427130832041856,
                0.10881675333554877,
                0.22275760587336063,
                0.3064316112792621,
                0.08493960388147503,
                -0.020337201984124118,
                0.06737800079322015,
                -0.006674513655901193,
                0.06291003628954447,
                -0.31324173920528053,
                -0.27017582659896217,
                0.09465765270214743,
                0.1645781892710045,
                0.07658502212835346,
                -0.07558814386383608,
                -0.019333352221146655,
                -0.25336579775519436,
                0.18078200726708213,
                -0.17991476190251746,
                -0.11638203819073296,
                -0.09764973698064837,
                -0.18847188597817807,
                0.16580630343651254,
                0.043567891891941136,
                -0.125541468987363,
                -0.06789853157034925,
                -0.011454457295268557,
                -0.10863675331119059,
                -0.1681226384686274,
                0.028031176841686947,
                -0.24065427703448436,
                0.08811408710637626,
                -0.006348531392345984,
                0.0573396693899234,
                0.3141120029724675,
                0.06048357049541903,
                0.0582087313109264,
                0.19531537562507273,
                0.06912111638941672,
                0.02196670837156694,
                0.15180379281773695,
                0.1645934091858158
            ],
            [
                3.2736287509102704,
                1.1878627223066918,
                0.013395146610093996,
                -0.040870750769062374,
                -0.13382398513386776,
                0.0243159724680818,
                5.50374352508049,
                -3.2170190901399884,
                0.29420948650318934,
                -0.05167073379851648,
                0.0001842716149588798,
                0.06251399924259539,
                -2.303825291758499,
                -6.2656352918996445,
                0.08209366043791749,
                -0.13426003508862905,
                0.34116369839056915,
                -0.014960139935921008,
                -1.709050829993448,
                1.8186632356996066,
                -1.7426536998347226,
                1.958288614391366,
                -1.6922839586390668,
                1.8862779937590968,
                5.078179655372269,
                -0.4095968535302641,
                0.04281625095787391,
                -0.10858045849617501,
                0.029385599919418793,
                -0.12432581109476358,
                -3.795386287416439,
                0.3062023790243765,
                -0.03514559246309317,
                -0.22933672595292875,
                -0.17282402289919999,
                -0.13852060639370617,
                0.4142417878598885,
                0.8402442585117124,
                0.12874958999898867,
                0.05754917724335868,
                0.09421418144505009,
                -0.007675245556209489
            ],
            [
                0.02057524157642054,
                -0.07032090164967773,
                -0.04312417354999357,
                -0.06618713330633573,
                0.2920374310539183,
                0.1470645097109531,
                0.06332420699060975,
                0.06081193033306417,
                -0.027577579282151307,
                -0.11291668372271498,
                0.2999467415168574,
                -0.04286997820147183,
                0.058316350920754705,
                -0.16992963547171672,
                0.17427600171887342,
                -0.13693675793928725,
                0.09093116370359537,
                0.13016740423646495,
                -0.2793918746717632,
                -0.23014482232857653,
                -0.3833478929501291,
                -0.06802579200596412,
                -0.015385374710329495,
                0.010427520417334411,
                0.1811606510506021,
                -0.1680591941849093,
                0.09766872703170006,
                -0.18481160961995316,
                -0.22791548189553526,
                -0.19411796804407977,
                -0.026038235522541503,
                -0.0025591561769121654,
                0.037366805477640944,
                0.12657384543400646,
                0.19336239535294453,
                -0.056367912035044085,
                0.0013020792812626406,
                0.02875417203336555,
                -0.05472910876474187,
                -0.3302236869513974,
                0.22167863100559626,
                0.01698182947846095
            ],
            [
                4.49228819281656,
                0.08589387751992401,
                0.34647852969174864,
                0.091404970748527,
                0.1551020088662476,
                -0.04639452931966698,
                -3.408816723857721,
                -0.8092120365634776,
                -0.035513943886913,
                0.049931289964453,
                0.04553877052851228,
                0.26242108767531847,
                1.2488559714882776,
                0.5349374046520686,
                -0.00529232211529257,
                -0.08580623866443744,
                0.35083050547648065,
                0.0912850206458481,
                -1.0909526582530942,
                0.9718489824898999,
                -1.0679133455919396,
                1.1772205148068593,
                -1.0957629912096876,
                -1.5800749323236472,
                -0.7507516995809265,
                -0.14454472297815948,
                0.045534134237459,
                -0.09039792501521875,
                -0.22934200033012445,
                -0.10940283102907548,
                -0.4230297381355287,
                0.16595201733236714,
                0.03492789185180413,
                -0.1946623834284822,
                0.32454717302305264,
                0.17279098931519668,
                0.6910457195094977,
                0.12271207497881312,
                -0.06017228561889952,
                -0.054126775811136965,
                -0.09116360559642071,
                0.13685420446864116
            ],
            [
                0.09839845274238256,
                -0.058333830972680724,
                0.1124322080130913,
                0.2765738344922912,
                -0.05776682529928337,
                0.0012233178106153938,
                -0.14967652707353354,
                0.08673827249136683,
                -0.04365945576731558,
                -0.08937390652351004,
                0.17403419805802023,
                -0.1499068203765048,
                -0.1888401255530236,
                0.08050954359419218,
                0.04459617260516646,
                0.19927417118868146,
                -0.0019220589372368696,
                0.04130765930443414,
                0.2205877259266195,
                -0.08873245173168771,
                -0.22792815220452486,
                -0.17125034960558258,
                -0.09494281098739639,
                -0.06209556626351396,
                -0.3100447477370327,
                -0.3772192307702866,
                -0.26663132338108986,
                0.19935668000769427,
                0.2533500247236754,
                -0.07409675967865247,
                0.1030461644953641,
                0.09339382205004579,
                0.04640116865964703,
                -0.2073601460410743,
                -0.004283644533489094,
                0.2707570258728465,
                0.18741955779670996,
                0.09553722310228928,
                -0.08054269461175789,
                0.0925756468334202,
                -0.1492822121079195,
                0.11183004469461343
            ],
            [
                -0.22575581694849667,
                -0.14928349242904487,
                -0.02114624363984813,
                0.10682035218215004,
                -0.09228386148299635,
                -0.2220722722318888,
                -0.24701187892206194,
                0.12609432078791835,
                -0.10333503851274374,
                -0.0579481415616021,
                0.015644571804446034,
                0.03888733428967856,
                0.2034125414956843,
                0.01159467130083022,
                -0.17120606779163133,
                -0.1279844529859867,
                -0.09691586343173297,
                -0.0472459214660959,
                -0.044850473710496185,
                0.0629400673385619,
                0.06931376512598451,
                0.1718282738164684,
                -0.22509732073224278,
                -0.3083370245427907,
                -0.11432029749096913,
                -0.1282134648992002,
                -0.03732568119654512,
                -0.09076123826616377,
                0.02515654855309289,
                0.22527757719948815,
                0.034176066835034505,
                -0.04114841433621357,
                -0.01514960689556258,
                0.2669657759992684,
                -0.1366129190336408,
                0.012773686611807682,
                -0.009863886770693437,
                -0.11779631480135357,
                -0.15951043317819608,
                0.0271536709835737,
                0.16289703786069945,
                0.09686945524762504
            ],
            [
                -0.056164835834742494,
                0.07328021775045183,
                -0.2594077829563249,
                -0.0783209300381647,
                -0.15958265875522418,
                0.0011158191921081485,
                -0.17511862978430648,
                -0.16355136178288182,
                0.17555097193509653,
                0.14873049771860145,
                0.010193202996835064,
                0.0855682498096089,
                -0.015884326999062847,
                -0.25575417953629664,
                0.04160510900239562,
                -0.43687389332011456,
                -0.245132165864051,
                0.02680372613681939,
                0.3252398151839195,
                -0.3812443125488924,
                0.18287986334112918,
                -0.05351007015313665,
                0.08658376016523985,
                -0.20740531183993816,
                0.21645269066900585,
                0.2289238048028745,
                -0.2679322735344387,
                0.09664319901909196,
                0.11130480198645479,
                0.013851338116759355,
                0.04689763459230064,
                0.12641251672009035,
                0.15058770436684543,
                -0.20431275454360034,
                -0.17381572106063914,
                0.08944150986347738,
                -0.1363461022713596,
                -0.057730904152531896,
                -0.07254212741729174,
                0.18045118794534742,
                0.35911441478409767,
                0.14438023504811895
            ],
            [
                -0.1766084675070413,
                -0.08582541300736803,
                0.19776650447795657,
                -0.057211248035542256,
                0.024238207491694093,
                0.0757516308803684,
                0.055776782472334176,
                -0.18291455948555435,
                -0.13708997848221638,
                0.192720164063179,
                -0.029518310237393937,
                -0.1859065258196026,
                0.047226875480013183,
                -0.13046464597306842,
                -0.19602611179067286,
                0.05748868079455996,
                0.12364831900732573,
                -0.18693872592664132,
                0.06191064447992021,
                -0.20680451354181792,
                5.4902651502469836e-05,
                0.11954884156629399,
                -0.009039863838756133,
                -0.08803547726691331,
                -0.3487531674810994,
                0.14619358967097226,
                0.38622179751764063,
                -0.13111951894655263,
                0.05755482930770868,
                -0.26274597870256994,
                0.11712476653270583,
                -0.2351188199401214,
                -0.004050499542557891,
                0.029464760853199448,
                0.028838365630247234,
                -0.1376034909624071,
                0.05056654786173368,
                0.21921690854599676,
                0.0884035373649301,
                0.14802601093583742,
                -0.15329544074696488,
                0.3896434030580637
            ],
            [
                0.07400123196356495,
                0.2234663178252247,
                0.1876895979918285,
                0.26911748032518645,
                -0.1714303219074854,
                -0.02788328343585924,
                0.16249700753609006,
                0.09875900154676487,
                -0.18173305360548475,
                0.02061454797294636,
                0.17231305404600272,
                0.20594862874138398,
                0.324541550993687,
                -0.09627165787495554,
                0.5027037419165349,
                0.12214084066797314,
                0.1593992046571601,
                0.29689609585414184,
                -0.07057097126447578,
                0.20920030257364847,
                -0.05988695235045295,
                0.1906732075644934,
                0.15196165377040124,
                -0.007200683270185443,
                0.16809015911407468,
                -0.09646708382258011,
                0.03407514085177912,
                0.04977205644830275,
                -0.3055832116356977,
                -0.23626168240231094,
                0.1097094073052641,
                0.04197534708939285,
                -0.07856926956796659,
                0.018998838880018295,
                0.01775428361231609,
                0.04029814461757365,
                0.09089448633019008,
                0.23603684777292244,
                0.36184400765142904,
                -0.3442308090831811,
                0.09809570053592007,
                0.16565531257902003
            ],
            [
                -0.061450149494321926,
                0.15769889325846917,
                -0.0877644045947953,
                0.08602016924413382,
                -0.15123444625135726,
                0.036259628445271655,
                0.18022003551503912,
                0.3693468516578956,
                0.13232828326026716,
                -0.03525518973268505,
                -0.08549406132402516,
                0.19154477648762608,
                -0.12202150033380182,
                -0.020540894703329912,
                0.008144960950815622,
                0.09882512917608771,
                0.11044757802203128,
                0.026988613882329343,
                0.04145981821252379,
                -0.05769370311496733,
                0.16368039718344887,
                0.1854369361149033,
                0.07347931215629401,
                0.2517349475626438,
                0.2670032087242029,
                0.06032331799756479,
                -0.06858406076079718,
                0.2743273736788702,
                -0.03425310783712306,
                0.0755143024186864,
                0.2381018380867285,
                -0.04826823466222162,
                -0.16746549774644387,
                -0.1099813817625544,
                -0.012090300325707688,
                0.14022096524080807,
                0.10505249937815503,
                -0.199166649156246,
                0.14580160972846437,
                -0.08285537765626709,
                -0.2190742433848795,
                -0.1682275537806191
            ],
            [
                0.7360728560526287,
                -0.2904079686943837,
                -0.012545673480339319,
                0.059969473453585456,
                4.823423996428487e-05,
                -0.054892994016650834,
                -1.834630932081797,
                0.6329853959704947,
                0.07267991580760932,
                -0.012427626590041495,
                0.030417149077969715,
                0.07253909047209003,
                -1.144123269992729,
                0.48755268925172207,
                -0.17845017051821854,
                -0.02742073629816833,
                0.27740933029172254,
                0.1624806743914072,
                -0.3454336580896731,
                0.5716350621896386,
                -0.4757428231209587,
                0.48728348977633973,
                -0.4683256516086097,
                -1.9162760337811313,
                0.15534767656269705,
                2.4797909003223335,
                0.1639778435632876,
                0.003459355648166391,
                -0.09895751540801109,
                -0.18809108103177302,
                0.5926163539450047,
                0.07509707315762758,
                0.17267879403970182,
                0.09229793325784037,
                0.012739096194931056,
                0.1541882219897584,
                0.9335329655259976,
                0.19832479119441535,
                -0.18713306840072486,
                0.053423667106586935,
                0.14600389250509055,
                -0.07581701324034647
            ],
            [
                -0.023057034285162415,
                0.00651406364734182,
                -0.08766389996700388,
                -0.3230672830857707,
                0.05026862009985502,
                0.30159275100657923,
                0.16416334441411504,
                -0.06405194011323648,
                -0.029910546596701323,
                -0.13661794267353894,
                -0.39644126106876826,
                0.030565895606900553,
                -0.0683565346401525,
                0.06974734583046173,
                -0.07891113344791353,
                -0.045036658059289275,
                -0.049078499355294215,
                -0.1554587570961117,
                -0.10830330059514708,
                -0.14430687373873352,
                0.05183248058137452,
                0.227830855126582,
                0.09595117739324588,
                0.15118133889388838,
                -0.013830673049864847,
                0.15856074145418825,
                0.09085250148042896,
                -0.1229495107487092,
                -0.3852325215464848,
                0.17147222065395487,
                0.017023136584276857,
                0.04687657001681512,
                0.17648742294876396,
                -0.18391769304695071,
                0.3302542799967122,
                0.3730781088447497,
                -0.0008607776631922497,
                -0.11532507250299184,
                0.13045821160557092,
                -0.08486073500737679,
                0.08716542261271083,
                -0.12669443320345627
            ],
            [
                3.0510368394858363,
                0.10642201800710978,
                0.10061347598905611,
                -0.09133224343454481,
                0.035469488225612175,
                -0.1711967462160046,
                -0.5172141537031582,
                -2.3063783426077333,
                -0.1436187686848075,
                -0.1262697970266501,
                -0.08374399631840053,
                -0.18540551952654538,
                -0.31578795121187286,
                -2.583854881847651,
                0.05261116512913423,
                0.085996984702811,
                -0.08186606298488489,
                -0.09858886837608032,
                0.02522351281842247,
                0.4194526311826078,
                -0.33129960571977934,
                0.30143379242050006,
                -0.6820741943181199,
                1.020000933289794,
                3.2613762020428507,
                -0.5012783638610292,
                0.122389755082185,
                -0.029512449899813192,
                -0.11983525567854213,
                0.057771376317884524,
                1.580273029063181,
                -0.10725894354377234,
                0.16227881875109848,
                0.12519597146624542,
                -0.09079859404875262,
                0.3623817815889718,
                -2.5862296936950275,
                0.24447734112358618,
                0.07189810074142196,
                -0.18482132531096354,
                0.038527687737690414,
                0.03103384185675576
            ],
            [
                0.07373328533264295,
                0.09155802993915772,
                0.028858953333619215,
                -0.16006944095966205,
                -0.1408126926061644,
                -0.03680424481958755,
                -0.4609257943546384,
                -0.06870155456269608,
                -0.08045274004218743,
                -0.04657509216154511,
                -0.014938884887518709,
                -0.011574069721126479,
                -0.05985662959224418,
                -0.03237358152182175,
                -0.05196881037128875,
                -0.02235103280460446,
                -0.40323581839494743,
                -0.11230939100445726,
                0.05929809928873797,
                0.2031492179168045,
                0.3141494837937404,
                -0.2717266934505188,
                0.13410302550793954,
                0.20939627420218557,
                -0.05353043979215561,
                -0.3149269927398013,
                0.004218344347028024,
                0.15534110677143975,
                0.08026524293957611,
                0.17012468082275867,
                -0.19560371593929948,
                -0.14357340236730545,
                -0.23821928496964134,
                -0.11736426813466962,
                -0.17018442607678388,
                -0.11771442855972512,
                -0.14344196170648396,
                0.010328092061198621,
                0.03257243896555216,
                -0.047944329602423584,
                0.09615487866466568,
                0.26427817857735053
            ],
            [
                0.21118497370999864,
                0.12854057986796727,
                -0.0111301088526393,
                0.18421875596922194,
                0.0999124095967807,
                -0.12727112289882367,
                0.3751852768403484,
                -0.26252752288107944,
                0.15684348399829068,
                -0.043268657043627146,
                0.17239655801634987,
                0.021451038735132003,
                -0.2553127448800931,
                0.010442108168073975,
                0.2787463771619764,
                0.01439949306713745,
                -0.27009597166184396,
                -0.1932337194341526,
                0.03412435075886619,
                -0.06619566796223739,
                0.028683973827214503,
                0.15361011115449857,
                -0.17887027032230934,
                -0.20428713984988928,
                -0.11078069825908027,
                -0.16060976427624085,
                -0.1851010522081753,
                0.1842633278123699,
                0.2740032226016972,
                0.10146181241855706,
                -0.04945453678310929,
                -0.3608602696395213,
                -0.24017792106129224,
                -0.10297309305233007,
                0.06581021244705401,
                0.09046750157449958,
                0.12984122176720253,
                0.016258700241574844,
                -0.2301738982512266,
                -0.06082718624772261,
                0.06674511929669696,
                -0.08748494680543847
            ],
            [
                0.8343610662948767,
                0.3873426627689981,
                0.017373378694361705,
                -0.037375156257560466,
                -0.04322331144642484,
                0.1511853112027441,
                -1.3474745928321716,
                -2.813789896453021,
                0.12817016772177423,
                0.2116584131689431,
                -0.1482502108765736,
                0.019097129761659698,
                3.9765581340420453,
                0.16009070818513602,
                0.24246136177901817,
                -0.08108973828162885,
                0.09585075177339544,
                0.06777397812686074,
                -1.5010359918354623,
                1.5446646066338474,
                -1.5672300899916214,
                1.3149557240256293,
                -1.2862764674207685,
                3.9183329836475655,
                -1.0464147097130345,
                -0.5942831984146918,
                -0.05656764686926059,
                0.12687526447029637,
                0.13278565912837376,
                -0.008489342082855648,
                -2.811114966624418,
                0.0632193348508655,
                -0.05276580557812462,
                -0.030185927910708416,
                0.17929873077856084,
                -0.0745727742581013,
                0.2417630212048413,
                0.39986130538951514,
                -0.27314190542547834,
                -0.10684650946372722,
                0.02545312646252847,
                0.12014158563553294
            ]
        ],
        [
            [
                0.15614981324271354,
                0.013375962332743423,
                0.44942137527809517,
                -0.06933291636423958,
                -0.11235159262053,
                -0.059136221711526785,
                0.0036194276021275697,
                -0.13270095235295448,
                -0.08877523361603054,
                -0.012894282584575678,
                -0.13525686858712177,
                0.0945017474016126,
                0.12404617552950158,
                -0.08367499118262492,
                0.008156748271857646,
                0.19690910370797435,
                -0.1433495976610051,
                0.20812434126490337,
                -0.14768277594530355,
                -0.11492072135388312,
                0.1483837986092472,
                -0.20255572093040164,
                -0.12707513461830947,
                -0.12951204595092386
            ],
            [
                0.19608134317587048,
                0.0119483261366981,
                -0.1434897513046235,
                0.7813306536236276,
                -0.1630241054152038,
                -0.10211265601893321,
                -0.4156600837260342,
                0.3633577901209012,
                -0.42985024752295975,
                3.8219721153997694,
                0.012171421721201784,
                -0.07289963385562528,
                -0.540380988339133,
                0.14940630059561216,
                -0.4879304211800948,
                0.3884865146021854,
                0.500914609430097,
                -0.250575238547929,
                0.5302971843467499,
                -0.3186429423354101,
                0.7795872581738719,
                -0.33208934588016603,
                0.22662756243670945,
                0.7579506676460073
            ],
            [
                -0.06804689906493121,
                -0.37486668125037986,
                -0.009569803705206058,
                0.04536211582579169,
                -0.2580742734500714,
                0.2500379526224515,
                -0.16246480446209224,
                0.14048209909413367,
                0.06107246004812606,
                0.924232083425848,
                -0.21446074611221513,
                1.2140641536706156,
                -0.010425434848420423,
                0.0959683259953806,
                0.1796341513362177,
                0.17759448804250652,
                -0.2063462486237824,
                0.09895961225025811,
                0.4111922362544715,
                0.14880085848247798,
                1.2060081186329186,
                0.0822183104572566,
                -0.02915061171185087,
                2.5475967979156358
            ],
            [
                -0.06729904723399938,
                -0.19783444430418368,
                -0.26965566483914694,
                -0.16435008014168812,
                -0.03772298280153515,
                -0.02459003197088627,
                -0.022425275157244844,
                -0.15166931321783134,
                0.46787711398789184,
                -0.1037969817782325,
                0.08711506994626393,
                -0.15893998934728767,
                -0.037921629290745905,
                0.14841581905930232,
                -0.028594195257107456,
                -0.0896243633383434,
                0.21780113523139336,
                0.03657283755011599,
                -0.09467142892519548,
                0.30665167432548995,
                -0.05242495187558214,
                -0.32760470950279463,
                -0.04409563948644929,
                -0.005501880863169917
            ],
            [
                0.030687504263777712,
                0.01663904545645653,
                -0.03857200405461639,
                -0.0115931698114769,
                0.0936830797796555,
                0.10136098906771197,
                0.041134648407722636,
                -0.1883870887777463,
                -0.09183530733213874,
                0.09522064847864686,
                0.08979501789894542,
                0.07634589651147178,
                0.09508175431495762,
                0.01680809656133772,
                -0.03915654705168499,
                0.0417035312201925,
                -0.051074130782132875,
                0.18938608598925077,
                0.3560152588279182,
                -0.04023950634926605,
                -0.016323212772893007,
                0.12634881740738885,
                -0.268377329469612,
                0.28623794238213796
            ],
            [
                -0.43890412043522126,
                1.1364772015236906,
                0.6650370647589233,
                0.4809581624382098,
                0.3631401502367974,
                -0.38457525892326466,
                0.42195566159298814,
                -0.3189116099711675,
                0.28571642539804604,
                -0.9769899508249533,
                0.420427859854773,
                -0.41561029550446116,
                0.4994565515974298,
                -0.3554710475657325,
                0.5694170325187901,
                -0.2749809722726706,
                -0.4523919607939771,
                0.33615692622122056,
                1.1485236309547109,
                0.25471300938603186,
                -1.0797338185071201,
                0.5553895285318009,
                -0.47548622731307977,
                -0.4642689272155909
            ],
            [
                -0.04477049548334131,
                0.9225893986402374,
                0.4834169524799386,
                -0.5209976509363998,
                0.16848826139855105,
                -0.3306134530518199,
                0.052708572100674075,
                -0.22156631933265325,
                0.1858630974689474,
                2.125809067433436,
                -0.09841572762846969,
                2.311303368489762,
                -0.20766980012350217,
                -0.14670771583433073,
                0.19039805434325432,
                -0.003227192923868992,
                -0.15105681767407675,
                -0.039613999700811926,
                -0.8084518185910196,
                0.03696876871756323,
                1.7239102351530062,
                0.028046155041247058,
                -0.32971051270266616,
                1.7992226713555135
            ],
            [
                0.16699415919922558,
                0.03615579555409291,
                -0.22011344698064353,
                -0.19352324599016021,
                0.1697893550253189,
                0.15398710640355995,
                0.22327282621214123,
                0.07032480839324144,
                0.005044114694334179,
                -0.23641745846352075,
                -0.019704036174680778,
                0.20400872644424842,
                0.020309396551942353,
                -0.07315467605246634,
                -0.019905795592348504,
                -0.0972246465946768,
                0.07532957448724861,
                -0.2214731751115615,
                -0.12536862419024083,
                0.056738846509997096,
                -0.10341669622390864,
                0.03161903813014433,
                0.06433660674898327,
                -0.14024618764796562
            ],
            [
                0.11490470619564078,
                -0.2360109598251749,
                0.16971419687149944,
                -0.07393869370834047,
                -0.16240303774406362,
                0.050633396132958024,
                0.06734628971656091,
                0.12817591725186314,
                -0.24137138655779836,
                -0.00820408944639673,
                -0.1490790484798359,
                -0.24031894712735935,
                -0.19545123699632122,
                -0.25020766600717215,
                -0.24108512042290833,
                -0.1475592773791931,
                -0.21497836470443474,
                0.004769118503656069,
                0.10919933871697415,
                -0.11710453032001507,
                0.05685806985161836,
                -0.10682948364683963,
                0.1551205925974616,
                0.03085802098929802
            ],
            [
                -0.13824107091554388,
                -0.15717606171134713,
                0.16633127807103992,
                -0.06288089772532701,
                -0.06913888312370058,
                -0.26071314991456024,
                0.0958193444196471,
                -0.21624760116375988,
                -0.25760249730687756,
                0.226718179191894,
                0.34943523657400916,
                0.20855030781415,
                -0.013411973307455975,
                -0.037455134805155055,
                -0.04146306035108531,
                -0.08753463456754886,
                -0.09589707909900919,
                0.14129924457047052,
                -0.15828293880589717,
                -0.04624898305369592,
                -0.09349670403262673,
                0.13690362641235398,
                0.28228408416977696,
                -0.1648713037389442
            ],
            [
                0.34965034592697036,
                -1.414614155717672,
                -0.28109632906422527,
                0.9129441550354702,
                -0.4628417303723528,
                0.5451994825268082,
                -0.12909065646551132,
                0.3250744230216341,
                -0.4922257404988957,
                -0.8987861024660655,
                -0.27004667319611,
                -2.1541852763017033,
                -0.4338922517946981,
                0.3915327650014667,
                -0.4924669341314245,
                0.5122020433772264,
                0.5399196809309973,
                -0.3881792397100722,
                -0.07100097964488099,
                -0.14237915743612012,
                -0.6476607881888257,
                -0.49398076475731545,
                0.06744104756756823,
                -0.06347098069057765
            ],
            [
                0.07777776078601603,
                0.5890924959673878,
                -0.15818747585005494,
                -2.1454604642258714,
                -0.3671379055209288,
                0.4014376029736373,
                -0.3317133150952449,
                0.13605334592469148,
                -0.2856707490594533,
                -0.3093808845869257,
                0.07677200057939168,
                -0.27903968057494316,
                -0.2597545443000611,
                0.17690097934736596,
                -0.2879783903353763,
                0.25028957001702545,
                0.302879050246443,
                -0.2547006632632797,
                2.414889579112718,
                -0.21143874566616103,
                -2.7748875385327105,
                -0.4194113958439326,
                0.27781735834003723,
                -2.0314932442084737
            ],
            [
                0.45017686171922777,
                -0.10261905712555597,
                0.27636590664627114,
                0.11741064313594009,
                -0.09436749066427091,
                -0.03977752173429072,
                -0.18636186431815635,
                -0.03722056387275992,
                -0.12244614518790539,
                -0.04254991002152507,
                -0.1644335415511339,
                0.032927584623334845,
                0.1303830920214656,
                -0.13565000710624006,
                0.08371137404890497,
                0.09494964425144818,
                -0.050676639515565246,
                -0.055168090953890275,
                -0.051855359719128594,
                0.2670923968429885,
                0.15744273177369766,
                0.18793409189266527,
                -0.23558987182016808,
                0.24304822151754724
            ],
            [
                0.23274698184372933,
                0.008836514410958896,
                -0.2728177053167045,
                0.30398883629684176,
                -0.1740474196513291,
                0.09759143583092995,
                -0.31266704907202225,
                0.061723248685810375,
                -0.28084759555711597,
                -3.2255414196766856,
                -0.44160032982507086,
                -0.29031845037772214,
                -0.2525331018767286,
                0.12812723267542464,
                -0.3269684045765539,
                0.0680549720128467,
                0.04233159415577359,
                -0.3222772440268557,
                -0.050568167840846286,
                -0.3130665352440176,
                -1.2613054635751366,
                -0.2509626313854752,
                0.281865499040569,
                -0.5313231430521191
            ],
            [
                -0.14156361744138427,
                -0.08942054539220246,
                0.004127177917950147,
                0.1179208404152721,
                -0.16394616608459942,
                -0.16497936350005205,
                0.010645856152227446,
                -0.05285954433909766,
                0.060717373018104266,
                -0.24323084914516743,
                0.052527579621985496,
                -0.03155620101639905,
                0.014900779272017191,
                -0.045582492490049614,
                0.02014369385806224,
                0.12545766781932619,
                0.12689161484620257,
                0.20724797777388426,
                -0.019642706784344117,
                -0.2019256025268,
                0.06108387075263223,
                0.04450285555965165,
                0.008521066663858816,
                -0.08254744308885728
            ],
            [
                0.8056108149490532,
                -1.225809912910224,
                -1.4949450983241637,
                -0.3765765302144882,
                -0.40720941530124344,
                0.48684105850019926,
                -0.5310879600287672,
                0.30155842126544613,
                -0.5554648961326784,
                2.27106962172279,
                -0.31816682457205525,
                0.12846241631646188,
                -0.1694580937437065,
                0.21047216893848897,
                -0.47569982981871917,
                0.3659869380711596,
                0.2970627903799113,
                -0.14189550949570182,
                -0.22345709346632847,
                -0.7018932452970391,
                1.1411581118723997,
                -0.29457655705316294,
                0.5335228850915876,
                0.7235545137778252
            ],
            [
                -0.7818317070679782,
                1.637352910299037,
                1.9744759925162862,
                1.3811423404889704,
                0.8353582589626568,
                -0.8196524988435285,
                0.44185556964701267,
                -0.508003607808686,
                0.8132501889060861,
                -1.2837078467308087,
                0.6261732061681988,
                -0.7007905574990817,
                0.7969017600562961,
                -0.7298756338584548,
                0.6993678416996862,
                -0.6035742699587042,
                -0.8309004858402743,
                0.7796479579513478,
                0.632785440194617,
                0.6533524083733695,
                -1.2467135358074948,
                0.5904537494135638,
                -0.7865622567579565,
                -0.5412357487381348
            ],
            [
                -0.19334396090683909,
                -0.01335748602846291,
                -0.04402244894910668,
                -0.07440652157601511,
                0.18621337817483027,
                0.149013604106762,
                -0.009842940603541572,
                0.05625058704674736,
                -0.13491099379440566,
                0.1119014212875362,
                -0.14620685162188726,
                -0.10883114510778251,
                -0.14261154621546787,
                -0.1220660675625086,
                0.06418531724907094,
                -0.09414084666451651,
                0.3495810408395913,
                0.03294920680429926,
                0.1091629255967508,
                0.026038601938437034,
                0.38706805337713296,
                -0.16079474948673914,
                0.26083260487236454,
                -0.10509243553558487
            ],
            [
                -0.21526517126139613,
                0.23846530492555063,
                -0.20086384687059133,
                0.08455322987649326,
                -0.1994096968122169,
                0.1064867319375761,
                -0.07899062899185226,
                -0.13730744825338903,
                4.940402992785061e-06,
                -0.0742240232673881,
                0.2259466387961454,
                0.04773933068781373,
                0.029339955738718147,
                -0.16582952553977176,
                -0.058758965622785084,
                -0.11637579159504571,
                0.085014153041376,
                -0.3107003380906561,
                -0.32677701425313693,
                -0.08662922349026436,
                0.294359705590619,
                -0.10584283309580873,
                0.45973873140270655,
                -0.05913884088930419
            ],
            [
                0.0731329391798602,
                -0.014699723113094506,
                -0.010722528205826472,
                -0.1492207790596025,
                -0.40309934385938573,
                -0.15994017282257675,
                0.025250251403105183,
                -0.03462505763529437,
                -0.12168930107834215,
                0.2379348412755053,
                -0.13534891912734523,
                -0.2657507716673502,
                -0.05792452762771016,
                0.21142848886130186,
                -0.03938760053813706,
                0.20346355866588325,
                0.22204002428211367,
                -0.12948655843680934,
                0.24975375930206253,
                -0.13468116419205828,
                0.006396768080819091,
                -0.137941522204049,
                -0.03491739608101049,
                0.10854002305272101
            ],
            [
                -0.5301411450153594,
                0.5251981073421118,
                0.7928592581699975,
                0.19680626877379165,
                0.13289825794267626,
                0.04395105700227693,
                -0.003852023022482519,
                -0.1431443044688298,
                0.21162654139111148,
                -1.0872453569665732,
                0.3398298309526399,
                -1.922621792582883,
                0.3540067773989731,
                -0.5180443865373426,
                0.3430247931445362,
                -0.15168592373735562,
                -0.2672739977057266,
                0.631185881625102,
                -0.4898392942822176,
                0.5273728402696868,
                -1.2903663648631085,
                0.22709833958357808,
                -0.00304229907909951,
                -3.3419984702000347
            ],
            [
                -0.016957166521061197,
                0.13900624355269042,
                0.005958568152638829,
                -0.07969363344432412,
                0.04044083143160025,
                -0.013298504446320357,
                0.12047626050127763,
                -0.2501519256726446,
                -0.03874625308070105,
                0.5242397210626156,
                -0.028481571082692926,
                1.0038880823831262,
                -0.0022692889592914236,
                0.019176483214219966,
                -0.1361722266433729,
                0.25464318969687944,
                -0.06078614563595345,
                0.07323493438626602,
                0.049735212323976694,
                -0.12737795232778873,
                0.4005680224707598,
                -0.08624767724622587,
                -0.11047676091424967,
                1.8883322159434937
            ],
            [
                -0.2433145336262815,
                0.12959682777589596,
                0.31714982903922845,
                -0.12369843341109725,
                -0.13695508784303012,
                -0.05514823210159586,
                0.13612165990293507,
                0.09290617477022885,
                -0.1090828813433153,
                0.03613871109814187,
                -0.1337171356149855,
                -0.2779902268076382,
                -0.09173998732547413,
                0.08652318623083874,
                -0.1777465935091614,
                0.005354329850286367,
                -0.24446006502468107,
                -0.07452111921646945,
                -0.04624705047736216,
                0.02069122381465489,
                0.05177152931173872,
                0.03393651620801733,
                -0.008141812909817359,
                -0.12144481908610463
            ],
            [
                -0.09469748290173288,
                -0.04938555261499624,
                0.0319615080617043,
                0.2191647065383547,
                0.12385915602330902,
                -0.09521697606914535,
                -0.09121120673734327,
                -0.013160218174329141,
                0.033193094927780706,
                0.09245269250134378,
                -0.22929606930773686,
                0.301369031063426,
                0.10309662563742884,
                0.16346703103909788,
                -0.020449637068916435,
                -0.055557094804998666,
                0.2826776415758248,
                0.05946775192335633,
                -0.043454577751167275,
                -0.08614924316170065,
                -0.062011843703921,
                -0.2644214725909095,
                -0.08907057368847418,
                -0.02882665712992375
            ]
        ]
    ],
    "tresholds": [
        [
            -0.12492422692873248,
            0.05208944556284439,
            0.03894936772243737,
            -0.04482055412514493,
            0.12400692237465882,
            -0.0697027870226778,
            0.09374204687260401,
            -0.08144929148602993,
            0.1385683141010228,
            0.011174405873469581,
            0.2121876310299518,
            0.029232824735126475,
            0.11659575905644426,
            -0.06928720167710223,
            0.07585426479557433,
            -0.1567532633887116,
            -0.21526343602371062,
            0.1507651821070852,
            -0.0534814598788041,
            0.12124495156137902,
            -0.032295585688679615,
            0.08387192769762511,
            -0.055016077830678106,
            -0.020379892726398147
        ],
        [
            -0.18359020882095964,
            0.15061941202945173,
            0.08443196057146259,
            0.3077903247374237,
            0.17506112876597457,
            0.01662392084620143,
            -0.0691300659963795,
            -0.44987110351567033,
            -0.20126218159781278,
            -0.2665438504430633,
            0.14039284522434922,
            0.08138733604555799,
            -0.2110406779621414,
            0.044597876616721085,
            -0.13094319104257482,
            0.09147416078681278,
            -0.1425853079168258,
            -0.30881869838020626,
            -0.12614256600853446,
            -0.10878585952883363,
            -0.0849570507015552,
            -0.06818488076566034,
            -0.28325487363993634,
            -0.19623930162870257
        ]
    ],
    "SSE": [
        3.8979319005696684,
        3.7390992435697554,
        3.999507964623393,
        3.999090352666056,
        3.9993673839370154,
        3.9999988717199932,
        3.9999988362547803,
        3.9999993818770863,
        3.9999986312051767,
        3.999835510112221,
        3.9860331399836886,
        3.9998543843775525,
        3.9997758307739577,
        3.9980843331932863,
        3.99898145658732,
        3.9996891289584657,
        3.9820972371663457,
        3.9665189666589704,
        3.945071166355568,
        3.99815577702301,
        3.9997004527936597,
        3.9785411013457908,
        3.9635298398775043,
        3.9538712566278083,
        3.961816974510928,
        3.953406746215103,
        3.9456123982076656,
        3.949176886115858,
        3.9447928799847887,
        3.981479232816253,
        3.952368159831829,
        3.9382788149359853,
        3.899161406318489,
        3.9651879533142766,
        3.9724877907628984,
        3.9811865669363495,
        3.9912216159330813,
        3.9968297163633135,
        3.998692429343487,
        3.998057841012838,
        3.9996194430819387,
        3.9999888926213303,
        3.997962071081147,
        3.9881527252455253,
        2.384753609697953,
        0.5236557775944991,
        0.5482308849770323,
        0.6343246746450324,
        0.3564423550634725,
        0.26588419323387397
    ]
}