{
    "mode": "train",
    "input": 42,
    "output": 1,
    "GameSets": 4000,
    "Layers": 6,
    "weights": [
        [
            [
                11001.648638982088,
                -11000.52901639505,
                11003.269317225664,
                -3.484714743878003,
                2.216457047056335,
                -0.5017844440692374,
                2.8663435529519763,
                -1.1385205248992933,
                0.5398109252174195,
                -0.3076946785531222,
                3.4423181372509553,
                -0.07690244156849664,
                -11008.883277118353,
                -4.488664465887601,
                -1.5267009219145116,
                -6.055713500463679,
                -2.304611896102264,
                3.0171314368439344,
                11009.425854847004,
                -11003.378868119757,
                11012.050306024523,
                0.30358137275458424,
                0.7473865145226585,
                2.618890261085076,
                4.890106174032728,
                0.24810649041464933,
                6.225393918130131,
                1.344032381231437,
                -3.9937473231735616,
                -1.3160406623702394,
                -11000.848215905045,
                0.044892412340940185,
                2.3380264719439956,
                -1.3779579919375087,
                2.478086157050075,
                2.302867376392385,
                -1.4360597343411006,
                2.1552015855598277,
                -2.6815087930676627,
                -5.864092060499121,
                -3.1499027386993426,
                2.4509889884174973
            ],
            [
                3.4014404003893266,
                -6.140667249072188,
                4.518280982419148,
                1.7455038309197835,
                4.766147898580323,
                -0.5361585021804018,
                2.9706316353034277,
                1.3290181528308345,
                -0.482001528948028,
                2.6123115442477087,
                2.6767413349729217,
                3.026532061886922,
                -7.921077575479554,
                -2.723395881330896,
                2.124339248418547,
                2.7664682450973896,
                4.389706790472453,
                -2.828173833205586,
                -3.9166617902982677,
                5.219657619697862,
                -1.7113238324906657,
                -6.944626446224045,
                0.4676013844412839,
                2.2010875255671194,
                0.8527286994512642,
                -5.256789514786908,
                -2.0644935932384185,
                -3.7549968115332515,
                -1.7052872482723218,
                -7.149935270812734,
                3.118455520188575,
                3.857512004874685,
                -2.5792731261285486,
                2.6353882394091723,
                1.665444011626968,
                2.246510340908485,
                -2.620079987331834,
                2.151651895630387,
                5.858442168708587,
                -2.063641743103699,
                3.922958765183834,
                3.7279724486834
            ],
            [
                0.13549835450208503,
                -4.675778366019298,
                -2.927039111490809,
                1.958841498551545,
                1.1566892184486983,
                -1.3953891105150167,
                -8.195853825742057,
                3.8618026722913266,
                -2.6060685831470813,
                5.952126452295623,
                -0.9572651223651487,
                5.8492612873239604,
                8.547728157178504,
                1.3299614939611242,
                0.7414176696281903,
                -1.1656320565861904,
                0.7188388827479122,
                -5.305534676922206,
                -0.8448763861092362,
                0.8809927113556238,
                -10.521081433945643,
                9.071821585358956,
                1.112241067655036,
                0.8149533169124421,
                -2.500499978286721,
                -1.4541321154566196,
                1.6832415536629326,
                -0.48467683765211417,
                -0.025240856562951795,
                2.1221930480670337,
                -0.7040681541441628,
                -0.2641014717840211,
                4.631474694121013,
                0.37155221458635035,
                1.866978323553113,
                1.480410263794736,
                -4.887216782473941,
                -2.2289456323917984,
                5.218323993627484,
                7.077354507846871,
                -2.0355131098231736,
                -0.6063539271011539
            ],
            [
                -4.592364571426154,
                0.18308064172611865,
                -2.663871285105235,
                1.1264645950621002,
                0.6760958937492307,
                -0.0499604453781669,
                -782.0045695743696,
                782.6505759053259,
                -7.029339933271732,
                1.565952077954287,
                2.5894887602293912,
                -6.160030016880127,
                777.8110261991117,
                -0.6485163063645845,
                -1.3317340225391345,
                4.832841406549931,
                -5.825801466965868,
                1.3535342239520844,
                783.202300925373,
                -785.0635700836,
                -775.4010335502745,
                778.7502572733422,
                -4.810863363834002,
                2.184380011154813,
                -3.1387608413242503,
                4.245135240093534,
                -2.9699213602193,
                -4.110242405609905,
                -3.2870566768617313,
                -7.977094420138145,
                -1.6592998535905605,
                1.7455689566722088,
                2.0332136237541727,
                3.747055512679557,
                -0.4472471945911331,
                -3.6414392361479306,
                -773.7843207870006,
                3.119617392377463,
                4.970771084022269,
                4.268866132946851,
                -4.681633180856214,
                2.3557315844909876
            ],
            [
                -4.855047076828049,
                0.27459871912096023,
                0.32852898266037706,
                4.040575733722596,
                0.31313207969589507,
                0.6866460319016207,
                -2.811492724649349,
                -4.045201384097518,
                -0.09156818876967654,
                -8.636903570668714,
                9.462051156547792,
                0.45471802129994693,
                2.803697662163416,
                1.4197910165347698,
                3.715332057050453,
                -0.8592408501244411,
                -1.8601516464636718,
                2.9515316303978225,
                6.546124874539173,
                -11.455286004376022,
                -4.91467094262223,
                0.32445556251643565,
                0.08456901309162222,
                -0.0797905027867938,
                -0.5452270578009305,
                1.2092876952649585,
                0.5532543171091994,
                -3.417972857292047,
                -1.9024343399839476,
                1.615774313788689,
                -3.107112586713512,
                2.6232376468315466,
                -3.2217463152005914,
                4.546747872005644,
                -2.0731931391989247,
                -0.5667278528564939,
                -5.7085869402529665,
                1.6262847631510435,
                -2.290140319339308,
                4.86604866396684,
                -0.4839070165200008,
                2.884627974745159
            ],
            [
                12.695225399086585,
                3.677906117294375,
                -5.7043076708585865,
                6.089657611831035,
                -0.5763385051711624,
                -2.258270496459574,
                -10.052730446831045,
                -6.182706812039068,
                -0.5083204776261027,
                1.0517684167542545,
                4.527659346615927,
                1.465684065567401,
                2.4044559195963484,
                1.2741741291216566,
                -2.025845374103337,
                1.9199835594265944,
                -2.1449009417012403,
                3.6470688327258545,
                5.6236883224877126,
                -8.287336354323948,
                5.1821759146916255,
                6.973578972662157,
                -4.429290249876176,
                -5.294164647655238,
                -3.56606849841044,
                5.1192629622381975,
                -0.5348796558276242,
                2.7685459924983937,
                5.395927284573306,
                1.557373475431223,
                10.241401576948691,
                -10.574625473946318,
                0.9916626161735197,
                -4.674442661493857,
                -3.467944003233755,
                -1.5527642486709754,
                3.451145465396869,
                -2.9092160380065324,
                -1.2268335911714159,
                -1.5043499822247102,
                4.9275021682140805,
                -1.19979672438555
            ],
            [
                4.082311619710875,
                0.5272087262267849,
                -0.8705964191934773,
                0.47630567525373646,
                0.3334666375152665,
                3.6477347984380852,
                2.5115705652583884,
                -4.795905573045561,
                0.9091001055811936,
                0.3476777298199458,
                0.16841599140177793,
                -2.828306671361891,
                -1.0151253776145253,
                4.309786906367751,
                3.5294412336153806,
                1.1400911968507856,
                3.247805026706429,
                3.1854839563408035,
                -0.5701712242533206,
                4.039300599278755,
                10.380006884945265,
                -2.5609284159197365,
                -0.7732090691002413,
                -1.3081147954499361,
                -3.3402308942086565,
                -2.5161344895663684,
                -0.8950043615903518,
                3.2388579565963416,
                0.04951478148578139,
                2.3720178509634833,
                -0.3056963128559445,
                -2.5360266992464977,
                -1.439538558492581,
                -1.0802844974109644,
                3.6619650314971532,
                3.717658889444434,
                2.0407313024742697,
                -2.6035140120290494,
                -1.0868832075087522,
                -2.225597434492877,
                5.125402681684905,
                -1.9028434377788765
            ],
            [
                -16.852054890248166,
                -0.7276489886457173,
                -2.1225601362244038,
                -3.9321982312791284,
                -1.3842872179248487,
                -0.11667880396584852,
                1.491623137687457,
                9.796903639955547,
                1.4407296386044606,
                6.581947158760185,
                1.7270896530729782,
                -1.1779039854867053,
                23.086550484374385,
                4.517983878005017,
                0.3510743063880742,
                0.615040997583999,
                -0.477963253462438,
                1.8772415047642674,
                -1.2179425746234998,
                2.660575046975996,
                -23.44970474963868,
                9.320551044883162,
                -1.2402139427501044,
                -3.2147105874578585,
                -1.9432366109383588,
                -0.5972186368444226,
                -1.0840183631602873,
                -1.3241660926917433,
                -2.577473142992819,
                1.6673540420395276,
                14.95624428093042,
                -10.486791003334714,
                6.012383059030837,
                -0.8962574404866154,
                -3.505756258277347,
                5.032573148838591,
                -8.083751991726679,
                2.271664064868102,
                -1.7614066950766398,
                -0.13281164894167363,
                2.0554855820367988,
                -0.096480358807131
            ],
            [
                1.8788095906153273,
                0.1855960863856271,
                1.7280318113805597,
                3.6499766562611944,
                -6.24318539602744,
                -0.10963205449889325,
                5.547297537513842,
                -7.05159522573571,
                3.6858006993242696,
                2.3579236055035895,
                2.4211366434329618,
                -1.757642466134465,
                -6.097140232107329,
                1.9240184834010583,
                -1.2212977768167042,
                2.2566532592453235,
                -2.3157634809073633,
                -6.786116895407945,
                0.5485018775341118,
                -2.6921606340226467,
                6.222230052192879,
                -5.057687619468866,
                -2.813045339555721,
                0.09358273441610082,
                -1.074717928909404,
                0.743220513529127,
                2.8790242110826956,
                0.7505474185832914,
                0.5779652336119225,
                -1.0994500732044534,
                -6.680211541492009,
                2.122820117270454,
                -0.7927297863517263,
                -1.2745917796161577,
                -0.9815162496058882,
                -1.9162993830205246,
                4.958220027344526,
                3.1665049414041815,
                4.500198055441865,
                -3.5569876482515195,
                3.070156028445724,
                -0.9145217412973673
            ],
            [
                3.9890323060491735,
                -2.5292291524511508,
                -2.5131350567768447,
                6.0236813060245975,
                -0.2587137966745825,
                1.4378631712684538,
                -2.480902378652666,
                4.332763988446973,
                -3.926392509304309,
                1.12233762787943,
                -3.4039504941170464,
                -0.7388991053710889,
                11.800552389408756,
                -0.5604916659543822,
                1.2460252919421242,
                -2.1981437825951384,
                -5.501434448711284,
                0.42741942130527355,
                -7.8588617767183955,
                1.584957240657309,
                -11.006436612807157,
                3.2036528496034586,
                -11.81048796359382,
                -6.118718277470013,
                1.346124064463491,
                2.470718582851292,
                -1.5409768953274747,
                4.444654769669027,
                -3.1787751125914636,
                1.2331075147219974,
                8.581623420780698,
                0.6069921700233876,
                -2.073192294620429,
                -3.3098083205589286,
                -1.3598891257730172,
                -0.6181243228596107,
                -1.6553208472664933,
                1.2498499270031183,
                -0.742230921599698,
                0.42499919378025514,
                -5.032624308707258,
                7.249621441591511
            ],
            [
                2658.3346291212956,
                -2658.3794604164573,
                2662.909618535151,
                -7.8119202657533595,
                -2.1168397263861247,
                -3.4915535479563817,
                -421.77601402320795,
                420.62857315833185,
                1.5103205098441297,
                -5.611359887670663,
                -3.738598869562069,
                2.079802441934785,
                -2245.3654078908025,
                3.1340947698659387,
                -3.1317136211808245,
                -2.877347428525303,
                2.4695473978929794,
                1.2368474643504856,
                3088.1577285823305,
                -3085.1956640463877,
                2243.4312687037614,
                418.9115621537019,
                0.7011766424778921,
                2.9130647392115123,
                -1.877247872036347,
                -2.752228301032272,
                3.7082941629739823,
                2.61517132583978,
                -3.7889160156731214,
                4.655490995892432,
                -2664.542129806857,
                4.340963039545202,
                4.541348316908385,
                0.9585135781567655,
                -1.133859610317096,
                3.612767233091124,
                -416.96782516357473,
                -3.4906115042083905,
                4.260222717769245,
                -2.3771577632003575,
                0.9552414051442477,
                -2.808411873857236
            ],
            [
                -6.528393432671454,
                -0.6425412327371016,
                -5.49135248881042,
                -1.9634676514282798,
                -3.0904626561226753,
                2.1099403630365443,
                33.85803578616593,
                35.44242119928853,
                -37.70913169957873,
                -1.2480443181617926,
                1.373978608306992,
                -1.8735026020697398,
                5.7037087932616135,
                -3.7065131438506826,
                -1.9703877432149057,
                0.8901213900284008,
                -7.151753806308756,
                -3.6246772777005485,
                -36.349898409122304,
                36.398348977153915,
                -33.73333053732763,
                -35.91943869417211,
                0.8324516319355227,
                0.14959014495098685,
                -2.181361699244248,
                0.6630589716515761,
                4.094042871209328,
                3.5776388749756864,
                -6.446096224594175,
                -0.6737665446237394,
                34.56963662527142,
                0.30859439813156436,
                -0.7725326117951721,
                1.7307560713106362,
                -1.4244456110848829,
                -2.4079899227631656,
                -3.724017639259257,
                2.384061944296871,
                5.9497231326072795,
                -3.5673408929482773,
                -0.6975217856804953,
                0.2636775126904467
            ],
            [
                -1.5492135254823702,
                6.254940157317138,
                -2.2236702744772607,
                5.105480280237697,
                -0.6378863615042853,
                1.6260032145774241,
                1.2964069837909755,
                -3.5465155361397604,
                -4.23901694397709,
                2.1092086625052873,
                -3.338397447968894,
                -1.2632253490324619,
                -1.4797155297687297,
                -0.35772653861996295,
                2.6293048435451905,
                -2.0774123229150216,
                -2.2532537253858664,
                2.785120550162736,
                0.5135131526420087,
                -2.3899353924609685,
                -6.394050172511169,
                1.393350614797149,
                -3.7202802293627157,
                6.093272309827293,
                1.2264519016738438,
                -3.4372249683248532,
                3.287158917323304,
                -3.8604316963641474,
                3.889573385651694,
                2.0208983130270455,
                -3.21517785905898,
                -0.05966228509893202,
                2.528217470833191,
                2.898470019752649,
                1.4606653627786599,
                -0.08500201747445035,
                -4.112486920319676,
                -0.9759985002917073,
                -1.5095504909534005,
                -3.4595796947824553,
                -1.779471616535141,
                4.31359867987693
            ],
            [
                -74.49872615284087,
                -0.518307095112749,
                -1.4519958482320343,
                -6.41701760380279,
                3.8357393929532235,
                2.483127969205058,
                0.05856446717070484,
                3.0791058370511464,
                -1.9652919906803743,
                -1.2833386304802095,
                2.2178712595267935,
                2.879300031332604,
                75.57171477719112,
                74.97011988345594,
                2.018157694291907,
                -4.314610780785528,
                3.2603571656176085,
                -2.839342385372028,
                80.2985599025074,
                -78.59389056839615,
                -72.35010228973115,
                2.5805469668125713,
                2.6147134424428944,
                -1.1072551345084398,
                -4.962379700267587,
                0.28468131525326246,
                -5.781257208436136,
                2.562466321730305,
                -2.620505713036394,
                3.152792823320261,
                1.9131909899096649,
                0.15310633436085871,
                -6.034088021296417,
                2.735465466377026,
                0.9439219324087943,
                -1.6603762738692618,
                -77.08424886398349,
                74.63912780364456,
                1.4140847272966963,
                -5.002417591406784,
                -3.4078462480044274,
                -0.671271636586253
            ],
            [
                8.462393176610318,
                1.331805179707838,
                -3.4684470627134276,
                -3.809995413315039,
                2.9136715906440243,
                -3.480494644931061,
                3757.314063307786,
                -3777.500960820932,
                0.9241624296018645,
                -1.080814196002445,
                -1.289745212078513,
                2.0604219255850644,
                -3769.7640140206586,
                -2.5435482293637803,
                2.054155298003413,
                3.1844148452724856,
                -4.456180462461853,
                -2.9345505064625637,
                -3764.648275736058,
                3768.8513789721965,
                3778.035191061384,
                -3774.5385923240847,
                -2.2082599151020603,
                -6.870665000034286,
                0.5634498248668123,
                1.048177465593045,
                7.829900701369684,
                -1.7079023055533318,
                -0.6499705470831079,
                -6.2463887375563845,
                6.251588449639772,
                -9.041424621405435,
                2.771685573277523,
                -4.211006088604538,
                4.730253408056854,
                -0.6197072238642988,
                3775.6395563006104,
                2.0657088524194402,
                1.2770887709489402,
                -0.05548680594331682,
                2.4465948641590636,
                0.6471162835546658
            ],
            [
                4.811856614647594,
                -3.802839737377371,
                -2.0982876465310976,
                5.748740638689125,
                -2.0542317346526753,
                1.1335676180228735,
                8.928254035400021,
                2.6184658359854094,
                -0.30088322338442236,
                5.121079584137841,
                -7.237226132970546,
                -0.09239933158842818,
                9.325315060972764,
                2.830558723047987,
                -2.5155735972240016,
                -4.159727122469012,
                -1.7840897293658615,
                4.042431133105021,
                -1.9800142414351325,
                7.639575962022793,
                -4.28402657467602,
                -3.359305298847507,
                0.11242282453106703,
                -1.370582386359949,
                -0.27450923829321583,
                -3.332971097991826,
                -2.6301178865070733,
                3.917593578879628,
                -0.6864516312113016,
                3.7950908858641332,
                3.543576972655614,
                -1.75968783178863,
                -5.062532929916343,
                0.2221879856085203,
                -1.5656903943878842,
                1.9658478731531492,
                2.1173401496967137,
                1.4878396684924116,
                1.8614946805912091,
                -0.24119398525455218,
                4.886066366594261,
                -1.735025091148554
            ],
            [
                -14.494498046952828,
                -0.42033181636006633,
                -2.8045040227638505,
                0.1316670254163253,
                3.7934742317379904,
                1.3616863428512194,
                0.9662895311206151,
                1.662466101312214,
                0.7295900471917598,
                -2.5535188178293184,
                -0.09378837767005305,
                -3.14317116667399,
                7.918620339297066,
                18.929970427006815,
                1.9733383967195728,
                0.941863927854193,
                1.4715281825646276,
                0.27402027834873055,
                15.174569812211173,
                -13.068025168009996,
                -13.392155427411867,
                -3.5798252971173037,
                -1.204745140998922,
                2.075417383474577,
                1.2663421194040778,
                3.0622658562441174,
                -0.8477818958147079,
                -0.8972533350272466,
                -1.6743148043904945,
                1.4004462537348144,
                -6.080644916181439,
                4.331742226338122,
                -2.5218889956792645,
                -3.388197236047633,
                -2.2849241437187118,
                -0.9680281070952395,
                -13.415559876921074,
                18.437362614058888,
                1.6897104703395334,
                0.21567417153201413,
                3.4958585201177566,
                -3.0455229620010655
            ],
            [
                0.9074502569123148,
                0.23108238561992714,
                -1.826081799838275,
                -7.922933000117314,
                3.7747212444352107,
                -2.9015865628250403,
                -2.522639492091491,
                -0.9434254918148351,
                1.3504431915140969,
                0.7552436018898341,
                3.2059383849723555,
                -3.6804620050853036,
                -3.594263922345194,
                -0.35566745511147574,
                2.8878353391239084,
                2.9571941132770423,
                -7.412426651427779,
                0.02547000742196196,
                6.60150847508908,
                0.6630970614484104,
                2.5913414362121454,
                -8.947455019721835,
                -1.3347375636650278,
                0.25831050962657154,
                0.2375583681726775,
                0.32699491455055807,
                1.1420498951536753,
                7.735380232538064,
                2.4578903619431647,
                -1.3020653957627928,
                -6.273348328723466,
                1.1306878074102573,
                1.3052035555267731,
                -4.469490177230538,
                -5.989553952762795,
                -3.803604215469715,
                2.906545739571697,
                -2.49742665681133,
                2.759796358755547,
                -6.968116252424612,
                3.7968024105751375,
                0.5519200795348
            ],
            [
                -0.23046696323440774,
                -1.2593883099422531,
                -0.07502618035363968,
                2.682289363484296,
                1.0513761391602678,
                0.856914129662058,
                40.662392745606525,
                -38.24893257452646,
                -4.0372850435852445,
                3.9910012644752717,
                -4.035421483666931,
                -2.8643035442378757,
                -44.63671434148757,
                1.3885114331411714,
                -2.464224124961557,
                -0.12356491173378056,
                -3.408441658646753,
                5.363995774366479,
                -37.825595343437456,
                38.60056029677675,
                45.11362222175984,
                -43.25882481291142,
                2.2190582117787883,
                1.3814690433620764,
                -1.725168881761871,
                1.303533555586819,
                -4.103297853302802,
                -2.942327278898473,
                -2.773815292608766,
                -2.187496956997297,
                -7.041049193683852,
                -6.3320549927227905,
                2.5083623365178482,
                -6.013752978347534,
                -3.694120608007918,
                -2.4272208786765583,
                33.24202354001078,
                5.1395427474911175,
                -2.4180512497331232,
                3.654658492243998,
                5.9974718938160105,
                -3.704713037414918
            ],
            [
                2.1606492753612985,
                2.3183703595842724,
                -1.584810686623896,
                -3.721715303231398,
                -1.7084763987700722,
                3.723385500950976,
                5.896286562161508,
                -4.9965749960736145,
                -6.5439866182790105,
                -0.8986438681939769,
                1.8639004219308015,
                0.980604423335891,
                1.5562918696148165,
                2.277331869839915,
                -8.000407646675155,
                3.9499371266099783,
                -2.0049665834379415,
                -4.193331382335177,
                6.6667440626621035,
                -7.679911921604401,
                7.4680183405109375,
                -3.7404120351533585,
                -0.7216743337772386,
                -1.2836080909605223,
                -2.441982691680884,
                1.6376954915471116,
                -3.252057925301931,
                -4.793961421853672,
                0.6514349258770882,
                2.092387075196979,
                -0.23058514989057086,
                0.9099689343935691,
                0.9112325519798185,
                0.7864339853773736,
                -0.09576362720479772,
                -0.43683466590174475,
                0.6869158778044707,
                3.028092525980499,
                0.4509031076078667,
                -1.9899618952899536,
                3.5957234502856767,
                -5.372083356079111
            ],
            [
                0.774823543945737,
                1.2101150631294924,
                3.48161255035963,
                -2.581487527452601,
                1.3446306834305741,
                -1.554612442123579,
                7.4635101851792784,
                8.167756523814804,
                0.8998659584900289,
                -3.9679168761591206,
                -3.6855823258095715,
                -0.479446803619804,
                7.365013917217287,
                -1.1033530785582366,
                0.8320021821081118,
                5.031930060017212,
                -1.5389184090241885,
                -0.2674381185305057,
                -7.682914991122348,
                10.603808239400918,
                -3.727920024678549,
                -6.95261660294946,
                4.4642361989826185,
                -1.348239666802344,
                1.2248571519168892,
                1.4573200886288633,
                -8.38682378975201,
                -2.476676788701589,
                -4.311133927911794,
                -0.9916705140780832,
                -6.991949248121859,
                5.710059596479599,
                -0.9488721662861472,
                -2.277112773867475,
                -3.321532547110002,
                3.398335743368077,
                -1.109692568948103,
                0.3582437222450101,
                -0.9503088662258681,
                0.6954506652113863,
                -7.5879454829926045,
                4.7662981497940935
            ],
            [
                -2.082216219899182,
                -4.460676214243764,
                -1.379352398172288,
                2.9791089788927505,
                4.986131590187449,
                -3.5012235809277326,
                4.432551973335554,
                -5.05860061044624,
                1.3051827334344894,
                -7.9012674185306,
                -8.312321246754996,
                -2.186879266510576,
                -12.131686932893238,
                -5.216882772229718,
                -4.734582062006456,
                1.9310335393404308,
                -3.246335365743315,
                0.8195141637998625,
                -0.7769058928200666,
                1.586582389322535,
                6.475517806101015,
                -3.105149433180145,
                1.8397086211806117,
                2.4795941066724314,
                1.308182733740313,
                1.5957573934603833,
                0.025848299095259514,
                1.703815756226894,
                0.12832637001996003,
                -3.7771604197955364,
                -3.772013465579246,
                -1.2869355869993588,
                2.594576165607692,
                1.2409657354647516,
                -2.0984125910017264,
                -7.202661057731949,
                0.9728656574484954,
                -1.8152116317737075,
                -3.9953424319073547,
                -3.357938236960201,
                1.0380009901202845,
                9.819345394389533
            ],
            [
                -1.3043800608323646,
                -5.127704719408246,
                -0.4370301788338168,
                1.2425624375077058,
                -3.277626730421433,
                -1.410744592042133,
                112.81481594923169,
                -118.05112360740274,
                -0.20044237795003494,
                -3.941216891543034,
                0.016974491621808547,
                -1.8899526954668666,
                -125.36055332394497,
                3.071652096421095,
                0.3978290654889531,
                3.2356065601613926,
                0.42412996327189273,
                -0.1396754245920709,
                -105.30542254132874,
                104.2240259303435,
                121.96082164303975,
                -121.66606063206592,
                8.684412581047953,
                4.431568858211567,
                -5.059019332026952,
                2.030503419813224,
                0.44412161930122723,
                1.7530179802382246,
                3.0677955236628915,
                3.0716899922299077,
                -5.240406559853417,
                -3.2210898020835548,
                2.159008183404194,
                6.690670746677581,
                1.0820301630473865,
                -0.02373359590223795,
                110.77370860503567,
                0.11761110790304809,
                1.0192865500593262,
                -5.139162624145322,
                -8.791409805581715,
                -3.5673997648370253
            ],
            [
                -27.843483263430283,
                -1.6201750716188348,
                -0.71516756570695,
                -1.841307788767988,
                5.271034746112282,
                -1.2551202670173307,
                27.418757178900282,
                29.383431593235183,
                -0.7871164968648589,
                1.928703343335702,
                -2.550616319664955,
                -2.2749799192421998,
                0.8130750013817779,
                -3.600828952355252,
                -6.194707472311894,
                -1.7573780197244961,
                -6.250085549574501,
                -1.5618872703874003,
                -30.597048561875578,
                40.78803355951233,
                -32.10083680362514,
                -2.6131683217642476,
                -7.731533716248396,
                1.6678779246027902,
                3.2329146225047736,
                -7.836340945069925,
                -1.3425954712005042,
                1.3288052107314356,
                -1.3024085113434825,
                0.5964913804237157,
                -28.23579112405818,
                31.581047281569692,
                1.9524294046608923,
                -4.164514780210737,
                -1.2806088611709285,
                1.4544410675282557,
                -2.2247113225523134,
                7.327970825573227,
                1.1129209212578965,
                6.876183755917199,
                4.190562466421384,
                -2.1069887442555957
            ]
        ],
        [
            [
                32.6701739172871,
                25.61901652214531,
                -33.789357155777516,
                -33.545026344039805,
                -33.55233688636782,
                -27.121183933384327,
                30.045152466841525,
                -31.8617702108383,
                39.007666843701195,
                -32.57868077044658,
                -27.99445261702178,
                35.455914917068334,
                -35.66894985913506,
                -29.86212721066281,
                32.544169853508656,
                30.13856122275758,
                29.964926100083527,
                36.31838621862288,
                33.01069969232501,
                31.294324434603066,
                32.92575884122199,
                32.66503511253447,
                28.743526567131717,
                25.79742804242258
            ],
            [
                22.920906556741247,
                31.535717540204022,
                -33.13741300948303,
                34.85839508564061,
                35.13621182360347,
                35.007250980532326,
                35.2008461000411,
                -36.52946359249498,
                39.683543929220875,
                -39.20202470370737,
                44.522934538942806,
                -31.283148040141302,
                -36.57833598105396,
                32.97138447372108,
                -37.91005024194792,
                -38.44093970235383,
                38.5982053177128,
                39.66792059416006,
                -38.61044013319256,
                30.23785064153241,
                -38.37416766550839,
                34.64477478054129,
                -42.959922608409094,
                -39.45083016151549
            ],
            [
                -3.813852179346834,
                0.10938262008786327,
                -3.8414518820492543,
                2.352490595658588,
                0.4778934061794292,
                -0.3663839241702525,
                -2.4867851334188797,
                2.2324108698844687,
                0.1840984726677487,
                7.143548142286342,
                -3.992349600090337,
                -1.3377132341099476,
                3.206099776381422,
                3.4652461358874285,
                1.8697415188687652,
                3.1246631859976244,
                3.6945231265998975,
                1.467025611041526,
                -7.141898499675773,
                3.5642092586581904,
                -0.8103929202738156,
                -4.2944700485486464,
                -8.706116880707826,
                -1.294203062553388
            ],
            [
                -2.007781863160854,
                -3.942757151156416,
                -5.620216371093363,
                0.7901253228051662,
                4.793484611256536,
                -5.520692916273606,
                1.1774948173242101,
                -0.47388740523811335,
                1.8794909967640783,
                1.6766680916612215,
                -4.351102240364998,
                -1.821991715034964,
                -1.7968961336920595,
                -3.4903464442080367,
                0.22326650611802443,
                -0.09911440474879209,
                6.586070459308328,
                1.440844314335743,
                3.0588709314037787,
                -1.7128711826663348,
                -4.750160614279727,
                2.7687976649067645,
                -1.2797470691267334,
                -4.138406555982211
            ],
            [
                -2.121669026144722,
                -1.05904748967706,
                5.914558569264531,
                4.259532763408211,
                4.093943882764792,
                4.9718893946753955,
                2.707431479346696,
                4.295443405177985,
                -1.5445057463149088,
                -1.0334618355972953,
                2.155302443823016,
                2.594087817873835,
                0.21180591760303574,
                -3.28328726868617,
                0.24283546580999096,
                -1.0667745762101233,
                5.1371542734725555,
                0.783986356915788,
                4.8799987160799265,
                -1.8264441893974661,
                7.1407124645300355,
                0.8742696317963841,
                -0.4007916255287581,
                1.3837138401397429
            ],
            [
                5.372541852994108,
                3.2705996306161675,
                -4.186004798538932,
                3.378261952520591,
                0.6612513636151017,
                0.6505196212041021,
                4.2753474930550714,
                -5.787990232379615,
                7.451259991134216,
                0.2140300314959044,
                6.358522894238108,
                -5.0405676136388236,
                2.2603877925698126,
                4.26263055031165,
                -9.333869745523215,
                -6.644609573504494,
                2.429768174161627,
                0.6410739347967779,
                8.134345530640461,
                -3.986231319859408,
                0.32613018918352116,
                -0.2950139966508872,
                -0.6169010701600315,
                -7.659438632877196
            ],
            [
                -8.118791895787101,
                -2.6864902585488237,
                -2.065901481220314,
                4.44337967595325,
                9.135766733485381,
                1.1762138176201333,
                1.68449796165771,
                -8.451272861430757,
                9.452391594886345,
                -7.488466795516421,
                4.490529901960688,
                -7.213870273066241,
                6.70251376990821,
                8.124044203787369,
                8.290529511530579,
                -5.070548179071429,
                7.631669622801062,
                7.060805427022915,
                6.540349571096271,
                4.821145610451989,
                -7.297179507061674,
                12.965504465317284,
                11.154694860693931,
                -2.3675179777851936
            ],
            [
                3.496255906677753,
                0.5019995633051915,
                -0.012758017836569002,
                -4.795905907850728,
                -1.394498498506183,
                -1.0067379093985496,
                -4.959802599004938,
                -8.241237655848003,
                -2.5874100287107322,
                -7.619117295985701,
                -3.1291223997455155,
                2.2342618573491397,
                -6.196602323134005,
                1.1667242864147904,
                -0.9320504886978885,
                -5.432358730341209,
                5.1208725251106,
                1.9881241891456676,
                -1.7002557051416614,
                -5.0292015840892415,
                1.67413798573485,
                4.9437134623759915,
                -6.9449537834111865,
                3.873106501804153
            ],
            [
                1.1478424299787968,
                0.858383992090849,
                -3.5901104712702785,
                4.556606133972728,
                7.100698392288157,
                -7.39396820255981,
                -3.280807496537649,
                0.37640469693037387,
                3.088686889746683,
                0.23050871788819846,
                -1.3498785175853885,
                -1.675207135357168,
                -1.0280221629687898,
                0.937388677095598,
                -0.9570207976235932,
                2.8356368032722687,
                -0.9792230729458485,
                2.927772168424154,
                5.691744322476501,
                -2.5821241350933684,
                0.5633075452606238,
                2.4580112478837,
                -0.8974473656236502,
                -0.8205409704973354
            ],
            [
                15.513483017470065,
                -20.41912776798701,
                21.906072520793284,
                10.696696855958232,
                17.53331288139818,
                -15.274902942260502,
                -17.679622575358817,
                21.518104754986503,
                -13.462366670591154,
                16.02192084996659,
                25.17828167488213,
                -15.556562120917448,
                22.67718958735632,
                3.5067380577139815,
                -14.150404374919876,
                -10.454917726924274,
                17.276110079599878,
                5.892222013294575,
                -17.2931376851301,
                17.551532917158507,
                3.0920199026684347,
                -13.692350908067164,
                -16.743995075427744,
                -16.541288276242824
            ],
            [
                6.628369234418163,
                7.079255636381446,
                -6.6828934807281515,
                -10.246706831072236,
                -13.115239787231376,
                -11.137066783630202,
                10.84725195048749,
                -13.825667111733512,
                11.817250248084717,
                -11.51534556366514,
                -7.408805487634001,
                10.526590542204529,
                -16.573958622111675,
                -11.07159393142185,
                16.802370586882063,
                3.7456950102358952,
                10.280629146468211,
                14.698917319317497,
                13.564660282781546,
                11.346196078073874,
                8.533456321618397,
                15.80710775562783,
                6.581046567505516,
                9.933448830844583
            ],
            [
                3.054944412830589,
                6.940855365847817,
                -5.172282273420093,
                4.7339275891573775,
                6.941016409718752,
                -3.0671496841340637,
                5.708753295605931,
                -9.913149785183974,
                6.901610258032705,
                2.9722377622743417,
                5.950773735469089,
                -2.4182914481087514,
                7.88424768610109,
                2.5718594444415475,
                -4.284147218721054,
                -1.376169857052246,
                6.015332723707768,
                7.63490049416718,
                4.820667020651504,
                -0.70502770318601,
                6.100114349199765,
                -6.5208242987869065,
                9.93083959563353,
                -0.7832586556040823
            ],
            [
                -0.18452021930611406,
                -4.306205994103638,
                2.230081404144282,
                -4.179137516312749,
                -2.1670353101709794,
                1.6897367672273234,
                7.970290382919526,
                -0.547299143572217,
                -1.405664486139248,
                -0.6092997103137056,
                0.24491264502439358,
                5.008417638725569,
                0.7561268340330616,
                0.5472200861993454,
                5.9186265691274755,
                2.477614028727074,
                -5.867057253366123,
                -0.6123770270664927,
                -1.9483932341279533,
                -2.4888415690289487,
                4.718554955459339,
                1.3744398174519965,
                -2.047896837827717,
                3.3414444906914946
            ],
            [
                0.00860701139840892,
                6.867101396625986,
                7.390922687175424,
                4.180187626453942,
                -1.0655143863989622,
                4.34547123159993,
                -3.568005321213518,
                3.981483326668094,
                0.5487602212380729,
                4.995253459713313,
                -6.669478806504032,
                -0.10650613223215744,
                8.424451199198865,
                -9.14221874460557,
                -0.33760890566848256,
                4.893631066240593,
                1.9669974557198278,
                -6.984539165265235,
                3.9347648779047324,
                -13.637471066824903,
                2.126510286508671,
                -5.143395890428314,
                -13.143153914352528,
                7.604543755623204
            ],
            [
                0.3176204966000776,
                -2.1900450409238186,
                0.3484468281989051,
                -1.5706229938145682,
                5.2627711995594915,
                -0.9932906109467476,
                -0.6684665500357968,
                2.178387033969377,
                -2.0508171001711264,
                5.234906372746621,
                5.344448511949005,
                -7.681746018718119,
                5.925094137978072,
                1.695337411114732,
                -3.9399214796535937,
                -4.482816187045199,
                -0.030495468516170497,
                0.9536367293839861,
                -1.866562281274682,
                7.147321089623044,
                1.4963096117158938,
                1.3790087213017044,
                -0.23710092858118,
                -3.5881798773280216
            ],
            [
                22.009183068858515,
                -23.315784948306842,
                -23.763210908973598,
                23.812224561140223,
                25.178311111004728,
                -20.451050190033552,
                25.76575923712345,
                11.975182574353166,
                21.78275121989526,
                -23.10167937345838,
                22.13269973249486,
                -27.41286021004445,
                3.506087809138262,
                22.33904353200234,
                -18.630976055795628,
                -27.490492550652306,
                -22.334842902911152,
                27.316051497786958,
                23.89663185608652,
                24.23267945453898,
                -25.043179635716776,
                25.096402904044062,
                28.906464059385847,
                -22.673336056123
            ],
            [
                438.4947643838337,
                682.3826623115633,
                -681.768083378435,
                679.6649643010514,
                678.2188911796272,
                680.0641755396487,
                677.1667479811982,
                -675.6462821374244,
                672.0581916669047,
                -676.7809204594009,
                680.4794741227564,
                -682.4688723372615,
                -677.9486491989824,
                677.3002312951307,
                -675.0769122200436,
                -681.1420154021207,
                677.2446694620234,
                683.3070403943972,
                -676.7840612823153,
                674.6338164779388,
                -681.6949954428495,
                673.6139985692208,
                -683.1302059006898,
                -681.1557016072616
            ],
            [
                -3.9056479243657614,
                -7.39238916714401,
                -2.034080616004319,
                -2.4719786420620533,
                2.165394475557903,
                5.376094478248246,
                2.4453716718475142,
                -4.7653497181987685,
                3.427144232515334,
                4.25386485136095,
                -4.736613472439706,
                -3.3658167751781396,
                3.1846520032588934,
                -1.3823010115441403,
                1.4525820960052025,
                2.005306578977873,
                1.0707582054654436,
                -1.8588320650462087,
                5.3455581552841025,
                -4.806426186021379,
                3.002216506051173,
                -4.142682806129564,
                0.7069759477546237,
                -1.3239704515773931
            ],
            [
                -1.3453113533362109,
                -0.7533872659980609,
                0.5798872106706208,
                0.33840384879205254,
                -1.6348654425702003,
                4.3887253966497966,
                1.2668625613828135,
                4.102439994911899,
                -2.4061148326094615,
                5.115802350608499,
                2.547393256702444,
                -1.3725072954499546,
                2.046837213261083,
                1.6514994578388769,
                -1.4532060929783153,
                1.1714776606854478,
                -2.1739211176571023,
                -4.640732147193168,
                -5.527873836351619,
                -2.0554435660424755,
                -1.1460633910662692,
                -4.855100929432958,
                -7.1528966722548395,
                4.288836936218043
            ],
            [
                -11.938162839846703,
                6.421109306816932,
                2.8367542825427523,
                -3.4624237710474586,
                -9.89594351257598,
                5.45503731901401,
                -2.908404437592335,
                11.502914188412754,
                6.094238419047183,
                7.9624852422773955,
                -0.9495237128765524,
                7.03952785561899,
                6.132111159390579,
                -3.29086921817418,
                5.7429562312394244,
                10.66080628280133,
                4.466492280691632,
                -7.747029619447537,
                12.602758946507034,
                -3.465986154042514,
                9.451294574697206,
                -9.215810635667838,
                -10.227058278761689,
                7.072690164333177
            ],
            [
                -0.4985411546486567,
                -1.807907383872955,
                3.3986887757747777,
                1.149229267661693,
                -1.6872015043359574,
                1.1359355159167177,
                -2.2075931871218493,
                8.786064360512801,
                0.1440566384520838,
                0.09156288666537894,
                0.8624688355010394,
                5.018622974075958,
                3.3896907802951053,
                -2.3102226803595887,
                -1.9779921489010746,
                1.201439712280526,
                -6.832324079443116,
                -7.756654962063643,
                -2.193054856775004,
                -2.734567907454093,
                -6.528388155662592,
                -7.464337649198309,
                1.5308431652055758,
                -2.0213561876334936
            ],
            [
                271.1959569713289,
                268.1457878047061,
                -270.1808882518101,
                -275.2023697041368,
                -273.4659697489661,
                -274.31737894284413,
                253.54655141197523,
                -271.9442912886354,
                269.0837521774354,
                -273.9522046814836,
                -272.3891828975224,
                273.8166216003668,
                -275.3581265926035,
                -271.9581874586688,
                273.53500900624056,
                276.02992970377016,
                269.4407694785016,
                265.80228661199203,
                269.9605280409796,
                272.8113447328229,
                276.6367667170043,
                269.23204114818844,
                203.63560721003097,
                269.98222235798676
            ],
            [
                -4.954983294327857,
                2.580212555591336,
                5.533264372131579,
                -1.8126244885668954,
                -3.626714809927484,
                4.004811497283343,
                0.2641640826266261,
                -2.4795259873592173,
                -3.8560433400055074,
                2.3761967017038654,
                -7.7554438596204776,
                -0.7058643331110214,
                -3.1915221728824736,
                -1.7904100137181953,
                4.461838549673733,
                5.42629224857194,
                3.3395725543634915,
                0.6845425623725824,
                4.1028422771950845,
                -3.3493125943272033,
                4.000629666881371,
                0.7059598276334577,
                0.7912823441312368,
                -0.08673739860014648
            ],
            [
                -0.7005382253511482,
                0.9884417057426926,
                1.0381518256060154,
                -0.2040802076958118,
                3.8536697091105307,
                1.9271526336706286,
                -0.8014505409245012,
                3.6512831394427594,
                3.155536145437226,
                1.8654533168437086,
                1.3788779194452137,
                0.49325372872955003,
                2.9344238175828226,
                0.4051670430952849,
                -1.2414470761075413,
                0.183500665423506,
                -3.4566387932148888,
                -0.16452848603282194,
                -3.3303678770158176,
                -1.5244520940566906,
                -1.7424516419312133,
                3.4470543372542095,
                -3.1361636401137827,
                1.5591711256735854
            ]
        ],
        [
            [
                -3.8094974427792767,
                5.814396057383226,
                6.639696863445228,
                2.6995247567314227,
                -2.2866963420597233,
                0.5948129643354164,
                -3.023142076384864,
                -1.346724342538238,
                3.4599064536123807,
                2.0439827555672023,
                -5.775244366289156,
                -6.158040167173184,
                3.8575390898054933,
                -9.806353642768316,
                -0.13711330938310717,
                4.297857318257222,
                -0.1515538775255485,
                -7.182129957275377,
                -0.9899606331616274,
                2.6977133807275337,
                0.08452454177520533,
                -6.541639501615978,
                -4.140535161261511,
                1.825804487423479
            ],
            [
                0.16853759526205342,
                2.702992636176296,
                4.4763178387350155,
                1.892189956036127,
                -1.8133788357180007,
                6.358522991629847,
                -4.0856262081990655,
                -4.268269242563512,
                -2.325547322410367,
                -3.7438155302583906,
                -1.102585633042374,
                -2.121724394210344,
                -3.94129490882075,
                0.3629205016226781,
                3.154758039611318,
                -0.6092242721931819,
                -0.7176964734795716,
                -0.238665892614939,
                -3.901716125278829,
                -4.810103554071053,
                -1.8111414054906216,
                -3.097459836715008,
                -5.8677445151078915,
                1.3804741928115734
            ],
            [
                -0.27274669556148384,
                -4.165237715404005,
                1.4111038174480515,
                -3.7617917702055257,
                3.024768667202153,
                2.2679806059698064,
                -0.7597498001560133,
                -2.0808575933184725,
                -1.2580141975867034,
                -0.13143268174091177,
                4.747131685405416,
                -7.054845200088001,
                2.6064685672160497,
                0.47104765482859495,
                1.1795251699005864,
                -2.614403457404885,
                1.1693133259163315,
                -2.8764048458670035,
                2.1069634745683743,
                -0.7554136196452585,
                3.985659838793239,
                -1.2510278855613048,
                4.105734184621981,
                1.171637017440729
            ],
            [
                -9.949142531889901,
                -0.0559761608098688,
                1.7228488662024737,
                -4.592256176293021,
                1.0092451760560932,
                7.1170328489467956,
                0.044427204891106326,
                -1.2258979130907983,
                -6.830936654511491,
                13.308945431156355,
                -4.783543810606233,
                -5.474496068149454,
                -9.396820592373524,
                -2.7930985757197324,
                3.5195474968310942,
                6.994445456599414,
                1.047626022503365,
                -4.784952457530937,
                -0.3545965958742235,
                -8.550414562235792,
                2.118200585900489,
                -2.592057135829295,
                1.7442320125875943,
                4.854282313024316
            ],
            [
                -7.138012167149855,
                3.0321960294553327,
                -0.3819090309424708,
                -4.942240035174298,
                -1.373376934617499,
                -3.479756103062705,
                -1.1009380785651015,
                0.16295527659844053,
                -2.556240208484551,
                0.40898606877293475,
                1.793639304759348,
                2.0781694014362686,
                4.32686117527061,
                3.70853684543662,
                -2.8268156710187853,
                -5.678448029297962,
                2.366301987945287,
                4.868373146238218,
                2.435840468166884,
                2.12788613341339,
                -8.395132467989834,
                3.136887732289537,
                5.392007581682662,
                -7.92175237651656
            ],
            [
                -9.24900160561114,
                11.753176123688418,
                7.493961798839098,
                -8.418559999805636,
                -3.6690911907387673,
                6.834320473050426,
                -2.993870639196386,
                -5.372218626154107,
                2.322663308257077,
                12.771128060344001,
                -6.147431851751644,
                1.2950348039514903,
                -8.476912106859318,
                -5.719909814908263,
                5.985484684982399,
                5.9715106381461736,
                2.274871748953008,
                -9.741690152934472,
                6.060306712964743,
                -7.449442112614035,
                9.10428633515268,
                -11.421298439053036,
                -3.7079144996131115,
                10.048408473490191
            ],
            [
                29.949213085821704,
                31.551087263020943,
                -31.86389867706193,
                -29.224031610539367,
                33.47043759348916,
                33.36167457234812,
                -36.79697298431727,
                -29.992668608868577,
                1.7035536742006923,
                30.34022957839271,
                -30.32782106281895,
                30.283738301224854,
                -33.37792934423614,
                35.610510453590116,
                25.014224940759867,
                36.87306296729583,
                31.936406074813405,
                33.18929545397264,
                32.9900048342092,
                34.23884075540684,
                37.4159935919847,
                -38.580505411859576,
                -31.583245126366037,
                35.53369217774704
            ],
            [
                -5.392642798820353,
                3.167782938753476,
                0.2819614823414454,
                -4.172940616524957,
                -4.247244033586112,
                2.896148588208032,
                4.1579214821561825,
                3.7413011218639975,
                6.537217229723999,
                1.5968685472431063,
                -0.9479097187735992,
                -0.7832608807610532,
                3.492640721494334,
                6.1149729683370575,
                -1.7779178668602602,
                -4.272952642232636,
                -2.259192724220857,
                -3.412222505080088,
                -4.032097018319118,
                0.1053115757301666,
                2.1422903962205346,
                3.3279626149142447,
                1.2687271812405074,
                0.861148412699247
            ],
            [
                -3.3013400465191673,
                0.2268235040541006,
                4.118906639011338,
                -0.6650318776217317,
                -1.6506053999005348,
                -2.348645590442566,
                -3.433364963538104,
                -7.51162219463331,
                -0.7402710629110657,
                -3.8093331782476154,
                -1.3439541753583062,
                -3.6003387395755726,
                -2.2218820838648212,
                -5.379861602631766,
                -3.4910877861147345,
                3.388427280072936,
                3.279015981454867,
                4.006233171276963,
                3.1121127254005856,
                6.024011599879856,
                -3.727590086828454,
                -1.2638701753318873,
                -4.487250028584379,
                2.027538285483355
            ],
            [
                3.116549320059264,
                2.3216622641979585,
                -2.5623859694048616,
                -3.244747943106858,
                -0.6883628700743093,
                4.117731498208756,
                -3.231244277529303,
                -4.43081473576215,
                3.0070273069896216,
                -3.276885979564951,
                -2.4720261132964167,
                0.6785547650854178,
                3.4584962009166804,
                -2.4862044824140384,
                2.6803777042375687,
                7.375198122743381,
                1.6493562008414262,
                -6.222076784779341,
                -5.312306287654062,
                3.3108831504499885,
                -1.0769883500597952,
                1.6166361824986948,
                -0.6919280670184252,
                -2.250109175909788
            ],
            [
                1.3315040213564606,
                -2.346918968895952,
                -5.774906858585959,
                6.649346639776207,
                6.7531540075536824,
                0.7785118294329152,
                -0.030634775146637625,
                5.940618597554684,
                0.8497616514776808,
                4.099096087838245,
                0.8987626348505421,
                1.4752041965105183,
                -2.6867602306448757,
                -3.440000596672306,
                1.7469462117323207,
                2.744749264144049,
                0.5302815588932929,
                -1.3433753774256827,
                -8.060540185631705,
                -3.95650851656885,
                -1.0882363707260896,
                -7.87050576419111,
                -8.764497976650913,
                5.774051882136138
            ],
            [
                61.39486539568626,
                -60.9132986949226,
                -62.550169598367546,
                63.13265159310632,
                64.5792967529863,
                71.36027858358278,
                67.04110993208126,
                -78.06685227687389,
                75.96369210291039,
                16.957911838985808,
                64.37003313171103,
                66.97116211397768,
                -84.69190220449926,
                -75.88026655602165,
                75.50150422582769,
                82.10920796596042,
                78.20656685227702,
                -76.84835511959822,
                -66.70703575551286,
                -72.49209094219479,
                -66.75592555992438,
                67.57039292917179,
                -70.72121211765705,
                -72.43549916948845
            ],
            [
                6.427676045986517,
                16.289813148407948,
                -12.512223310407064,
                -7.2633148966858645,
                11.615389308314933,
                10.664684647712702,
                -13.293027730822642,
                -8.735403268088561,
                -6.654588612259566,
                12.812643426777333,
                -14.602011698701375,
                9.866946852687342,
                -13.955436791286417,
                12.153737200964942,
                8.052051716338136,
                17.40824020914284,
                11.475304723368307,
                9.91295233002437,
                15.540978252183375,
                16.675872443532448,
                14.912055554905262,
                -11.904487281688679,
                -10.108542443491597,
                12.356488703195728
            ],
            [
                0.368587924908402,
                7.285931900362657,
                0.7775050581947625,
                -1.5007471484867085,
                6.617783794670367,
                2.670121073496306,
                4.043216474985846,
                -0.5515563017962899,
                -0.44519358436971623,
                -1.5779764426036285,
                -3.7889220441088174,
                0.609195680633005,
                2.2556489206173564,
                0.13468842458917257,
                3.64244250996841,
                1.7197443009671742,
                4.306949549455175,
                2.0677775495689055,
                -4.927944912001117,
                -6.10426104863801,
                -2.223770687672718,
                0.003097326651073536,
                -1.2550679651933467,
                0.4266226893614496
            ],
            [
                -8.916978302452572,
                8.378056416116632,
                -5.054611528512597,
                3.454171225088326,
                1.4178628005905505,
                -7.505130434009735,
                -3.1969831170916767,
                -0.6872426472352916,
                2.881455039685343,
                -4.292946501233747,
                4.082069324953042,
                -0.44397230438004553,
                5.842514915174168,
                7.237814090300346,
                -5.638514312758011,
                -1.220444591910713,
                -0.5985166514182456,
                1.8258850237550304,
                -0.7304963798367495,
                1.3922328901508227,
                -1.0159381100563554,
                4.280834625287988,
                10.506021013430013,
                -1.3446950605458299
            ],
            [
                6.912469170272816,
                -3.259534462549382,
                -4.486114110613354,
                1.486520952476632,
                -2.359210513765641,
                -1.87961663001353,
                5.004347253786422,
                -2.1089938520196636,
                -0.580204440149469,
                3.7466354778727395,
                6.183282636302153,
                -1.6688060099056155,
                0.09223942321869429,
                0.6486268985902387,
                5.336964652081092,
                2.3461825095658693,
                7.446423835153157,
                -3.9757393707667705,
                2.1717992743518266,
                4.385865887973652,
                -1.8912826940050451,
                2.8828720536561403,
                -4.153803729607141,
                -3.9619522078682254
            ],
            [
                -2.425709831276608,
                7.177601544028183,
                4.930124415597335,
                2.5130707530518506,
                -3.923304265400722,
                -3.543531652555498,
                -1.5206724535614855,
                -2.7408832013763265,
                2.664034190141738,
                -1.3974711576516219,
                5.127705660201368,
                -4.277817661834678,
                3.8699853944359335,
                1.786769622214634,
                -5.694884487814296,
                5.533936195563827,
                5.7122999623501025,
                0.4904979655550202,
                -0.3498229045017139,
                -1.1374699331834228,
                3.3862971898455574,
                -1.9362599727168495,
                2.1937241319543235,
                6.235271219268751
            ],
            [
                -15.36673907919615,
                -19.97426818073449,
                13.43433113249844,
                11.065498487677939,
                -10.543282581924771,
                -16.09435289923107,
                8.7682451888856,
                11.414247441897773,
                5.597963963213285,
                -16.44612089937927,
                18.15892914707136,
                -18.03017753204733,
                18.907917401499738,
                -15.968670374733097,
                -12.405372446665012,
                -17.45496091046647,
                -15.344146192122805,
                -16.421187174355993,
                -18.919754477615797,
                -9.27916265148854,
                -14.242427077105754,
                18.288679611229565,
                20.505673060123883,
                -16.049506358370344
            ],
            [
                -0.8648372117151039,
                1.4253002923209155,
                0.4329893239144666,
                -4.837627852988969,
                3.5882346905242715,
                -6.27614711871094,
                1.0344737326582765,
                2.95078568338042,
                -2.472843008227476,
                0.13161937808462762,
                3.268400917512559,
                -4.80778567605998,
                -1.6844872827090391,
                6.434234745335644,
                -3.6288692929747843,
                -0.7679835494734389,
                5.491880257454641,
                -0.15044111375034067,
                6.32929772584927,
                1.8717670491897236,
                -2.510954711344131,
                0.5666157901211372,
                2.961772664037304,
                -2.548673006815351
            ],
            [
                2.095032148669403,
                -1.5224832240604418,
                1.0864425071024473,
                3.7000107985296347,
                -0.7905726708415257,
                3.102885230582741,
                0.18025303519894928,
                -0.3932706328564098,
                -0.7482472228307413,
                -0.11622048347341578,
                2.705528395962716,
                -0.7156342978413084,
                6.883660373107325,
                3.374601299589094,
                5.8123958447467095,
                0.2568064899615576,
                4.525800781108383,
                -3.4148613019927136,
                3.1941360926062994,
                -4.597764355940947,
                3.548120309399773,
                -4.292948804089681,
                0.8647075901918676,
                1.5137009320626893
            ],
            [
                1.7739795461663972,
                -7.052153336329204,
                -2.6753813527123076,
                4.807517625533901,
                -3.303409138690199,
                2.7712115931623575,
                3.564348436151095,
                1.6408433672009801,
                1.5243388868395837,
                -0.2520285637775042,
                0.4403354566623779,
                1.8340400648429798,
                -3.1721966340019088,
                0.36969523580356234,
                3.155586203168615,
                2.0194597166646853,
                3.2910604026981916,
                4.578251440656506,
                -1.1430250431174926,
                1.3626507332076532,
                2.4499950942820727,
                -3.1759539907650205,
                -2.039637104676466,
                0.07251870703465674
            ],
            [
                4.82887627226646,
                -2.7680922852011958,
                -5.813290211991445,
                9.046927238685887,
                1.4367751748257016,
                0.14907843759723985,
                0.881611077702245,
                -1.8473751728434145,
                1.8130647443722983,
                4.473431339170987,
                6.198349486272606,
                3.3664492284880696,
                -0.3132274874627033,
                -4.812360831081313,
                3.7531278005903346,
                4.536417081756701,
                -4.8773033477129415,
                -6.18310467991691,
                -3.856388671690138,
                6.105228025702097,
                5.211564565203575,
                -6.881419097163107,
                -3.909344146747928,
                1.406834170361218
            ],
            [
                -0.734131800986172,
                -3.0893492272445093,
                1.7211493563677953,
                1.6706307894002657,
                -3.3927757172208017,
                6.508871445712472,
                0.45748075579173375,
                -2.5635621911539244,
                -6.520132346736473,
                -3.919885109884185,
                3.0321409680638802,
                -1.8071524534403336,
                -1.070462255643615,
                8.5460387381567,
                -0.13562297697507705,
                -3.5385452962250024,
                1.7451823855714952,
                -0.2715637408198113,
                5.084804445015151,
                -3.946619983983425,
                0.57240863305241,
                3.0420129614323814,
                8.7998091606719,
                2.0955128292441145
            ],
            [
                -2.23391672327098,
                -0.7512057564514074,
                -3.474901359390101,
                0.1100705212734188,
                -4.063180952088323,
                -0.0018748260974738823,
                0.16188448639754124,
                0.036984322742456235,
                2.0221199336186477,
                5.580793064659488,
                -3.8810971555907443,
                -0.5134385258476074,
                -5.053279249390836,
                -6.9705775049925345,
                2.924889644398883,
                -0.002381455626417844,
                -4.219457212066741,
                0.1394007081625952,
                -6.334218833750189,
                2.0232775513124848,
                1.3155403031221133,
                -0.9907364714544691,
                -3.44052530387878,
                1.3344487794488977
            ]
        ],
        [
            [
                2.435762195782764,
                -1.3272424360693338,
                -5.147989897500773,
                8.098004350803931,
                2.3327309721901686,
                2.062035437709274,
                -2.337788307683047,
                -1.3181152587538396,
                1.3618175925017753,
                -2.2438889673804723,
                2.3075705947008056,
                -0.07660504891766243,
                -5.799789832566062,
                -3.8842966231382365,
                -4.2882941530074685,
                -2.5265769066822332,
                0.9706585243934521,
                -7.0180799017752955,
                1.2389495202502847,
                4.066465180288345,
                -0.9315410421539829,
                -0.6073603464609749,
                1.187575795695628,
                4.234771036554477
            ],
            [
                2.3505435701020914,
                1.829773865990765,
                -1.209583446479499,
                0.6908836682808273,
                6.395230018449022,
                -3.57967524209642,
                -2.799148421744339,
                -4.653112837155933,
                3.7401485235773335,
                -0.06623038462450824,
                -5.5476580575192,
                -3.606546570603667,
                -1.2908422992752273,
                -2.8235362995378965,
                1.1921470935394605,
                -0.47135245016415306,
                -4.470340221934154,
                -0.3139891548373337,
                1.417679251949555,
                -6.717685998127282,
                -2.469424006135352,
                2.596877233155266,
                8.080097957404712,
                -2.905621926148098
            ],
            [
                -2.1639307621046364,
                -4.17469433618411,
                -2.278971077308588,
                4.239428150889394,
                5.149944884822601,
                -6.4697710207039805,
                2.573741427929101,
                -1.6379896791254016,
                -6.411166392437334,
                0.4475190674401607,
                -3.0443335893374712,
                0.0011438236752014067,
                3.4575433044865025,
                0.36998068146919433,
                6.020947459563315,
                -0.08015777628206552,
                1.3960413286946094,
                -6.182798357300465,
                0.9091559326592807,
                -5.815550456662382,
                -2.6519932505374992,
                -0.435933654323668,
                -0.6189979494224297,
                2.725786456012192
            ],
            [
                -0.3382562267547098,
                -2.1726442211898713,
                5.866020778884842,
                -2.5063439615764174,
                -4.886988434140929,
                5.195525676534379,
                4.81371624122453,
                -4.0389747589706,
                3.713506175488056,
                -3.0510630541908834,
                4.176538129391927,
                0.06011109092518833,
                6.060563058792178,
                1.235558785367149,
                1.430160731414558,
                -2.526560168188959,
                2.08912435763954,
                -3.296209313148153,
                2.092024424438556,
                2.9719423270148484,
                3.244106550407734,
                2.1233311522614464,
                0.9521170698119481,
                -1.7942972687760563
            ],
            [
                11.173101472777196,
                -17.735441715448818,
                6.886615960613202,
                -18.698716356642425,
                9.008607596118267,
                5.4522472392942944,
                10.01998167303286,
                13.146642228955272,
                12.021036093112398,
                -10.522124735314858,
                -15.044531795613993,
                6.564672273956924,
                11.044619614607514,
                15.36759237592532,
                11.088134665811108,
                -5.680420334530969,
                8.598121782588455,
                -11.223061224144619,
                13.8878980360904,
                10.32421113357794,
                -13.415142470814056,
                -9.147601119495834,
                -8.700359492480384,
                -13.821548936116553
            ],
            [
                8.505963911695519,
                7.127908093457524,
                8.718859907006038,
                12.637128274765589,
                6.6126511728523685,
                7.649452311670058,
                10.724431211895864,
                -8.117764923276837,
                8.676482390213373,
                7.98824596322979,
                -10.987422080336279,
                8.955937798372153,
                7.417686324936532,
                1.161357311246766,
                -16.18977038281377,
                8.479206238308,
                2.1958043083301337,
                -7.675083607463358,
                0.2743667760687268,
                8.010613650324888,
                6.235908979220545,
                -13.12486655223041,
                6.418776593500918,
                11.791647254808208
            ],
            [
                -2.5834050733593514,
                -1.2151520067883377,
                0.9944058892540353,
                -3.927964348371997,
                1.313328802729562,
                -3.852819446469873,
                -2.5891666449955832,
                0.9552642193376201,
                0.25197055538481045,
                1.730200556465784,
                3.482124184827612,
                0.4934784155949058,
                -3.3672053171464116,
                -1.6554856762314982,
                -4.046658289009337,
                2.277550869724284,
                -0.20275168099622692,
                1.9212459547254956,
                -6.573418922155858,
                -2.4762521132607542,
                3.559789420500122,
                1.5921271745151335,
                -1.2347171481155004,
                -4.371113826734534
            ],
            [
                3.668325468041231,
                -0.6968760479638202,
                -3.0293308232909553,
                6.57800740324369,
                -3.731411155847611,
                -2.084839866225671,
                -1.1158742660404004,
                -0.06894591168306594,
                -0.41501198949340457,
                1.7165492778783562,
                -0.6969002600533144,
                2.949687629471998,
                -3.849693375418725,
                -0.015452757200543643,
                4.147413814836604,
                -0.9851773868505684,
                -6.592932166462166,
                3.512460388617162,
                -2.6014927925358755,
                1.6529513607866375,
                1.795751733344698,
                4.146903888983297,
                0.31018740971240055,
                3.680312661753736
            ],
            [
                0.9564685724391229,
                -1.3842115737067358,
                -4.639375142834888,
                -2.30999229319076,
                -1.7593734781421873,
                -0.7074268800449474,
                1.99371852933403,
                -1.6005429797862247,
                -2.2765768236557515,
                -3.3517782259376117,
                3.9927625809936123,
                0.9412948715477923,
                3.112350953133581,
                3.9339815243196172,
                0.31277208802638046,
                3.5894746336359096,
                2.9532978527605507,
                0.01907040821385062,
                4.338334096210675,
                5.236483655133406,
                -0.21178133885014536,
                6.915613342725316,
                7.0261489980535154,
                8.041917041602048
            ],
            [
                1.5545814932405229,
                4.341249822831136,
                -2.8382878237687916,
                -0.07092437340021446,
                -6.012645671481225,
                -0.9689629529220575,
                1.687161596045718,
                -3.5633193413064483,
                2.144566215605861,
                1.065571226456272,
                1.4049614648764701,
                -3.6680331098463217,
                2.2336842661363474,
                2.5878731243047373,
                4.804414292424168,
                0.721377390909734,
                -1.2392573756297336,
                2.0790610381354075,
                -7.594328812381785,
                4.056456643511579,
                -5.9731098121285084,
                0.6410577385383646,
                -3.825188607329643,
                0.600105527577415
            ],
            [
                0.1554576166717325,
                3.7847108114032046,
                -8.89899357680223,
                0.5476600293077359,
                -4.559878578873319,
                -0.4760862964783254,
                -0.903786058342652,
                -3.2758148827891262,
                1.386539860032992,
                0.6485073693906757,
                -1.7793273972096368,
                0.9881048145156823,
                0.9466049683012308,
                -3.319759946233094,
                -3.5211890355377284,
                -1.0586086694228025,
                1.6216040291580924,
                1.1784473963257667,
                -6.21322141901711,
                2.55359852425654,
                -4.823140945614487,
                -3.7601894282622634,
                -3.6331495520665564,
                3.268863445997928
            ],
            [
                -6.013311121483604,
                -8.141933563829848,
                5.2366279901403585,
                4.219140667270032,
                14.64865614533827,
                -7.093075673587085,
                5.94361295049446,
                -1.6143156194562676,
                5.83324330102925,
                0.5690478773483632,
                -1.3350190109797124,
                2.826100520605878,
                9.253531057431944,
                -12.304914558573348,
                1.2173255540831083,
                9.507085069979155,
                2.0082238874606375,
                4.329389474906549,
                5.339098754572894,
                13.508063423798866,
                8.314697270546484,
                -0.2709037343630219,
                11.145800175656095,
                -10.551917637077691
            ],
            [
                1.7741346963195597,
                -1.299273051039496,
                0.7360872991345299,
                -4.310200506483519,
                1.8359112678414033,
                -0.8325700778311567,
                2.9176300176997576,
                2.4575276516219566,
                3.252784609799781,
                0.49455059123495854,
                -2.233795162052638,
                6.414076379388139,
                -0.30657812941343376,
                0.2514387493475668,
                0.777379566668156,
                -5.3831420692773415,
                3.1325385461192146,
                -4.246392617206828,
                2.1834302515887476,
                -1.8595245535759615,
                1.0714624278953762,
                3.6249927437339595,
                -1.3710543141922036,
                1.7195020606249745
            ],
            [
                -7.217224121995686,
                0.6184278224323616,
                0.11735125392715777,
                0.8271629601821887,
                -6.459226502041144,
                0.7370558306958783,
                1.7759496771837389,
                -0.8481821006398331,
                0.7854177995029419,
                3.564122632092331,
                -3.550631317442569,
                1.9133356529995549,
                -3.179299196992902,
                3.5355819028265536,
                -4.3027278398347475,
                -0.759496336680675,
                -1.7133623277900396,
                0.9402342713170508,
                -1.2929735129259765,
                -0.23043477460581815,
                -2.8784307863552723,
                4.1051582605910415,
                -6.160499148470907,
                0.31651057779968517
            ],
            [
                -17.23141486865285,
                17.71612162837138,
                -26.04347646970369,
                10.891118238844472,
                -14.909624190747047,
                -20.36298799364765,
                -20.03968579418573,
                23.310370831761134,
                -25.02358570424891,
                18.978138827347916,
                14.793469770754186,
                17.11445166318939,
                -20.348060196841843,
                15.500265007566489,
                29.75770342112539,
                27.65761172013482,
                -23.000345670157632,
                29.57763544487057,
                -9.809814807717892,
                -15.88164661996848,
                -19.24778844472674,
                16.025483157718067,
                -15.458951565990546,
                -25.440395988829312
            ],
            [
                -0.3064101093244928,
                -0.5013714248951106,
                4.835566066109597,
                4.129022849228991,
                -3.115762186024419,
                1.9616457344605351,
                3.9942936103255717,
                -6.960607942082177,
                -5.562682504195619,
                -1.7340605489528798,
                4.9934651651811315,
                -0.30255496499561324,
                -5.391066662277468,
                -3.504175540519316,
                1.3521849838322282,
                7.9063647055078015,
                0.07952587823147761,
                2.3302236267713803,
                -8.270294747660982,
                6.338262731000189,
                4.809251933702595,
                7.177941045788772,
                -0.5627652484851502,
                8.263237504525994
            ],
            [
                -3.9394783567669855,
                -3.4518669791306316,
                0.9084108211142349,
                6.718361180076235,
                -2.3592117681958613,
                1.4334778858728132,
                0.5175454892479591,
                -2.718471368533829,
                -0.16041732135192366,
                -1.6705577366233797,
                -0.7131194166406616,
                -4.351883955536345,
                1.992063607140646,
                -3.8902177151329163,
                -0.9237980417455885,
                0.43334595340024357,
                -3.2418020404282712,
                -2.6318245030193,
                3.159779527681116,
                -1.542670004245288,
                1.306673961196696,
                -1.5272920780358377,
                -0.34345958749748307,
                2.4401189274767425
            ],
            [
                -1.0348222070661055,
                2.9580227822546212,
                0.9459558149072598,
                -5.457719046105343,
                -4.7204059440959965,
                0.006148867231942582,
                -5.982441089863163,
                -2.4013146067364866,
                0.014995517325174937,
                2.0592266365469913,
                8.955011704072444,
                3.767063737352166,
                -2.6045130899301427,
                0.2277774568131703,
                -4.334609389188987,
                12.159950987454174,
                -7.789690235164105,
                -4.70812692273486,
                -3.282179241740958,
                1.1964157318292277,
                -2.27107415648767,
                5.205287730727152,
                -2.8364315154369004,
                3.517940462177838
            ],
            [
                -0.9358768582064632,
                -7.773340053818864,
                8.225192337350045,
                -1.6256561193359886,
                4.040689580919481,
                -2.3101132563715203,
                -4.801253848787916,
                -6.065113054478385,
                1.9755611402262612,
                -2.5675998536275877,
                -3.7795545803722406,
                -5.810533464569513,
                -0.45795014939702067,
                -3.2743250867767517,
                5.799945684117877,
                -0.08850107241596565,
                0.658609138852988,
                0.6117915753244418,
                3.380655027293706,
                -3.6625994602188228,
                -2.2095968186702044,
                2.16260948965627,
                12.114054643407496,
                -3.4351544781836516
            ],
            [
                -5.410389769432774,
                5.1136839787375585,
                16.170830708285173,
                2.7415445771825304,
