{
    "mode": "play",
    "input": 42,
    "output": 1,
    "GameSets": 4000,
    "Layers": 6,
    "weights": [
        [
            [
                31.2036747663183,
                -50.23256119896454,
                5.335290843111373,
                -3.4901511482939336,
                2.7719619931637656,
                0.8909859769458245,
                -27.972156818026715,
                4.036784310470255,
                1.8710891477186713,
                -0.5579812383067905,
                2.5852425530023333,
                -1.1395755104757463,
                -17.793688508918148,
                -11.891129622748096,
                -4.965323784107165,
                -5.571612622251312,
                -3.5180018878356343,
                0.06402930486044875,
                -38.95026681944019,
                -51.92359645422458,
                36.97420221207403,
                -50.746578901390045,
                2.715994356125253,
                -0.09881689470396386,
                -30.412657451681795,
                -34.572755106801566,
                46.05234360914936,
                42.773744971680635,
                1.553635761416937,
                -0.3823292187284342,
                39.41961448452073,
                -4.564834747386071,
                -0.6607668539482731,
                5.0860098580601605,
                -2.8521162642109155,
                -2.5323891119876154,
                43.79448521450379,
                40.59167247167173,
                -1.2588174670134917,
                1.264603582787801,
                1.0627691367104302,
                0.2084887425769076
            ],
            [
                3.225186388748785,
                -1.4396930925647846,
                2.639890489916179,
                -0.9824276254819827,
                5.6139700721538315,
                1.315288159182203,
                -24.91741700189063,
                0.0272246213680811,
                -3.2851900301307335,
                2.1110365395920954,
                5.892969553314207,
                1.180447771150226,
                -27.354771466530423,
                -3.4829029883715252,
                -3.4511468487972903,
                3.8702123935326305,
                -2.6238703501551854,
                6.433342208663811,
                22.534067449168408,
                3.841360624883675,
                2.049219519541901,
                5.362306808755031,
                1.2979133708398636,
                -1.1736190175880525,
                -17.20908168856167,
                5.935363998801957,
                2.327586892120711,
                4.161565470105454,
                -1.1879132075341619,
                2.4429505288104187,
                -26.541293173823,
                22.384934667304858,
                1.18227177853232,
                -3.136273328546355,
                -0.6435134810935611,
                7.221418920910558,
                26.985073106331065,
                26.65533100477048,
                -25.5167531061274,
                28.710631601216583,
                3.980440477497875,
                -0.05956543260628138
            ],
            [
                27.88140713654506,
                -32.821025969598686,
                -27.6008802466844,
                -29.67985486035395,
                1.3620304273480315,
                4.122053533744843,
                24.367855437273022,
                -0.9880966501368793,
                -6.323332409207776,
                -3.126694396519379,
                1.9881928595573006,
                -4.067031203057518,
                20.336439551584892,
                -28.4671230693689,
                27.246391471478404,
                0.4063388677231191,
                0.6703695172884678,
                2.4168740617130604,
                -23.916846155381872,
                29.366927913574326,
                31.170088145034676,
                0.9035798949480522,
                1.303353865191484,
                2.1521149742199563,
                -25.168572683380468,
                -28.00952518178901,
                -8.173412673306352,
                1.8180143895371346,
                -1.4143823329073884,
                -0.6438353422050351,
                15.587265565437178,
                -0.24083282140392498,
                4.461327741262847,
                2.8739404800320347,
                0.7360983543563956,
                -5.746190355043417,
                2.6132967836526486,
                8.349853236201378,
                -0.9344923941832468,
                6.293336958195248,
                -1.9698293654699603,
                -1.1620964940621323
            ],
            [
                9.939191552558322,
                -9.432329118075513,
                -0.33493161738825866,
                -4.649707281149504,
                4.4474032213279715,
                2.7979665131228,
                7.16132493985846,
                10.291470215132403,
                -2.526825901581025,
                -0.520315084666303,
                0.17972363154315646,
                1.6766575768171095,
                -17.382283360736942,
                -3.5670699270457997,
                -3.3124142217532557,
                0.6332591446177196,
                2.435567280404973,
                5.620846024488202,
                12.20331996332298,
                1.0253615692259972,
                2.2885735259626916,
                3.0971172673846885,
                5.9540289755985185,
                0.7037678667779069,
                16.234435846259423,
                13.816872899895237,
                -4.6177122281111505,
                0.5288678861160607,
                1.717321240482363,
                4.77425426842528,
                -9.655496921644739,
                -0.6796305945367952,
                1.3623702301952605,
                -1.6120553925056134,
                4.384493700291156,
                -0.9347470289128642,
                15.766817590175341,
                -1.795029614997279,
                0.30522961425396206,
                1.5999073733929101,
                -2.6735375029325597,
                1.387606190580034
            ],
            [
                33.92721408929077,
                -25.26203281307687,
                -2.39789566654324,
                -2.765580333055257,
                -3.914716910487576,
                -2.9327158270819904,
                6.977172480718773,
                4.110478224986363,
                -1.238180835791611,
                1.0379790274654326,
                -3.6368117724908506,
                0.5718200837945308,
                15.714506253495959,
                19.840414301988606,
                -1.4721222799595393,
                2.37346330129229,
                1.563366977262896,
                2.3989662612451346,
                -28.81525430497494,
                3.7007079216116487,
                0.4545798893445837,
                1.610742310794268,
                -2.096176780479686,
                -0.7443422705806443,
                -9.731350889342576,
                -6.4907362412066,
                -1.5857965347307665,
                0.8025908090071886,
                1.1308672459378333,
                2.543535523695877,
                -23.902091580109076,
                0.17622278416477002,
                3.9860476741970436,
                -0.7340494185583456,
                -0.20122489230052723,
                1.1069231694693642,
                21.030912753311345,
                27.380259750445475,
                2.042946024272315,
                -1.4958341712904553,
                1.7053855873682657,
                -0.8612211198231025
            ],
            [
                -595.390406192065,
                -596.7938044798857,
                1.4031031428951237,
                -1.6343612485779841,
                0.030728297779364463,
                -7.5883226820988945,
                -596.553377446274,
                1.4806050904604153,
                -1.9062405967232723,
                -0.9822931285040706,
                3.339966593175177,
                -3.1924780096198826,
                -598.5870812211855,
                591.1290141721373,
                -1.0330940944550975,
                -3.7520777519415596,
                -5.046523675349763,
                4.257282038082112,
                592.3114140729971,
                591.3212208518253,
                -2.2118516766933634,
                -1.3585228075084526,
                0.11245640495634553,
                -2.3819882340106684,
                -591.2984618461377,
                1.187932368623267,
                -2.189238456955787,
                -4.327790755794585,
                -2.756773868971086,
                -2.725098106433574,
                597.1715046973354,
                592.0542937512241,
                -0.9368654399221683,
                -0.4195051269107394,
                -3.0649846936824634,
                2.780062744158381,
                -590.8819825619389,
                593.6103368170643,
                0.5760271131324074,
                0.48146457361071826,
                -3.305141267854991,
                1.7392535166114955
            ],
            [
                -33.25824252098785,
                -22.331379950970792,
                3.375155951072548,
                4.1478319233016965,
                0.6775455624354867,
                -0.8744506720611066,
                -28.95084637804801,
                1.553482140160999,
                -0.3513386837485995,
                3.627699150493959,
                0.3193866610778986,
                1.8759368142197808,
                -24.885547188294144,
                28.901058860644056,
                -4.905705741345358,
                2.3419083153362337,
                -5.990749561670809,
                -1.983878107307883,
                31.876513590144327,
                26.266554576037098,
                -2.9599225742570177,
                2.3596509993866954,
                0.567842697951245,
                1.253166456638302,
                -28.015925949783792,
                -1.787149760003215,
                -1.1242103226150102,
                7.9281427183511175,
                1.8850596906181527,
                -3.430732817928493,
                24.40127367069008,
                26.190790898347938,
                -0.6268027101471032,
                -0.5732778159490748,
                -0.6030292692028725,
                2.036450313066529,
                -36.03963314584722,
                36.412549832398746,
                3.755074933814402,
                1.8860595833324636,
                -1.983949435873806,
                -5.487912667065171
            ],
            [
                -50.57232466125613,
                18.040356119117853,
                -2.895178371951578,
                2.9798610657127447,
                6.90307184134094,
                -1.1553562186715285,
                -47.26211558549548,
                4.644930025215706,
                -8.472812013147902,
                0.16990668833205788,
                -0.44956178706111716,
                1.1588987895524927,
                2.279236235509601,
                -20.93472599846983,
                3.2380577631374985,
                6.284808739628464,
                3.999263583565831,
                4.860740504606537,
                -43.92589169725051,
                -0.9021447949292515,
                -7.658161739507496,
                1.5804020705456063,
                0.586669968950045,
                4.877278601769212,
                -44.09929947588234,
                -25.451851376964726,
                1.2796663947542053,
                1.3267773716391837,
                -1.18561127746595,
                2.35258801731728,
                -4.22353571178241,
                18.280307881838596,
                3.018336933719512,
                2.1112730133125086,
                -3.440813117440218,
                1.3911853360879156,
                -1.1732017227744127,
                1.0879483278061342,
                0.9590653488331782,
                -4.346252860859041,
                2.500871076780863,
                -1.8249761665583486
            ],
            [
                -882.041946981922,
                -877.8679892175489,
                5.818048023220829,
                -3.0596714705028525,
                3.3049750138976015,
                -1.813865281160153,
                -878.8148470254091,
                -6.726100354112612,
                2.8631670415535644,
                -4.191110087304606,
                -4.227854943171862,
                -6.585007686006148,
                -881.1115737535298,
                874.4124003952853,
                1.2421026312346442,
                1.6589390934111397,
                1.3495002100628986,
                3.634239128610683,
                873.7557955897992,
                877.8177094852794,
                -1.6576651979756112,
                3.5860259704787705,
                -0.646379466080159,
                2.196949456917237,
                -872.0570715018004,
                -5.5728799552726755,
                -0.7429466804951459,
                2.3242433509878624,
                -6.059444729147577,
                -1.0480578247237982,
                878.0405783344371,
                880.2098935105224,
                -3.7830483334486464,
                -0.2331385948169881,
                -1.1510489702319175,
                -1.4169710690966397,
                -876.4653625282052,
                879.4203136267068,
                2.035338608745782,
                -1.5941190212647622,
                1.3411406028421202,
                2.7965256985238485
            ],
            [
                12.904149370423385,
                -13.039969554671377,
                -0.5749599484465292,
                6.113493106352821,
                2.1091669287513524,
                -1.666382764930147,
                -32.585793382625745,
                0.005718340063256418,
                2.387091373521059,
                -1.8946974443026727,
                -0.9446018312003491,
                1.6857886295691094,
                5.721196042344962,
                -0.898663813449488,
                -5.02921501098856,
                -3.736290994884791,
                6.5759699219107866,
                1.9056382918926869,
                -15.494027517057994,
                -23.73460330275416,
                16.940124552569184,
                -23.95766350566729,
                -0.3412244484012684,
                -0.6840916855626921,
                -5.6851135821707715,
                -16.493542925352752,
                13.818132979523716,
                15.302767175778708,
                0.5154009011290343,
                6.9704358085547105,
                8.941926276516693,
                -6.165908099286632,
                2.6683513245665638,
                -1.5086118833999496,
                1.0751405813136736,
                0.8699072048829781,
                19.68795589017371,
                14.683298736717795,
                1.5089629929910728,
                -1.6997595091649114,
                -2.1605804275539993,
                -1.4248601163815227
            ],
            [
                -1.65806274914642,
                -3.661970795132165,
                2.2740117649180385,
                1.4014016346248732,
                1.087217031714453,
                0.6333738387061892,
                -267.6321588569964,
                8.143554522886333,
                -11.273208356222662,
                0.900068331993365,
                -0.6248954317745877,
                1.2663377401121219,
                -268.22323071614875,
                0.9150219768289032,
                1.218988572525111,
                2.388323386360748,
                -1.3913120815262847,
                6.2537577452814395,
                266.21573691248966,
                6.587929821152224,
                2.399674273830057,
                3.2139570088058953,
                -0.4168624066174273,
                5.505763023952428,
                -264.6769154883319,
                1.6801960455864877,
                -6.239805788457562,
                6.814427332397481,
                3.9834521676423655,
                -2.4392351452065184,
                -266.0706339565841,
                280.1530677819331,
                -3.356388973225539,
                -4.0184581867941,
                0.21167262227942985,
                5.738815592571442,
                271.4536686139939,
                270.83829040484414,
                -266.99431464073865,
                271.43606818921023,
                0.9758955438211686,
                2.673158139196858
            ],
            [
                68.98859473884052,
                68.1686121208651,
                -70.69919816403153,
                3.239811372233125,
                -2.9963752651050903,
                -0.4748882221205253,
                -59.07848029770704,
                -0.38991449967028097,
                -1.1041919531747324,
                -1.7564851936503991,
                1.9353780453631324,
                3.1566601605073585,
                68.97177822966874,
                4.155515056338851,
                -0.18031135399900267,
                -3.6102874711019304,
                -3.8445497113860694,
                7.832922973927708,
                65.47899443026998,
                67.3891293957794,
                5.767216867534653,
                -4.97206163379739,
                0.9737824368788737,
                0.4181142271974598,
                -79.75763643372821,
                2.272844277406282,
                0.22215441883685594,
                3.715615672640584,
                -3.091583186299474,
                1.2055826557878777,
                76.6162936205169,
                -1.824699858144846,
                -0.8271540857387936,
                -0.7858303083921125,
                -1.8947085309092755,
                -4.130909356365215,
                -6.110614633842959,
                -3.340802241140602,
                -2.1509577061827123,
                -1.7458605866045773,
                -0.41272766218619855,
                1.6429778672868707
            ],
            [
                -35.08219683021415,
                -4.673445630528997,
                -4.3627292890649505,
                1.6228849366083857,
                -1.9002509506833378,
                -1.5149842821638435,
                -10.992383419929526,
                32.04913511375604,
                16.80228493290448,
                1.260793116969096,
                2.609950950939801,
                -1.0725668058178532,
                -2.2676938009666783,
                -9.158522637166572,
                2.765225495432707,
                2.481902148921649,
                2.509424995522826,
                -5.334284588369204,
                3.4949671221977017,
                4.2649487873741005,
                1.4963339873421526,
                -6.41663381324755,
                -4.246834703807504,
                -5.280575709326883,
                -29.137650531694405,
                5.19258373808194,
                3.569705552379762,
                0.23504634389114293,
                -0.4751224124653765,
                -0.28064114838282106,
                -29.82173593600361,
                18.869374720174044,
                -0.08183889675060825,
                -5.023521301930719,
                0.6942924867484673,
                0.976843463966732,
                35.49325775848711,
                -10.562527456673685,
                -0.41551146552151497,
                -1.25607756614584,
                0.41350499906027904,
                -5.961526746490239
            ],
            [
                0.12820603192860006,
                -6.762688544397163,
                -7.468965079920503,
                -6.528654822478892,
                2.744910539195674,
                1.2481773974444337,
                16.06789152703297,
                1.6962849516026899,
                0.8172368324125715,
                2.415261008328701,
                -1.6302026650099477,
                0.27456436926129585,
                -10.099034855402824,
                -15.710097317371668,
                -4.005642751596688,
                -8.94625262895239,
                -1.9212364779483868,
                1.9816112437606825,
                -15.459925217197727,
                -1.1403169692626516,
                5.238020950908284,
                1.6106790870282786,
                -3.560487869760196,
                -9.074551606908594,
                -4.956644885434397,
                -3.4996548969326287,
                -0.5793475157973831,
                3.3166219974581574,
                0.4699988493197088,
                5.89353170636413,
                14.677469470060718,
                6.50077269691895,
                -0.1820008271805147,
                -0.2931947927216827,
                1.7773934564478908,
                -2.4275194649329963,
                -10.346466224333925,
                -4.026711093279859,
                0.0060875673707174545,
                -1.0534814135072879,
                2.244523143783653,
                7.592369838229894
            ],
            [
                -35.1415651168484,
                4.485705843484908,
                -1.2949413296155774,
                1.8933008168662924,
                -1.7587828590808392,
                3.1420979628585917,
                35.2830951907092,
                1.1549339503177452,
                3.432036112060431,
                3.036307363227583,
                3.200103210820113,
                1.5634923870201003,
                38.94630954444152,
                29.756601725027625,
                1.2711718074090883,
                3.9733982523182516,
                -2.0287987508400573,
                -3.7110957136157823,
                25.99240756834114,
                -1.027577862920463,
                -2.511348120212341,
                -2.863027241377769,
                7.491207612616143,
                -4.477461490576217,
                0.06475441723533736,
                2.637293944105802,
                1.786618213113853,
                -1.9525207357531489,
                0.10303453907688426,
                1.4533986571133157,
                31.091464757357198,
                -2.8736650846248035,
                -4.835912273005786,
                3.5198186414856534,
                2.362783645299004,
                1.8231310231396074,
                -33.43062190740442,
                -4.597734621773184,
                -1.1101914011007414,
                2.8190167069398337,
                0.8606213907506568,
                -7.659732136923163
            ],
            [
                -1111.2988786710634,
                -1110.8760551257585,
                -0.38117914466219044,
                2.3411604843471485,
                -1.1670037514723215,
                -2.100254913044284,
                -1108.539961133385,
                -1.6322876042915477,
                0.4899392742190126,
                -4.86573850655232,
                -6.968292826636914,
                0.2585163092527559,
                -1111.8871004876648,
                1114.9544509416583,
                5.084684030257664,
                -0.8619147791958924,
                0.05691439598605681,
                3.278929081456714,
                1124.238655263439,
                1110.3104948015994,
                -0.45431963684840226,
                3.1682917136837623,
                -2.1308278285963067,
                -2.8887339183073246,
                -1105.5505861675783,
                -2.5568261955535116,
                5.5461225603045285,
                1.9472448442265136,
                -4.389399917824465,
                -5.7769113823556895,
                1111.9228502500805,
                1111.7921362255531,
                -1.38878699908334,
                1.0892725959778757,
                -1.6401910620224471,
                1.786537393836124,
                -1121.0866409505425,
                1111.6940070003384,
                4.856273298741813,
                -1.7493671272137128,
                -0.5320795317296051,
                -1.042653729827634
            ],
            [
                1275.382928820272,
                1279.0964024048928,
                -1.3659161082996785,
                1.6658172606826138,
                3.092526553941398,
                -4.628468515269796,
                1280.050103171806,
                1.9435661862836615,
                -1.1039200920526118,
                -5.995150280145417,
                2.393824240643824,
                -2.7368121983300977,
                1278.6452213278822,
                -1273.0356948662584,
                -3.9338553375544505,
                1.387615123532523,
                1.958126248963738,
                2.163445395693217,
                -1273.247760305612,
                -1272.5906394696153,
                -2.977042217296047,
                -3.7970257218641468,
                -0.0892321496290068,
                -0.6080184877699317,
                1274.0293854596734,
                6.392814322622162,
                -0.03537072495915998,
                1.5024279540385592,
                -4.982928848851123,
                4.043700591699833,
                -1270.774184978179,
                -1267.7922354356513,
                -1.1190331464205632,
                -0.030365949153598356,
                -3.091033495866463,
                -0.8740568117640088,
                1273.26549034134,
                -1274.582712229818,
                -1.1578875507027997,
                -1.9224678785714253,
                -0.6707099168993007,
                0.38449232867552724
            ],
            [
                -8.271220547208994,
                7.903152112966637,
                0.7768332914202043,
                6.678102206949619,
                -0.525942567952343,
                3.817839961037896,
                5.96418998015932,
                0.19115514046723356,
                -1.5720950532381208,
                -0.08632337957893262,
                -3.4259423714723933,
                4.498843679680346,
                0.6489968618940938,
                3.0655271284623105,
                2.5222981330143632,
                -2.3787954497192665,
                1.6209934140601534,
                -2.2914980083876393,
                10.559063562979276,
                2.467716426865445,
                1.6804419724230633,
                2.2731058837982627,
                -0.8119049908521231,
                -3.718259013333723,
                -2.1556959645118066,
                -7.473193309876243,
                -1.5584861047971141,
                -5.971273211731739,
                -4.788819783086646,
                1.5947989072863669,
                -0.30334018069039415,
                -8.289786870110392,
                3.4690678365852934,
                -3.353760659317823,
                3.155664672519066,
                -1.2287303922062434,
                2.0424960702279797,
                0.7236175280914633,
                -3.1689602772960694,
                3.721955895990532,
                -0.18015723098774783,
                0.33828874838045586
            ],
            [
                58.25223472556398,
                60.78846815571772,
                35.56441952879918,
                1.4029831349317594,
                -2.2522965827751724,
                1.7977667311920196,
                -39.27875257325229,
                -2.034779689554846,
                -0.5020740532341247,
                -1.043754367968708,
                6.246466853878819,
                -4.330189684420974,
                -9.105919451814236,
                9.163922203007214,
                0.8491947703680282,
                4.963344708824334,
                2.7357116546823828,
                -4.85036419627458,
                9.829383710582434,
                -0.22710715029099113,
                0.9748298631485292,
                2.8598130916093285,
                3.600596531504584,
                0.23071539683258502,
                9.336714743980632,
                33.84830258488533,
                -1.1534410272330329,
                3.0157026789359263,
                2.4158260987106055,
                1.2906859614433532,
                29.120937906838993,
                12.862461020766741,
                -13.57386901735489,
                -0.24444103222374614,
                1.4288206312681107,
                0.6440684627788242,
                44.850188498009004,
                1.514308405469192,
                -0.9494065428910154,
                6.0393723231471315,
                0.3658635052244735,
                -0.6888967108108695
            ],
            [
                -43.68687925576747,
                -41.41011528892115,
                50.20215869736709,
                5.138373519011893,
                4.8995138195753185,
                3.82082699536787,
                -44.89180024949549,
                -1.3613005178889381,
                2.2445382497733735,
                0.9540328323387305,
                -1.404072175051233,
                0.9916681958002144,
                -1.809227160928272,
                0.41828331145475467,
                -2.5495769338479284,
                6.298226169321829,
                4.37079215317424,
                2.8855355008289583,
                34.89185076474152,
                40.125600696333905,
                0.5454564432307223,
                6.388405861578623,
                -3.7981558483276143,
                3.693741543455954,
                44.40580813262801,
                39.700527155127396,
                -38.20697124647257,
                -1.5978540433464175,
                0.29169321927517367,
                0.3928588259014255,
                -2.645015000093288,
                4.870403523895316,
                1.2622310447138045,
                -0.466848189915542,
                1.8525968156144725,
                -0.5277131871559162,
                -35.037408768992925,
                -0.8418110430211309,
                1.2695604027068326,
                0.40035777488843766,
                1.959439222690831,
                1.5142292343983674
            ],
            [
                -2.016117138767801,
                4.480836339767204,
                1.2645045162504334,
                4.155547212579527,
                1.9647392099948466,
                -0.794970858947489,
                -6.183804613238362,
                -2.884668923671584,
                -4.5906528632095664,
                9.141060607663384,
                2.618124212961782,
                2.3698954220582684,
                -1.261712504221909,
                -1.6006557331576805,
                8.526313623258,
                8.670521326092386,
                1.6632876833494592,
                -5.4564933851010275,
                16.017219407296377,
                5.44453713986221,
                -0.02501729629912727,
                0.6155009714666745,
                6.0113383219736605,
                -0.575353605979044,
                3.691390114714885,
                2.1913793020091696,
                -1.3181654257675877,
                -0.8113351224620625,
                1.6967033503234752,
                -0.6806152521445592,
                5.795936654052956,
                0.4599610604768709,
                -1.4957930801956185,
                1.3198739626831095,
                -0.07362071682243035,
                0.9737845092362529,
                -3.642552023104455,
                -5.818025873811882,
                -3.4299325387459696,
                1.5831874861656123,
                2.0201673641131483,
                -2.2567894651697005
            ],
            [
                122.66483825871973,
                -128.08046388853066,
                -127.23623071068488,
                -133.95407366075352,
                -0.9970587151773028,
                -0.6638689178216775,
                129.4887480962985,
                1.260115471748385,
                -1.2025683034338988,
                -0.22992337431794777,
                -0.4017918932719878,
                -1.08524709341363,
                120.0337559071103,
                -137.63274718721362,
                123.5109261765405,
                -3.8433066833519116,
                2.4756271356657567,
                2.324194397828282,
                -135.66163730652926,
                132.03162229574886,
                124.72242623326535,
                -5.1590278648393015,
                -2.750276229176635,
                -1.2659071609227528,
                -126.6789065448655,
                -125.6716629834138,
                3.377363988432573,
                1.2857394246815324,
                1.7119404503273696,
                0.9269209892354723,
                120.59509559031045,
                0.7636830273669516,
                9.131865400962834,
                3.110197535532132,
                -5.325591257546546,
                4.5390867839116185,
                -2.3914984836269517,
                -1.4832292723428793,
                2.6035200620677914,
                -2.8787954186194287,
                1.9013694421549028,
                -1.1051435041942428
            ],
            [
                -2160.9135705358,
                -2167.358941774186,
                3.643732517238811,
                1.9988255988388743,
                0.4156644227684983,
                -0.11590548452064851,
                -2163.0322043377287,
                -6.953073903119497,
                0.6789815168154181,
                -0.030280906245601955,
                -1.1770835392908088,
                -1.178541345722579,
                -2159.779250842157,
                2164.75587760767,
                -0.10480231221539155,
                1.2060592543640076,
                3.0576628315513834,
                -0.4621160144809608,
                2164.419765206757,
                2161.9888519691267,
                -1.40176566153075,
                2.4921108651529953,
                -0.2767342290142687,
                -1.5966543533430404,
                -2164.3458371734064,
                -0.22421386555748213,
                -2.1982966663425545,
                -3.9766612865806295,
                4.127931080540416,
                2.7359509124008614,
                2165.435153335862,
                2165.847069895025,
                2.4852258678728125,
                -3.3707539398624062,
                0.7665910196260034,
                -2.0606363666551273,
                -2164.6427580224336,
                2161.440061686439,
                -1.1531132327252696,
                -2.749660524569082,
                1.7278297984307094,
                2.204562728980574
            ],
            [
                183.13578308991308,
                -183.91276594357103,
                -186.81859080097573,
                1.3458638140545727,
                0.6452956033217183,
                5.383724923482594,
                173.19590781990954,
                186.83984041054876,
                -1.9346198162440467,
                2.9332830788515833,
                -5.353523471844782,
                4.670048768508196,
                -193.72445271775246,
                -8.94462368280628,
                6.76818199325694,
                -1.7351570051737084,
                -5.371249268208289,
                -2.404105699959611,
                181.11406170525214,
                1.48582097959792,
                -2.001605039908161,
                2.3244547773034987,
                -0.5755967863227115,
                -2.526430035131731,
                -188.64710767358287,
                185.62617383718379,
                -2.453772121456962,
                0.4701968505373702,
                -3.302286526804866,
                -4.9789176207167305,
                174.99536841977923,
                -180.88580215256002,
                0.13784549274722382,
                4.4995011320008365,
                0.7412330026887088,
                -3.24049837626643,
                -180.00226684437138,
                185.30185250163478,
                -183.05658915668036,
                -5.5892263973390035,
                0.17513283623311368,
                -1.2799598971556176
            ]
        ],
        [
            [
                -9.021214136420042,
                4.990054166259907,
                -4.993554718742804,
                11.802862533511512,
                -1.2208305075852177,
                -4.651152570938631,
                -5.2152503054930595,
                -12.026316933597831,
                -7.916787566187446,
                -9.786616439485286,
                -1.3330410265021155,
                -16.37694812183271,
                -9.012129747335623,
                8.793538975924426,
                -15.349973892447291,
                -4.630058285998856,
                4.4182868656377785,
                -15.217512144535474,
                -11.057879567504243,
                10.72334507359892,
                -5.482057538995464,
                -14.250241474942117,
                -7.8007683696095125,
                -14.357326432520834
            ],
            [
                21.158292646313015,
                -21.294104539748684,
                7.81979999771302,
                -20.561609219458816,
                -14.22832936699878,
                -2.3601435454638517,
                -6.901252474366418,
                18.97122944299567,
                -9.431739484433592,
                -17.60637563681082,
                -21.778961418155507,
                1.7664967923311654,
                8.081415733272003,
                2.5994310477284333e-05,
                17.06601753660742,
                -0.5552427488283348,
                4.664464557954218,
                25.687140152604595,
                19.62877137614234,
                -20.039722535100942,
                -5.883206535573286,
                7.707035125774185,
                -6.5315709976484015,
                16.575628623790195
            ],
            [
                -10.613382589127083,
                26.151454884600902,
                21.742202550239814,
                -10.371445213182172,
                16.117774770902816,
                23.12550752242212,
                23.834169943489176,
                17.696488416341293,
                29.337463078020704,
                -25.962707116440182,
                30.698349923426363,
                -28.37133612691379,
                -9.674666976498324,
                27.455571232849987,
                -15.213972434454393,
                18.237232523107156,
                -25.488832090062157,
                -21.801197370015878,
                3.50039136464739,
                26.10016000798536,
                16.656019820846286,
                25.416417734946727,
                12.276434959549656,
                -16.43681600758666
            ],
            [
                -43.93253020780932,
                -45.38131411286765,
                -17.78290861408771,
                -47.5327442503262,
                38.67758456074255,
                -22.80986674371715,
                46.20407591217347,
                46.482805999960135,
                46.64364177249636,
                44.42372432840062,
                -45.89928758545705,
                -46.443162784556264,
                -45.7722644213519,
                -46.51602452790107,
                41.175284491004255,
                3.3252756161310137,
                30.462963693459916,
                43.84709727591135,
                40.854595447318836,
                43.266026466309015,
                45.37013520187928,
                -46.385478302061905,
                48.04815441436825,
                -46.64287563664383
            ],
            [
                8.989202530789674,
                0.24548646339602503,
                4.813810971135011,
                -15.960111136117058,
                1.5974678244817162,
                4.366539949565668,
                4.983346040497907,
                12.560483529159859,
                4.329707514730566,
                6.867242952083889,
                4.168074184815372,
                7.705292525659755,
                7.056201849747703,
                -1.9580149790488623,
                7.783803181469677,
                10.248234993948678,
                -4.632451333182021,
                -1.7934844356495596,
                6.247272234887692,
                -10.755335627261235,
                3.665078608994509,
                9.573246598070408,
                7.189281707381821,
                2.180918495615268
            ],
            [
                -6.936292787689711,
                -2.3151132689413485,
                0.9646504250925236,
                -3.7379316270413305,
                2.9786288664769542,
                2.0527029093381146,
                4.50574077906002,
                4.613374941755792,
                3.23379784256607,
                4.828222576090533,
                1.0780513190748175,
                -2.958501544131244,
                4.987117504549872,
                -1.7131986383259294,
                4.019021731897107,
                -2.631902767730443,
                4.985642026432766,
                4.348222542965259,
                10.596896303546341,
                11.714037486604981,
                6.646095419194603,
                -6.9030247410925005,
                -5.321297359870949,
                -1.484658188878226
            ],
            [
                23.20189789600034,
                -19.375357833187856,
                26.795488012988407,
                -20.786455671110573,
                19.90702526420125,
                -19.451539913101758,
                -20.298721490343468,
                -17.091727077658174,
                -16.72562235098404,
                26.902012896218274,
                -23.712480150918257,
                -24.354282881956106,
                -23.799399185234996,
                17.907142350195397,
                -18.50938542783866,
                -18.023339073446873,
                21.42864739208826,
                -11.516944624289575,
                -13.126448883943661,
                -27.625443205926633,
                -23.12049353046576,
                20.5151222659793,
                -15.588386047826896,
                -18.751226231713304
            ],
            [
                -64.30815989033083,
                -59.701341513612896,
                -30.603737512500096,
                -64.20089549655485,
                62.14319856493191,
                -39.15649561679829,
                64.56031356882352,
                61.37029688340311,
                67.7032730960784,
                63.45421654198684,
                -59.87178998073582,
                -59.3560923680916,
                -63.16602402776341,
                -63.04739078317352,
                61.94851883523914,
                7.942718911310706,
                47.931390840722244,
                56.559496713166766,
                61.26647749095919,
                61.98343165430361,
                63.72783396241973,
                -64.2474479992525,
                63.571681242497036,
                -62.63128377028061
            ],
            [
                -3.2268514072096144,
                8.17708203605568,
                -6.081040261090725,
                -8.998053980679025,
                -4.486217081284436,
                6.723446016742214,
                1.2433510271622819,
                4.28153205836646,
                8.392372929752264,
                6.827439155076949,
                1.8336073985497359,
                10.964455977980986,
                5.401611283409982,
                -3.961397573975829,
                2.3384904880131963,
                14.336964191599947,
                -7.254390487761278,
                1.422916853991266,
                -4.132829418379261,
                2.7974148955237683,
                10.956137402319504,
                -13.98051704383881,
                6.510148536622738,
                -6.278234130231766
            ],
            [
                -35.95774667987319,
                -39.48327398381091,
                -39.82846365189428,
                -37.022818148197324,
                36.99925988462202,
                -37.06197523791627,
                -37.604141030164534,
                40.422958534295,
                -32.90009907701421,
                44.1478917394781,
                -39.67567446902402,
                38.193562991257295,
                -38.585108470615616,
                -34.31001572261127,
                -41.28765247918211,
                32.46948669522879,
                25.15401111170226,
                36.03065317851933,
                34.70784334010866,
                -32.669185653174004,
                38.57229073711273,
                -38.43436289899565,
                23.10246776278804,
                -35.02644332811658
            ],
            [
                84.52591500895193,
                -84.78901328186542,
                -20.9278420065186,
                83.70332422902555,
                86.96204568776793,
                -91.1697955247921,
                -84.02224787994611,
                -90.40498581179938,
                -94.72678477463798,
                -89.97975659345866,
                -85.44570250515012,
                -88.7410303764493,
                84.75883838737751,
                88.8118728633357,
                -88.61704478440025,
                -86.18182212550485,
                88.48505420481351,
                52.40663816449872,
                -85.99836213547934,
                -90.01471383116258,
                -86.07715265278073,
                87.05159055483878,
                -89.26442760901712,
                86.13439640697293
            ],
            [
                -8.59450501589374,
                11.467996700831726,
                -6.856214490477568,
                8.558271962333944,
                13.49626917555598,
                4.922905975674821,
                3.4041901919195796,
                -11.00775147238665,
                6.88736395798947,
                -9.851135127519067,
                5.882441057559962,
                14.444846955779223,
                8.76502206073333,
                -7.69532536630843,
                -4.846078249736401,
                6.54458886595578,
                -0.9987329724485131,
                11.283414744359606,
                8.390465692020458,
                4.839524565401576,
                4.9162041324061505,
                -8.65987173335327,
                0.978335459879965,
                9.305733942528494
            ],
            [
                -2.2194072708930404,
                2.4284221698584303,
                -5.798327565769356,
                1.4368739245553097,
                -3.851252324726636,
                3.876447181211068,
                0.6669445223465404,
                0.05678848747215772,
                5.852201761583143,
                11.878066207046624,
                2.0525818265947913,
                7.750995353780183,
                -2.2003063788268027,
                -4.346301230937552,
                -2.2736908206113635,
                -0.04421152705603659,
                -8.743039980283308,
                6.090513745357326,
                -2.589755345530422,
                0.6703657139692173,
                4.465960524327258,
                -1.863786119850817,
                1.3560938577479382,
                -2.582422139187646
            ],
            [
                -41.64154370589054,
                38.82145541381386,
                8.254564440092638,
                -40.01795809779404,
                -32.13743398468401,
                41.92353762110505,
                41.32183034430874,
                38.427854748810816,
                38.841117569964844,
                45.360897765530936,
                40.779598070189174,
                36.1516512046696,
                -42.29004838737772,
                -36.49915211080807,
                43.77368045897009,
                37.64518898111849,
                -35.64709154191192,
                -32.980600073072104,
                39.076731481666236,
                43.68941242976613,
                41.20235033684629,
                -35.818347815886206,
                40.23233897478051,
                -36.51480113102279
            ],
            [
                9.99843620243253,
                0.14005424547740192,
                7.612561828041885,
                -9.391978188387544,
                7.262925390009353,
                5.324887289744562,
                5.501816484870076,
                8.1427808732477,
                9.271463219540543,
                -10.101297739133502,
                -1.3580330208958122,
                5.974779687105446,
                2.269452944211485,
                -6.514329432287841,
                -2.870563252879225,
                0.8174316301680195,
                0.21563349938782958,
                7.113155913646883,
                -3.8319656762488523,
                6.146806321838373,
                5.5602101672184325,
                -9.628666737102831,
                -7.824336847561711,
                4.38243667224074
            ],
            [
                11.14536448345321,
                -2.6835688030406475,
                6.022619049759412,
                -3.752519774883788,
                6.71655584615827,
                -10.786990922861897,
                4.793009386471304,
                3.101348527964489,
                -6.003364135575387,
                -8.224905223641255,
                5.0699083495590465,
                -5.969514554083078,
                18.247487650832845,
                10.58799885563974,
                -0.02123686808995343,
                -0.6478818566789366,
                6.7716990819943925,
                4.322531477400354,
                -13.69409422165349,
                0.3687310384512885,
                -11.869929519793207,
                18.533918739407348,
                -2.4566358217301247,
                2.98555178751972
            ],
            [
                -120.313054610149,
                115.17131372097845,
                117.03277602453258,
                -111.191412611442,
                115.60672265479842,
                116.7149769982249,
                113.74614338594658,
                116.36796177304142,
                118.07556528033788,
                -120.29956443610249,
                111.79737039062682,
                -116.20603402893934,
                -108.84625386480327,
                109.55574102547826,
                -114.16251436476293,
                118.93360960898474,
                -113.72013168680394,
                -113.57643731465964,
                81.40343024869297,
                116.771824328727,
                115.37935264378648,
                114.2743815854549,
                120.58590033454841,
                -109.64539331309074
            ],
            [
                -1.094878218988457,
                -4.367040453879334,
                -4.123043009298656,
                4.038084910562186,
                -2.1444674935102723,
                0.6774596049598063,
                -4.812876328922529,
                -7.995715898414807,
                0.7206676385307633,
                5.665262015621714,
                -6.305940198843536,
                -9.367897239832411,
                -2.7649914127282815,
                -0.9051441804613595,
                -1.0372407300195425,
                -2.732211819506183,
                -9.72463421777932,
                10.666997273815014,
                -0.49623387997145396,
                -10.980848115656274,
                -3.5922731941817934,
                -8.42047488710925,
                -1.9865019235227275,
                -3.554726589216897
            ],
            [
                2.155690849559344,
                -6.188788427030838,
                4.856171891469782,
                0.6874902894594033,
                1.900236047618176,
                4.873974953233176,
                3.620224622190315,
                2.705410855430587,
                1.2743189512262971,
                -3.817854515929048,
                -3.6835850986792353,
                -0.6150157914137585,
                4.0610052653276565,
                -1.2082634442911118,
                5.719782051414153,
                -0.21845393280073933,
                1.4053344052838195,
                -7.799698198785327,
                4.291222250441168,
                6.376885194096903,
                7.617434326786448,
                1.0186702929164146,
                2.704082918167573,
                4.289745502364195
            ],
            [
                -8.978261986985547,
                7.227683135787311,
                17.062657315690448,
                1.2693960046895207,
                2.078544139953009,
                -3.8959945988057,
                -5.920206527359166,
                11.076479007566592,
                -0.8629006193669697,
                0.629727030614826,
                -6.021814742292478,
                1.5437762993343545,
                4.210203006225488,
                -12.810771837230197,
                -9.172177632848904,
                -11.616629374867369,
                6.19633784526401,
                15.500688808595347,
                -10.768855412478885,
                -1.326154257883897,
                -1.6875379357165654,
                5.415544758523934,
                -13.51854168240232,
                -1.0909234599960294
            ],
            [
                8.251565856863358,
                6.549528153804459,
                -3.5626322951760216,
                -16.959519559911822,
                -0.33415023069245575,
                4.383731165186385,
                5.597565744883864,
                4.157220086076997,
                -2.9312292190358264,
                -6.498141977310316,
                10.150986876644847,
                1.6623759834169942,
                4.383466159263228,
                -0.5285785767136543,
                12.000515414485413,
                -7.3212937336304895,
                11.0380068129282,
                -2.3413076409522513,
                -7.19906284902028,
                -0.5131455179534576,
                -1.6653640425771676,
                0.7383399025768814,
                -0.41369269347713816,
                2.237257227790835
            ],
            [
                -65.12266906234007,
                67.26628421087963,
                16.406124870534384,
                -72.15485521690835,
                -73.79566520153287,
                71.59155038349425,
                72.77619629105278,
                79.18930269897324,
                75.84676112063508,
                69.34337475815987,
                70.58608670972558,
                76.18541493204219,
                -67.98068851082917,
                -67.65362782227862,
                82.16441802745652,
                77.47320052503734,
                -70.13482027412205,
                -43.78568842992888,
                68.59378304880677,
                71.3145867405796,
                74.78050548691114,
                -68.63208581816527,
                72.0976808849945,
                -74.62729049887606
            ],
            [
                122.30696080856283,
                -130.1658019701511,
                -125.9679111685641,
                110.34127067417607,
                -125.45203250026499,
                -112.84443059808315,
                -126.32800695401656,
                -118.53211477441037,
                -120.4722324624075,
                124.87453097414385,
                -117.90739107019611,
                120.6602578437623,
                115.16700308544925,
                -120.35357598298721,
                120.19356178469167,
                -121.79586873328125,
                118.65769888588208,
                123.07055639915849,
                -86.24956222568291,
                -121.11289410712577,
                -119.95045026817505,
                -125.56769825577948,
                -124.76424942890795,
                119.46211809071886
            ],
            [
                3.07866392906144,
                10.446402707867259,
                -12.8930575980493,
                7.714487943172698,
                5.344997882443138,
                -3.9441532348377355,
                -5.583811232225731,
                -10.026308665721176,
                0.28049631683026555,
                -0.7626227940328667,
                9.561845451223402,
                4.724969114944961,
                -13.924483000303038,
                8.336420246777035,
                -1.5829854644215386,
                -9.474187061077322,
                1.1056132184430105,
                -16.603697081065317,
                -5.144777018277089,
                -14.477927604574193,
                -8.678001432234197,
                -0.6481567083106771,
                -3.058224003599718,
                14.607915378867634
            ]
        ],
        [
            [
                7.617916362493278,
                -4.6667278378665005,
                -8.906153053481535,
                0.06663247243403507,
                -6.094000233469001,
                6.882079292816759,
                -5.145916394384118,
                0.14010353844469486,
                -9.087764613578216,
                2.0136692772069553,
                11.026679447252038,
                -4.386462987718499,
                1.4028090672961837,
                0.9246720587927159,
                -6.497625270147152,
                4.359458493135748,
                -3.5937514098912478,
                -1.0682597551759965,
                2.1624899956952444,
                -4.166109604713359,
                2.3117771717882856,
                -5.2755232889950765,
                1.2911804712023485,
                4.777175037027583
            ],
            [
                -1.6459287250971295,
                -4.4873904381864556,
                0.01663020318830372,
                -4.239800200829961,
                3.598566417058203,
                -0.14798487781627667,
                2.0438700952602504,
                -2.64643758748495,
                0.0953697694349245,
                12.040191854653237,
                6.355282764417081,
                -2.3664719061457826,
                3.8656973133220953,
                -3.6173273636559635,
                -6.9236126957678135,
                5.706839784880196,
                -7.074410480754466,
                4.121501018132318,
                -1.3680641404911436,
                1.3826828523927848,
                2.2561569792444236,
                -7.2751252758611376,
                -1.3716205088954414,
                7.844843783751884
            ],
            [
                52.159732786001754,
                -47.293675245310546,
                -52.5706063009516,
                -48.402722241593644,
                -52.41699219020944,
                -7.763327553378494,
                46.311113578002825,
                -46.81030951358813,
                -46.91731079433014,
                -50.73348480664067,
                54.96123643416457,
                -43.093334329713045,
                46.38278617216893,
                -52.01319631509427,
                -47.972701015928145,
                48.08236207386398,
                -53.98821893523877,
                -51.58303024300619,
                -46.41174148603536,
                -51.32197953495425,
                -49.79009184669451,
                -51.124108444283586,
                57.24166166819678,
                50.87823048752634
            ],
            [
                -2.9493059456724064,
                1.6157732245301002,
                4.729140070299341,
                8.614550870171094,
                3.6038501366298163,
                -2.8523600093518957,
                -0.10190861530208374,
                -2.685651730634901,
                1.8856918514912215,
                -1.7697995656973644,
                1.2496956113422584,
                -4.211514538484772,
                -2.648249995673805,
                -0.7843123787508407,
                0.9913249094902662,
                -1.6403094899022126,
                -9.315925206156486,
                5.849619552219727,
                1.8741115763283358,
                1.0596067948526258,
                -3.6135260227287613,
                -0.9693493399806082,
                0.810905174750833,
                1.2698064841786103
            ],
            [
                -13.186102689073113,
                12.025325910604085,
                9.104391146665638,
                14.65349171332823,
                -8.07669518350704,
                9.45008179179408,
                12.543723156905674,
                5.680328687726569,
                13.13949804601121,
                9.106188294095297,
                -14.299296047124772,
                9.813641790717787,
                4.224974668382734,
                11.496764431449568,
                -11.406211604751286,
                -8.224289272387475,
                14.36753345256794,
                -7.041733285603452,
                14.368805488121856,
                -16.372014975920404,
                -11.52981625723658,
                12.004769009139162,
                -14.737644290754037,
                -7.084417996277105
            ],
            [
                -45.2043696545742,
                44.76467320951441,
                35.06372040870672,
                48.716495485756965,
                44.270840890670584,
                5.329211560636773,
                -47.61133839606097,
                48.82370225127452,
                48.05775160521617,
                45.33722061802106,
                -47.949395700644374,
                32.972893469314236,
                -42.94924720402978,
                47.17831947610949,
                44.87143890541231,
                -48.49512847121789,
                41.269675565093806,
                43.657864405181066,
                48.69009296313442,
                37.68898433369544,
                49.26273418843072,
                48.146313678857595,
                -37.40649264308412,
                -44.15147543266119
            ],
            [
                5.586178819880819,
                -6.527277108429373,
                -4.075081651535197,
                -1.8089916432113902,
                -4.305449711712021,
                -6.562641771176806,
                -5.2730020502458,
                1.1040684220679289,
                0.561732110225448,
                4.199245238220924,
                10.91232342310508,
                0.7439498210476788,
                -5.985536961199699,
                -6.5369058378712825,
                2.0085650983408203,
                5.015212911219276,
                -1.2109943176738727,
                -3.99919601726161,
                -4.250007666091178,
                -0.447966563651726,
                2.1103020309596414,
                -1.7383892477095817,
                1.1539081326347784,
                5.03479026820959
            ],
            [
                -16.940271954418915,
                8.13502150167243,
                7.081368034522075,
                16.257871706782176,
                8.840781778444898,
                -11.56368174459561,
                -10.362366133574977,
                6.7001189862105175,
                9.788758136127027,
                -9.612250901421572,
                9.85002949881381,
                -13.241093269544681,
                -5.882920527246642,
                -10.775546029644483,
                -12.50121747272326,
                11.240817255724936,
                8.561683551368608,
                5.209247710505261,
                -6.2090870218291325,
                13.30222672992665,
                10.267260392627087,
                10.23108347094046,
                -14.546493104419842,
                7.723302707854351
            ],
            [
                96.53150523099575,
                105.52454255646502,
                102.55027272128292,
                97.95151212812263,
                110.28530502448146,
                94.37644648454179,
                110.94895914113447,
                102.68388028282075,
                108.36677375193266,
                94.01975524017642,
                -103.19022220277023,
                92.79187594172811,
                105.46020923724494,
                101.6414697794874,
                98.82362134748082,
                -104.43277047809825,
                106.4739140625396,
                96.8617031255435,
                -99.68220641857724,
                -100.90746017501516,
                101.49550879123952,
                103.18904713446375,
                -107.18291814670143,
                -101.10686893496528
            ],
            [
                12.178959513069456,
                -3.8846864966530936,
                -7.582277378015785,
                -2.3870558675798046,
                -4.447798250482724,
                1.9892606999831253,
                9.720584235816354,
                -2.9675929875282447,
                0.4822133205604943,
                6.7771914989724555,
                5.51167914444982,
                -0.007545899093617902,
                -3.0708336980740216,
                -5.506181875360705,
                -9.898345194924728,
                -0.3448301345697322,
                -5.023349398983902,
                0.84136769947304,
                -13.143947932506077,
                -4.893659571725829,
                -3.3901555144698174,
                -6.093064607080854,
                4.551759208356899,
                -3.6296039789976153
            ],
            [
                11.149918988053203,
                -6.9350746902042815,
                15.297842352715913,
                -11.79663050894065,
                -3.533064975622224,
                -12.172394179094837,
                -10.831176837967183,
                -8.527824158372558,
                -12.501186013258117,
                -13.090602345089325,
                11.477750583276535,
                -9.957249026475258,
                -8.483731062346717,
                -10.951059809760263,
                -8.277293150998572,
                -12.014460832490913,
                12.270478688033089,
                12.508111068616538,
                10.574282652638201,
                -9.058712849486094,
                -6.241413867858268,
                -8.049786167232575,
                -7.51300968413555,
                9.69305458485734
            ],
            [
                18.199182412445595,
                27.383567859224154,
                39.54675445244716,
                -13.991534245756506,
                -15.892202630698016,
                -35.597613029086446,
                -34.88830329425663,
                32.0711854711726,
                -18.13465221707838,
                -37.34553259350118,
                18.80783067157256,
                20.689300161700594,
                -18.08971926219684,
                -34.21451028244962,
                36.15783675652649,
                17.753372303572824,
                -13.201735586664471,
                -13.50754467191136,
                -33.51911179795734,
                14.053959262723005,
                12.987450008900815,
                35.37852983648241,
                -34.57972611247857,
                -17.690817244235852
            ],
            [
                10.2504473075134,
                -17.891580206731057,
                16.52951496522458,
                -15.767559233406212,
                -1.505570786661194,
                -16.3215419750567,
                -15.23139709166436,
                -15.654904966813245,
                -12.248675872543492,
                -13.413532964064517,
                13.216286606275036,
                -6.220024268261809,
                -9.74155821583063,
                -13.836530739736643,
                -14.394216718653196,
                -15.50310737886423,
                12.447549717557576,
                14.40897434189797,
                13.674772505769615,
                -19.051934073796076,
                -12.64607067824431,
                -8.816546887808842,
                -12.830888586352854,
                8.99209513201286
            ],
            [
                -0.10833765507756617,
                4.241785386375933,
                0.10474872777509042,
                -3.8828007172836014,
                6.257435497906832,
                -2.0985720652467204,
                11.323801943885774,
                -4.184074712504243,
                -9.294182949825736,
                -5.2604616632909895,
                7.630555358601738,
                -0.5612038650350357,
                -7.182180218460181,
                -5.5404086373634405,
                7.1290356712746465,
                7.3200996146092825,
                -7.783062511120823,
                4.7159788031845,
                -1.0585206140394903,
                9.111042767346524,
                3.8509935534696,
                -6.514353542398962,
                8.560729746774035,
                -7.115749269028818
            ],
            [
                -7.271198262462539,
                7.915246963613352,
                -3.5613822602708787,
                9.95913257851245,
                11.68265971343518,
                13.88470854402589,
                10.972636770238838,
                10.03580361013055,
                2.18921449827654,
                12.093128700628792,
                -11.1493498308835,
                -3.5095644389726814,
                -8.172916496709512,
                13.43406590190942,
                -0.686371015490722,
                -0.04330481580779213,
                -5.183563610341297,
                6.755205638979078,
                -2.6009710689098386,
                -2.495414793260467,
                1.2742398890477689,
                9.226847951465725,
                6.194628826797176,
                -16.666015026113577
            ],
            [
                -7.5744206278628425,
                -0.6603442816783567,
                -2.5023425002647386,
                -1.0000932718570705,
                -0.2442280436364588,
                3.6783513489120554,
                -1.5031331304019384,
                -5.7933993013026255,
                3.800122237701376,
                -2.608669383659677,
                -1.2681570940361468,
                -1.6981018867367121,
                -0.39666736590811646,
                6.054473807681578,
                -2.8059928666287064,
                -0.5852534415189203,
                3.721646552964128,
                -1.2989028688283415,
                4.970409822654636,
                -3.0744937564207446,
                -1.1284233053336636,
                -3.483501868130582,
                -2.8671126918020904,
                -2.497973341289882
            ],
            [
                4.481189604023137,
                -4.907469289479145,
                0.47327678284208746,
                2.1577137083184645,
                -0.6015329284415419,
                4.631709790154188,
                -4.466880164916411,
                -1.7458449370929106,
                2.703885239305079,
                2.0746548435166057,
                -2.0852783436527846,
                7.688398189311859,
                7.931791723980498,
                -6.476491913780525,
                2.099070189812798,
                -4.338246930990749,
                2.8034421192924044,
                0.9265981849760484,
                0.7789110753755589,
                -1.7924984435849671,
                -8.655531610497961,
                0.1299324268452454,
                0.7400429779775375,
                -1.7391767863857333
            ],
            [
                22.067537137034265,
                15.844771336728508,
                -15.390129034912013,
                -11.121391396169324,
                -17.019535433098028,
                -10.786305640732634,
                -15.147942280843692,
                24.22264398627391,
                -14.909727092245209,
                12.868527454208383,
                19.316495138377807,
                25.41893839631226,
                -16.78188340143064,
                -12.68937526791011,
                -13.163192639018396,
                14.443857144552286,
                -11.211028417243327,
                16.700232878831958,
                -16.881598209311193,
                8.304682071625553,
                9.993244697536896,
                -14.651343215060095,
                15.041290327027319,
                9.443554272691157
            ],
            [
                -16.608964786634445,
                -15.521324806724037,
                15.755363315662924,
                12.92807165446896,
                13.475099929534068,
                -13.046047536107507,
                -14.93140283431635,
                10.635259476042666,
                -8.336202441508261,
                -12.230353472331172,
                -22.143457036781367,
                -14.618404281435103,
                -13.018276927994297,
                16.061194946248936,
                9.246171373566728,
                8.181672044507227,
                13.216044117855935,
                -15.41540908868531,
                11.993158959744948,
                -12.08115603980075,
                11.055182497682091,
                20.539291838595236,
                -8.572865983619993,
                11.628274055255917
            ],
            [
                -10.455808893358148,
                0.2384421180868819,
                4.2097982080529714,
                3.3821477899191907,
                -0.595202927610521,
                -4.420847642344279,
                -1.100719209331629,
                -1.0470739489593293,
                5.486329122454542,
                2.3327623646485036,
                -7.252523449436827,
                5.22018676289279,
                3.6656354360696812,
                -2.844291418644325,
                5.5201417690581245,
                -7.728179424597923,
                2.451435662642619,
                -5.433300131058486,
                -1.6707843683949144,
                -0.808405954710236,
                -3.3855396931672477,
                10.1384071902485,
                0.7070682837490624,
                2.961517536322466
            ],
            [
                -23.01482126420615,
                -22.023358979863648,
                20.712850125074954,
                19.13151775632372,
                16.104097146733196,
                24.190777649220095,
                -22.645058233311268,
                22.866825120660643,
                23.752823654116362,
                27.446509109340823,
                -27.746420517237024,
                -18.132557685807168,
                28.618261217339935,
                20.400831858145686,
                -17.912613416806792,
                -18.99965652040404,
                21.438497403414324,
                -17.2843076940221,
                28.703945260869737,
                -21.83313573711991,
                -23.839266693323825,
                20.411577414558884,
                -19.18135509747327,
                -20.040407644542352
            ],
            [
                0.3987116093937339,
                3.586280920411961,
                -9.631969791999015,
                -3.5485599222978754,
                -3.3786102232576027,
                0.9313945430725122,
                -3.454094997494229,
                -5.301719249225775,
                -10.674613888009542,
                -5.787954419104015,
                7.3107506833156215,
                6.123394298333091,
                1.5055283700036166,
                -10.58117397875381,
                2.4346793080511473,
                0.37578625802572685,
                -7.505759488134429,
                11.363449755286782,
                -1.509568948936474,
                -2.022939182219058,
                -1.1145670314966432,
                -4.4946372780410435,
                10.172524592887829,
                3.9564712361450836
            ],
            [
                1.2241243967261786,
                -4.790690067254671,
                7.150148200377883,
                -2.519065554194021,
                -2.8324022763598933,
                9.504626903217037,
                -5.9648048946364325,
                -1.9518911067366789,
                10.291259891823959,
                -2.987609540698634,
                -6.497301348601249,
                7.573144918100276,
                9.371175174889663,
                7.432330699250539,
                -4.518876347706572,
                -1.5408420000461078,
                9.12415381929919,
                -0.018693640016950872,
                4.79140930737256,
                -0.11027153020252282,
                -10.935359423388539,
                3.675864595614619,
                -7.803126992994639,
                3.9861457327233145
            ],
            [
                4.034214213670288,
                2.8709632180088587,
                -1.912918620015465,
                4.0098437708292,
                -1.2208674279679677,
                2.1456979366902895,
                -1.5176234212837973,
                -0.32958335344447365,
                -2.5966953293573827,
                -0.955517996531624,
                3.3146532865841714,
                1.928522025366333,
                3.0267527062819863,
                5.53313793833536,
                -4.2356062853159875,
                -0.7545483547602887,
                -6.158083578324615,
                -1.0809097313759655,
                1.604828287369,
                10.881785400957602,
                0.7713538134743578,
                3.563952058134711,
                -0.23111608723360075,
                7.681582867319283
            ]
        ],
        [
            [
                -12.037881015972907,
                -6.686397558687361,
                10.61133084494446,
                8.142699033610592,
                5.253172271418236,
                -0.010546105254468838,
                -4.013002649331348,
                -7.356318482207289,
                0.6454744896827136,
                -12.845584155387959,
                -12.083825306280035,
                -9.743611663817472,
                -0.5427515702666995,
                10.399560188144983,
                6.2879175427148715,
                5.7873558491071915,
                -3.7766408554346333,
                -5.748875222116643,
                4.059914633204568,
                2.0418861366026815,
                -4.166264912855513,
                -4.837520478118756,
                -10.770551331670859,
                -1.2908105285784568
            ],
            [
                1.8689805012233445,
                -4.935035791266933,
                6.7207566881658805,
                -0.33914853769254355,
                2.663815085374114,
                -0.09883933100033791,
                -3.7576522500285954,
                -3.862680777878545,
                -1.3249204935943106,
                -2.3723387496571817,
                3.6742321024789164,
                -0.4256127843729845,
                -7.0120386275354045,
                3.808269756994834,
                2.3947803576238282,
                -0.41963160370354285,
                -5.184969524351279,
                -0.8599803296313749,
                2.352613785751727,
                -2.809741215858125,
                -4.2303926125676385,
                2.688898518989358,
                -9.161119670313076,
                3.4259896053242107
            ],
            [
                -12.365317418394595,
                -10.3139146080609,
                -8.785121688631849,
                -3.4936604801647677,
                10.939535682763788,
                1.9575176099739717,
                -1.1287774343123782,
                5.627922306596358,
                13.93256547161437,
                -13.028569350403865,
                -0.5010244047656732,
                4.323041746456055,
                -3.1470327956011657,
                -7.257546112851669,
                -0.0225038202172747,
                -2.5081986973514665,
                6.768081472377038,
                -9.852328242895288,
                9.2580950181377,
                12.114316289334992,
                9.754206074321894,
                -8.788124190343856,
                8.252558544569506,
                -13.98527590915357
            ],
            [
                -1.3700982968070547,
                4.294930114245638,
                -4.373219764676787,
                -5.197706268333031,
                4.818594907359458,
                2.339354671589611,
                -4.968862771242017,
                13.126571386985221,
                9.83359475527956,
                4.856749483335007,
                10.44260313468747,
                6.497275661138745,
                2.673538821046435,
                -0.6187447846368075,
                -4.669644935195587,
                -2.7482089503858735,
                -1.1614260870876159,
                -4.064216933943638,
                -0.009494424266865963,
                -5.33840717463664,
                0.978057140414915,
                -2.114587957311616,
                5.387975902974824,
                -3.8885468522261784
            ],
            [
                7.380816265303328,
                6.353093879778676,
                8.803344536640116,
                5.737713999094113,
                -5.525145330566969,
                8.182802770425353,
                -11.591100518028423,
                1.6025553030306297,
                -1.6468775363719501,
                2.1985559130552272,
                -6.730497593667872,
                -6.702683574396218,
                -7.011110848806437,
                9.129595477333885,
                2.546787529494636,
                -5.731713619228967,
                -0.984078132293116,
                10.346239704222569,
                -10.70078976265922,
                -2.7756586436113033,
                -2.972738095540356,
                4.657644066192562,
                -2.0932525378018263,
                1.1231076812055072
            ],
            [
                1.0521319054393532,
                10.451976150091058,
                19.584232267461942,
                12.932578913947582,
                -4.367170693740794,
                -14.35597560543883,
                7.093756308711415,
                -13.165983903569654,
                -13.257937622127258,
                2.8990346402928613,
                6.376935241602031,
                -4.985503021378259,
                9.690560463946904,
                10.004483260238047,
                -19.004146125541904,
                -14.022952578450044,
                11.361400859039087,
                3.519860441261508,
                -5.988970824795549,
                -1.2011558813427954,
                -14.093041929445729,
                14.841447010726963,
                -10.06112220970553,
                7.897073956088379
            ],
            [
                -9.856564081337622,
                8.649131260686696,
                -12.802415125446498,
                2.5229495525516357,
                5.969258634205281,
                -1.384613638725881,
                6.720390622717737,
                -5.163856366024967,
                -5.19190972037761,
                -7.740324796932466,
                -6.168636586306947,
                -6.456241952118764,
                1.8936375178585636,
                -10.97159291171425,
                -4.036961826702988,
                11.349174745068296,
                5.732254276434899,
                6.0046334312958605,
                8.443462064174126,
                0.17086116907334123,
                12.670886049977137,
                0.6822549917159523,
                8.945807060392019,
                -7.559613921341452
            ],
            [
                1.4064057157324346,
                5.259306776286732,
                6.0459057934998635,
                -7.282097630649023,
                -3.775617156713242,
                2.964034264262339,
                4.877547647580669,
                6.856515531352649,
                -6.093858231108981,
                3.5394111208922494,
                11.138326935590962,
                4.729911174372085,
                -2.958065222121647,
                -0.10430604436825647,
                -4.822283577065987,
                -5.046526087673091,
                -2.122826376349786,
                5.233918807851246,
                3.1404034277308024,
                -3.86562793760004,
                0.859906066182772,
                5.439132904181833,
                -3.5300575535934033,
                5.548874402766902
            ],
            [
                -7.9651769443832565,
                3.4139980791598714,
                4.385681754109159,
                -0.6550678227532931,
                8.94234008793511,
                -10.153609835633887,
                1.0997478028796377,
                9.450951460601676,
                3.0205192670105703,
                -7.999020395305543,
                -5.613159482266121,
                15.52939513874503,
                -7.486368335232793,
                8.45196087465609,
                -5.827830294570636,
                -6.974373502251685,
                4.219656297049503,
                7.916222871544115,
                7.667009729723288,
                10.888473184083539,
                6.809289039058401,
                6.104264768546851,
                8.423853880941568,
                11.548480695142029
            ],
            [
                6.102532780708493,
                6.186469932798671,
                5.192300712427308,
                0.7054119648584595,
                -12.626087372592586,
                0.9751190801795698,
                5.091704103905596,
                -2.717992691942002,
                -4.843078843256986,
                -0.24419790382270862,
                5.1222894078552885,
                -1.2746908954052707,
                -4.424553125493533,
                1.6962742594291251,
                1.4507054707933855,
                2.6460047535062388,
                0.728973891750831,
                9.186778954817214,
                -10.060407245764784,
                -3.7346690054729375,
                -7.9138115552094925,
                6.095507565666889,
                -11.143743014015671,
                -3.881036269160694
            ],
            [
                8.372143745259638,
                15.677979948127732,
                3.174652189453519,
                -0.2524410508660088,
                -8.069773476413925,
                5.767616960519343,
                -0.20963704709952383,
                -3.137234985811303,
                -10.049083169619704,
                12.11217814118175,
                -7.921294888135866,
                -16.72778015014009,
                -1.5002545742867914,
                11.362048706395127,
                6.085359594808057,
                -8.472723090231545,
                20.401518272111154,
                9.024765777151725,
                2.508784143210453,
                -5.110755098488879,
                -9.259108337339416,
                3.03350575346308,
                -3.717846089325943,
                14.713469281066333
            ],
            [
                0.18162687073578265,
                -2.0249861965270086,
                -3.427210022345427,
                0.4822346513623252,
                2.780937606006938,
                7.112406216954338,
                2.834039135657579,
                -2.8214700597823743,
                -2.3781554412224493,
                -1.0843660853913715,
                0.9358195225618118,
                -4.0490658901279,
                4.213854320864691,
                5.320657580837254,
                1.674625910341111,
                -2.2656134544431294,
                3.9080839801228753,
                -6.314215894823109,
                0.6054317765629831,
                5.86777783547896,
                2.6199432322129366,
                -2.4640289119133705,
                -1.9123405073520194,
                0.3169319940648268
            ],
            [
                5.348629438737711,
                2.189330635558836,
                -4.393754454332592,
                -1.9682387060509265,
                -6.694948201351291,
                -1.2627713625945125,
                -0.5652834793539065,
                -5.692375268698156,
                -7.868397710360573,
                10.410634484381966,
                0.31720628601328366,
                -4.691673192155029,
                -5.784615778114394,
                6.0191892251354195,
                4.311006423777842,
                5.545809394863119,
                3.4268227604689754,
                9.112156638255048,
                -7.230372637545508,
                -7.55305100536392,
                3.0793954265220704,
                -3.1511878569558927,
                3.4013491654587553,
                3.4284854173141133
            ],
            [
                19.035893915113327,
                13.932150218133328,
                12.216291798251534,
                -7.873863180893514,
                -5.50461222718539,
                9.223855752126468,
                17.07806978117303,
                -16.91073085467208,
                -20.441331286147147,
                11.050185324393894,
                -13.762809988867012,
                -7.014300896854907,
                -19.41160547911009,
                17.016206198555974,
                -6.03196756037717,
                -18.70965640579678,
                12.27001921470913,
                17.826708881765448,
                -8.044072617808698,
                -12.574931534599239,
                -13.570390985848015,
                10.591270350775437,
                -12.226596231745951,
                -9.361536812946715
            ],
            [
                -8.272001420801704,
                -3.421148938517883,
                1.2682205693716941,
                1.3261758724953459,
                7.893098215457189,
                8.655059489916658,
                -2.7023400825616957,
                -13.491441596361383,
                14.137697033723773,
                -5.849023655974082,
                -5.327076339731102,
                2.722254609415033,
                -0.22308691824481686,
                1.0037924761289705,
                7.7980386955454355,
                -3.34724153402139,
                5.814636201035612,
                -3.426897696174503,
                4.7817649413675705,
                9.169499253663618,
                3.9905390791143405,
                -1.6337427714558868,
                1.0411820864779704,
                -8.62088637213966
            ],
            [
                -4.374921377162858,
                -2.3116825485556403,
                -2.114900209267074,
                0.12327886758826088,
                -5.7298792812839014,
                4.490439743977997,
                -1.3467052491462561,
                5.952238114469517,
                1.3576300566344852,
                -0.8299092923458551,
                -1.5365830853527032,
                -0.9754149252411664,
                7.262159537444644,
                -2.802002638444899,
                -1.2892515204798751,
                4.185188213966504,
                0.057803705089805306,
                -9.741607511621238,
                1.9856084610506972,
                2.8237914560718496,
                3.917945832937091,
                -0.6451229986033236,
                4.7215945399576205,
                9.381399593943332
            ],
            [
                1.3391682173615216,
                -1.6770655763427502,
                -7.292772027690174,
                12.128068634737517,
                3.325654895950479,
                8.232481515397854,
                -6.507267176517684,
                6.381333513394249,
                5.625588688990019,
                -6.6885621354183655,
                -7.282832735906738,
                -12.144482216699343,
                -8.999547399071556,
                -4.778520649183328,
                4.9839281686313575,
                -4.959436195111326,
                6.336610047873788,
                -7.4982762325989984,
                1.3978246959603389,
                6.393397849220256,
                6.367073160388611,
                -10.203489543390852,
                4.993577962604328,
                -13.410823162268585
            ],
            [
                -7.358238128119875,
                -5.4796848323553995,
                -2.06834636846603,
                -3.8417024508613324,
                4.443466507303661,
                -3.7972953505161406,
                -8.022179429633669,
                2.9608211691581503,
                2.085206872254046,
                -7.696690817242884,
                0.1636301923299457,
                1.0175700462099735,
                -4.175089218037344,
                -10.084433560076691,
                1.195919094823869,
                1.2265293755018543,
                0.07668812591288285,
                -11.399009165376787,
                7.329622877174255,
                6.454029057531146,
                0.17184680083146428,
                -5.685353285065063,
                6.805947984297515,
                1.1059086879358186
            ],
            [
                -2.2683228728924587,
                5.9695388367660405,
                -28.249333694036785,
                10.279144772660723,
                4.451475718100581,
                -8.848968552961576,
                26.84417876453126,
                22.185628194209507,
                -8.945620499528198,
                -5.924797765093925,
                -19.838731483483425,
                21.182298453609484,
                -22.130718094503933,
                -37.88268109629211,
                -35.358984975672094,
                -14.161230707154136,
                4.2100813810210225,
                6.742866565017472,
                26.58329892795107,
                11.059652325569088,
                5.477171988292817,
                0.9214611812986587,
                29.101654959828835,
                -8.41062829185552
            ],
            [
                -5.6124978131716174,
                5.067894601278045,
                2.319680340861427,
                -1.0942115951039635,
                4.56384059557727,
                0.927324034828488,
                -1.246667439594941,
                4.22250639395504,
