{
    "mode": "train",
    "input": 42,
    "output": 1,
    "GameSets": 67557,
    "Layers": 3,
    "weights": [
        [
            [
                -0.10550129608960385,
                -0.059875413763954555,
                0.08622037747303204,
                -0.03373419046051098,
                0.13279214251036972,
                -0.17426485330429908,
                0.318693085857795,
                0.18102078873723285,
                0.17974665760408692,
                -0.18784750243201565,
                0.08835921046459598,
                0.05441776219981058,
                -0.12586947347142494,
                -0.026976529384476144,
                0.09178128780113498,
                -0.0710797049273334,
                0.08295599595575205,
                0.14925432966862884,
                0.08841553157984347,
                -0.1636348720164278,
                -0.04648511076156636,
                -0.007792371072335338,
                0.08906520059840387,
                -0.17489054006886445,
                0.0315802526786018,
                -0.09903051206933498,
                -0.0611172531961893,
                0.039553343827268744,
                0.23749355115239576,
                0.20541868246371955,
                -0.2954832584586149,
                -0.07010179589056263,
                -0.1797255747726088,
                -0.12611578675051227,
                0.07716206900619711,
                -0.04895140950817086,
                0.07712512269239051,
                -0.21013052886288697,
                0.09546960118829842,
                0.0638132599566579,
                -0.15065610214246242,
                -0.07182742881356784
            ],
            [
                -0.0226572439247236,
                0.2000517819717347,
                0.07638658036177245,
                -0.2783073768386853,
                0.13241606997939248,
                -0.15890420801101152,
                -0.10801363676927979,
                -0.11475744487264251,
                0.18205275471867605,
                -0.07002937004124343,
                -0.20671252909133794,
                -0.12691126722988696,
                0.09947247037654897,
                -0.24510455966619107,
                0.14450315364258595,
                0.12127984644401739,
                -0.01353050320982703,
                0.10965761590773707,
                0.06791414265291632,
                -0.2069767017880791,
                0.11400312060579587,
                -0.02303975732039755,
                0.26029315030042943,
                -0.0747900733980459,
                -0.05906957250036125,
                0.2531018326582595,
                -0.18777478727959185,
                0.021105876346551138,
                0.21848265762473779,
                0.125119871079058,
                -0.23696140330476284,
                0.04072009366088246,
                0.10259276895448971,
                0.11217656466364055,
                -0.015036464431534953,
                0.20211414614524603,
                -0.025696322687909074,
                -0.022878620755508488,
                -0.20049872971605773,
                0.06462488462593269,
                0.028364936876283987,
                -0.0439238659701564
            ],
            [
                0.08324327141160182,
                0.02598510258911571,
                -0.08282321367601124,
                -0.0987360013463271,
                0.0628663056979618,
                0.25138853980050574,
                0.08844778674616573,
                0.03830993728218499,
                0.2564598534144228,
                0.07444856153542652,
                0.10870348764507963,
                -0.00728885867677706,
                0.15801970536402893,
                -0.21282531133731108,
                -0.06158678213930742,
                0.139434995514696,
                -0.03932614486934225,
                0.01950529784896226,
                0.0778598593623239,
                0.021316283005979972,
                0.163987041015061,
                -0.173954052799504,
                0.26904782558407864,
                -0.039750867493054544,
                0.18630934753351996,
                0.16635541309040328,
                -0.04078716447603489,
                -0.11994042974002915,
                0.16696770364147276,
                -0.0707605978567436,
                0.11505933120675917,
                0.2785884858120985,
                -0.14356788948661273,
                0.03103486019777854,
                0.07201780618840795,
                0.08332137159556577,
                -0.12011437865994679,
                -0.10468451332391827,
                0.3039149379323756,
                0.06129864413137141,
                -0.22669430068842186,
                0.03197537583798575
            ],
            [
                0.06258219648751356,
                -0.09196135817407697,
                -0.2176355375302267,
                -0.10371729905845485,
                -0.18550431678676693,
                -0.028221000470096257,
                -0.13747159782096946,
                0.027248875491033057,
                -0.10583872125097467,
                -0.036527005845145274,
                0.04780510168511125,
                0.14717060709559032,
                -0.03325789152655821,
                -0.3881192334107474,
                0.012723751244459161,
                0.11971627902923423,
                0.06910863942884575,
                -0.551959233200771,
                0.24181532182599585,
                -0.09871465438069763,
                -0.06827631820159295,
                -0.08537454252339728,
                0.03008375231066962,
                0.04410471117371122,
                -0.06804964067476242,
                -0.007162436641239657,
                -0.07132191018576789,
                -0.11978111005021301,
                -0.12179249667348237,
                -0.143716883291969,
                -0.0673165329370835,
                0.11150125311034825,
                -0.12509839132196776,
                0.09705689644153453,
                -0.09787246470920684,
                -0.08979893869097391,
                -0.09872626739152232,
                0.12132527734551607,
                0.1844659360325735,
                0.13962668515324214,
                -0.06253175314206318,
                0.18587217993076202
            ],
            [
                0.0013415364577346988,
                -0.1908689676350974,
                0.17119548704252435,
                -0.20064989134574415,
                0.06566722334015741,
                -0.23547565769228868,
                -0.12443596575554568,
                -0.00994497106230486,
                0.11567259321012816,
                0.1837004189801593,
                -0.09095324523607119,
                -0.08396871507645275,
                -0.05043299059773071,
                -0.33438760554924263,
                -0.020442361177502123,
                0.014484751978794792,
                0.018683713466491465,
                -0.09909195338623022,
                0.06415462494504454,
                -0.1558163598730527,
                -0.07550986846772484,
                -0.22989962001227868,
                0.06454527048943312,
                -0.21040555060988386,
                -0.1875975105969857,
                0.19252713977758723,
                0.1356196971891825,
                0.00994851498742795,
                -0.05998271750612008,
                0.05235812882052725,
                0.04203541336625386,
                -0.006003125372973333,
                0.05042665296696299,
                -0.14114174982120617,
                -0.0667377379835049,
                -0.005874082768762949,
                0.26165164558382953,
                0.021483294844115635,
                -0.1565881792404648,
                -0.009281185612888003,
                0.09301060322148356,
                -0.0604696200620097
            ],
            [
                0.14770446285818892,
                -0.11258301677360683,
                0.024921860993822643,
                0.2403153957103321,
                0.04978071369748925,
                0.06824973162338616,
                0.11835017445146614,
                -0.11795066555123736,
                -0.1000668110678097,
                -0.23347193508844388,
                -0.12678168812556462,
                0.07498300569069472,
                0.4413768048421055,
                -0.26126328913746844,
                0.26300312085537797,
                0.19936619176245132,
                0.17092419534107217,
                0.10921090560555335,
                -0.00941918194109724,
                -0.3768945417176941,
                0.16578864132030563,
                -0.1334923276702249,
                -0.03420718903469913,
                -0.23834240487435002,
                -0.3236475036416792,
                0.208773473493494,
                -0.008578019802529185,
                0.13166141643253867,
                0.12413534560433355,
                0.028627186528329848,
                0.030519823456054678,
                -0.11538344853813157,
                -0.01384261390031978,
                0.10040647493718005,
                0.2291496526330619,
                -0.15236951949818603,
                0.1471862069274528,
                0.09563898392752339,
                0.14600800934766162,
                0.05206125657576863,
                -0.07787799589475836,
                -0.2362194317254025
            ],
            [
                -0.0585517555286377,
                -0.03188790902882927,
                0.23667143287773657,
                -0.06590644186322227,
                0.10582547037039457,
                -0.15940990726206553,
                -0.09421703708262544,
                -0.2875923042011705,
                0.17364486497210557,
                -0.07842373173586045,
                -0.13210358844562384,
                -0.07231715330510595,
                0.03277074474686148,
                0.11392916961119468,
                0.11597401923204496,
                0.17942392319549708,
                0.031115344786893363,
                -0.011994736230242513,
                0.21078358086985896,
                -0.2956628771147998,
                -0.2382288600772667,
                -0.2512039602477423,
                -0.019508475570771677,
                -0.16501236033019445,
                0.0007811606321078538,
                0.024603138702690323,
                -0.3223428734166045,
                -0.02881569949598853,
                -0.01924323375232972,
                -0.1431262548499567,
                0.2655238393830495,
                -0.01118248987581206,
                -0.16105609035607354,
                0.03506737164933516,
                -0.10286911505934526,
                -0.1760465584937871,
                0.17170365273432125,
                0.23962146748640695,
                -0.08160247292529658,
                -0.12623485244149238,
                0.26473620998764524,
                -0.024163591494725516
            ],
            [
                -0.08285781351239516,
                -0.0019331802083352699,
                -0.1363822451893816,
                0.0033587439559250704,
                -0.16438887646540665,
                -0.2196757264965548,
                -0.044400235691453696,
                0.04407695525468198,
                0.1551932254959319,
                0.08572240969637279,
                -0.028146980806022567,
                -0.04353075836746879,
                0.2270932819891636,
                -0.035827802369618106,
                0.468188021429418,
                0.1735153560698783,
                -0.09877312617615722,
                0.2055819818728054,
                0.149105104709488,
                -0.1963824106508713,
                0.15432985617490977,
                -0.013851000102153399,
                0.03534130381497877,
                -0.24547982464290147,
                0.1497742732387109,
                -0.11484077420366663,
                0.18645836053546613,
                0.1314680483691,
                0.04399631853346241,
                0.03960765477414069,
                -0.257187046532325,
                0.011240751047836384,
                -0.3080455987235387,
                -0.30465359190914554,
                -0.12008223431677559,
                -0.03047799732805852,
                0.08458543544157446,
                -0.14725986202888824,
                0.01021034846102162,
                -0.28750663363505174,
                -0.007005441015924263,
                0.008647822553770581
            ],
            [
                -0.07245264392634897,
                0.15745458544395205,
                -0.08121350987471734,
                0.0492122707223563,
                0.33400077232809333,
                -0.2546372148831098,
                -0.01024885784809436,
                0.17767839025547602,
                -0.02162364045095021,
                -0.1406630603509091,
                -0.10300712425546296,
                -0.11692510320347929,
                0.3382586110576914,
                -0.027737315788852426,
                0.08446770303873445,
                0.27916234532729606,
                -0.2097055198653032,
                -0.014234090799474653,
                0.2695407749182238,
                0.1966650430210284,
                0.0183685111360241,
                -0.11647651155066978,
                0.10377018878690736,
                0.08543032647816359,
                -0.012356048685914393,
                0.053855023865162076,
                -0.019777347758414054,
                -0.02485556358838179,
                -0.02719899960564543,
                -0.019850134631000525,
                0.10233746398304847,
                0.004456825213408038,
                0.11169639418169038,
                0.2997014994995421,
                -0.17829110420831748,
                -0.02782831109843054,
                0.15390366788342325,
                0.003154265453362069,
                -0.017295688863129408,
                -0.0027748992114360375,
                0.03534488352523315,
                -0.1922314930385961
            ],
            [
                0.3094280363985576,
                -0.15981053559801933,
                0.21015813192232816,
                0.2390922572724892,
                -0.15875149368835206,
                -0.10394590510546829,
                0.15349608737017867,
                -0.1357804812153276,
                0.12730476523860496,
                -0.08054080282930172,
                0.10916488941153957,
                0.06915892995622495,
                0.36805661487364694,
                0.1601174543633229,
                -0.17568809044575345,
                0.15007377886750278,
                -0.08342647630401642,
                -0.09597512570211733,
                -0.01912803001921759,
                -0.30358402539649365,
                0.6049944867292015,
                -0.09861797382468017,
                0.17372753595914375,
                -0.36805975449585626,
                -0.0044293835120370285,
                -0.050058210881474545,
                -0.10140020374475697,
                -0.025868800703222925,
                0.1625727977888449,
                0.08565392633916465,
                -0.1664351582542277,
                -0.08840289813440147,
                -0.09330202722714154,
                0.1308471813406184,
                0.10034521929105149,
                -0.05134128749289618,
                -0.27537142579125234,
                0.047772409002880385,
                -0.07419140452304909,
                -0.03919801711047672,
                -0.10641136970338672,
                -0.06630118589825183
            ],
            [
                -0.12451925515585571,
                -0.16669617501761663,
                0.20589070213394214,
                -0.026511522261496126,
                -0.2104754425848176,
                -0.1897114431897667,
                0.07162221493643621,
                0.11389338482073182,
                -0.1260683184109102,
                -0.15158321529917218,
                -0.20614980167898514,
                -0.0019322894079934322,
                0.13385867773099017,
                -0.20630328854478042,
                -0.20178256314201104,
                -0.04822051907495133,
                -0.27832655039659865,
                -0.12947138662376548,
                -0.09526030966388607,
                -0.013696210528835712,
                -0.18111346172968432,
                0.07930754217680144,
                -0.3482147489534101,
                0.027055346596933344,
                0.137028297727821,
                -0.14146577133135144,
                0.11309555021001327,
                -0.15030066581009474,
                -0.1953101461559664,
                -0.0020348545640239296,
                0.009514394920608805,
                0.3404848343709964,
                0.007318862397445642,
                0.15691565190666631,
                -0.1562361483394015,
                0.2926353897637506,
                0.11229448500152014,
                -0.12017558239330527,
                -0.13174888634677678,
                -0.42545464892368645,
                0.05216650533187406,
                -0.0518405758844764
            ],
            [
                0.010864171486876092,
                0.13375674325796616,
                -0.09690097678078717,
                -0.25690132685884304,
                0.17780902242981647,
                -0.1253646683891884,
                0.17361682516260285,
                -0.038331491605483714,
                0.2775223217542664,
                0.01747976423159879,
                -0.308779766941055,
                -0.225594730585386,
                0.08388640430790531,
                -0.08146237181120276,
                0.15129642051864275,
                0.07911709420951867,
                0.3104240666795773,
                0.12661905549451047,
                -0.021094233363443626,
                -0.22703877441025655,
                0.07952286800220879,
                0.30921879943053054,
                -0.01063992081185676,
                -0.3744851810698112,
                0.2570372316133941,
                0.3317169141072409,
                -0.032090644704675285,
                0.0081962870909949,
                -0.06880798110725496,
                0.14897240151471372,
                -0.04156948736455897,
                0.18710918887284889,
                -0.08767348110630262,
                -0.014267944712761424,
                0.022297314375543806,
                -0.07404963468539527,
                0.23746574914665847,
                -0.21832390797699974,
                0.1524699249693953,
                -0.11951970557523288,
                -0.017120310497273618,
                0.4647210632618847
            ],
            [
                -0.18198434181192272,
                0.05357183718218911,
                -0.3394154343488751,
                -0.25556777318330104,
                0.0837313927759137,
                -0.051213146010949326,
                -0.007928690501930614,
                0.053268757614020876,
                0.07612356617409417,
                -0.2875468363904565,
                -0.1459575469887632,
                0.013188810989114416,
                0.3315591103061786,
                -0.1006763859873552,
                0.120269536773195,
                0.13159285891248945,
                -0.11696814395730967,
                0.12460353331260207,
                0.058247755103117256,
                0.009405970525039525,
                0.038027933604601376,
                -0.02216876748865218,
                -0.062321160093601835,
                -0.2606041763670831,
                -0.10943545558637548,
                0.2721183519942135,
                -0.08515601242402032,
                -0.03166057275344404,
                -0.2132770706150983,
                -0.3080399972952906,
                0.05777855076158194,
                0.07945261284874808,
                -0.17983398534171854,
                0.19643979469404493,
                -0.22357157962437516,
                0.1385370026880811,
                0.035409112811247485,
                0.2513994398016796,
                -0.17049614808798993,
                0.057472898318859114,
                -0.14074704347931385,
                0.46262955102821346
            ],
            [
                0.02979252597913932,
                -0.18686179955270316,
                0.1449292476626609,
                0.1439834475549353,
                0.1551690591019487,
                -0.2311625278322499,
                -0.012294896995574638,
                0.19381511615721939,
                -0.03657504918731505,
                -0.11085060425876983,
                0.09330500306979904,
                0.3964003192791049,
                0.3982716170186774,
                -0.10172712690795928,
                -0.11828599355310335,
                0.11536850147952268,
                -0.08875942854498353,
                0.06496538023201753,
                0.08190747543651941,
                -0.030487289881116958,
                0.24894949963366397,
                -0.15795871424061933,
                0.11166384529430148,
                -0.06221124932726308,
                -0.20249237557030617,
                0.0761189915346052,
                0.0008364659991554042,
                0.06552207777058859,
                0.2522502096198781,
                0.018954715711936555,
                0.32348045022440064,
                -0.24896683629677033,
                -0.07073523087681202,
                0.06748738261771056,
                0.27289857276762286,
                -0.04133184012205837,
                -0.23119234477452769,
                0.1405553811074028,
                -0.020866022596652517,
                0.11988217090052262,
                -0.08539056250690073,
                -0.1343769876662781
            ],
            [
                0.012894787155330602,
                -0.19765839687427492,
                0.021429028297276956,
                0.0727089236368118,
                0.04158752222638991,
                -0.22275850895587573,
                -0.014831357733227631,
                0.34982040559959016,
                -0.015240082384559036,
                0.010960954116129254,
                0.0679535584632528,
                0.04702150271599909,
                -0.017607528590015034,
                -0.007555178446352881,
                0.013475385688987877,
                -0.04803733796579555,
                -0.1588030379259548,
                0.019563162553042517,
                0.2617111720957651,
                0.07274036389265667,
                0.01301235465991471,
                0.23864568246234216,
                0.04405026211128624,
                -0.3307671023550483,
                0.15439547496518694,
                -0.05449049392662958,
                0.06009667340399065,
                0.2017984414168621,
                0.16375954685861663,
                0.07973953944307896,
                -0.11190663429114002,
                -0.0837881612452425,
                -0.05994681419000428,
                0.004913323600606995,
                0.15735534358248396,
                0.015246174029072539,
                0.1268772423942239,
                0.03183201610145194,
                0.07149438340676637,
                0.09254122915237421,
                -0.18256019906871174,
                -0.13316564788932636
            ],
            [
                0.23041427409310808,
                -0.3233267662034225,
                -0.1672343037250518,
                0.15061805794766342,
                -0.09592508299546616,
                0.030794171202575826,
                -0.22584086813311044,
                0.1342988567704395,
                0.27401681890504054,
                -0.255290334696112,
                0.08731250569688893,
                -0.072910173411971,
                -0.023472477164726377,
                -0.14397541202633043,
                -0.11686868590247033,
                -0.13383118151987233,
                0.10274006106587855,
                -0.1315341485539679,
                0.02597690301266921,
                -0.0874879855510125,
                0.25574560780872313,
                -0.14944564004595104,
                0.1925460795297021,
                -0.16897528874915835,
                -0.21714770530068347,
                0.08410198039228871,
                -0.24308642353300897,
                0.3438138263881094,
                -0.15600797952415987,
                -0.1417772437717936,
                -0.3432895111994333,
                0.03973305185367095,
                -0.044445093035253264,
                -0.17067684289990182,
                0.1235424078774315,
                -0.03492445523088172,
                -0.14372591232467752,
                -0.2843449235381496,
                0.054803147848622454,
                0.04418029365248169,
                0.10538736613136362,
                0.21410451121804613
            ],
            [
                0.13755426365003073,
                0.03056264985595933,
                -0.07636590022810089,
                -0.24794643697777574,
                -0.11145792583270424,
                -0.21528986435305295,
                -0.06902493583529352,
                0.20832560454509913,
                -0.2613684175217817,
                0.22942961595286157,
                -0.040812588874830906,
                0.02980803144761732,
                -0.11163517514459115,
                -0.12401745824996804,
                0.20205009315061212,
                0.006362685959560299,
                0.16590563483106407,
                0.13691442200905102,
                0.3301916650271256,
                -0.04476723952490505,
                -0.21301118020505325,
                -0.4274104031413407,
                0.025271134450486288,
                -0.24261494524536412,
                0.09809128937357836,
                -0.10602998092087348,
                -0.3697093870987567,
                0.027905149286552154,
                0.05960393460752085,
                -0.08364337443940228,
                0.13839962873068692,
                -0.28181688278227685,
                0.2914397667890826,
                0.016716989248734854,
                -0.06517382519874494,
                0.11315849322542598,
                0.0015124917195919914,
                -0.010040310023664737,
                -0.05422350961464681,
                -0.08654573386039942,
                0.08235129504943874,
                -0.14354984799489787
            ],
            [
                0.04743000436885317,
                0.15037481158748886,
                0.023986151688406326,
                0.23184215099572905,
                0.05916016138214986,
                0.01106466378435991,
                -0.06116194853025281,
                -0.13613975801618652,
                -0.0035540883462061345,
                -0.2239830706444769,
                0.25032499034177697,
                0.06775153141420506,
                0.23969907684163083,
                -0.1691966221833427,
                0.05158521830814758,
                -0.019846923860695254,
                -0.24793896575921812,
                -0.0008133475468701481,
                0.2537748828673958,
                0.22235198600215064,
                0.33704064623001073,
                -0.20156969898312566,
                0.07498076993010401,
                -0.030942579594285924,
                0.1698897022295564,
                0.19548164289291692,
                0.05543146907281877,
                0.04132159024914585,
                -0.016334584355831523,
                -0.02615376019370169,
                0.03872308786403568,
                -0.12750602537446512,
                -0.14551198731465598,
                0.06302426081007052,
                -0.19014185655353785,
                -0.15210646202497632,
                -0.01533233306072787,
                0.06333663385121398,
                -0.04693140913001001,
                0.17487909510693003,
                0.21129328881809953,
                0.01683188188252642
            ],
            [
                0.07558204240572078,
                0.02746145679773755,
                -0.3549491757543035,
                0.12428750921662186,
                -0.16871972004834024,
                0.29476814008878155,
                0.13303504945750594,
                -0.07886397198812384,
                0.1760408293637191,
                0.20078993946211043,
                -0.007662176798976346,
                0.10241006904330652,
                0.08610762977888331,
                0.03849701651818882,
                0.12798457538835403,
                0.11364817285788603,
                -0.17694108095529923,
                -0.06639835790268812,
                0.1259478611127084,
                -0.0184369955247152,
                0.08069364121989182,
                0.013254613604759546,
                0.11358949540599943,
                -0.20760024820403655,
                -0.05196579956215778,
                -0.08548412986933294,
                0.3293491632343361,
                0.11720928258094462,
                -0.2091524903017838,
                -0.2261835846791799,
                -0.05663101739826445,
                0.11486656049731815,
                0.026631472870755846,
                0.1466737762914901,
                0.05345653736979846,
                -0.02536891727044212,
                0.11501604840954074,
                0.06327357933676671,
                -0.03558890861235888,
                -0.017270079648042287,
                0.3083084782719709,
                -0.10919751561999842
            ],
            [
                -0.01183293537441867,
                0.0019361962224797745,
                -0.1324219777952492,
                -0.3263236890176609,
                0.11665197259862028,
                0.05901697168866314,
                -0.07443064802005715,
                -0.3705732107323165,
                -0.0012305732349567246,
                0.0720228705975564,
                0.02204450279001085,
                0.10208225815450395,
                0.16002497736758559,
                -0.09274239733695411,
                -0.1297895073008697,
                -0.29741790834373744,
                0.1481588876920009,
                0.10334823277278818,
                0.06205650004951299,
                0.07561457805515465,
                0.2966248059637917,
                0.02838358621083356,
                -0.10077031822294183,
                -0.3461876151257563,
                -0.01794241873839032,
                -0.058494128713846155,
                0.09067406367596334,
                0.2013918491938206,
                0.0925220771681701,
                0.06217749955885609,
                -0.13427881234998368,
                0.20452844896244887,
                -0.12146079836232042,
                -0.06512876669083226,
                0.37165704398875815,
                -0.12476808186428026,
                -0.09656114743807026,
                0.11037856148000258,
                0.05874452373540945,
                0.31936664478161203,
                -0.07143709933567852,
                -0.14180971938197703
            ],
            [
                0.2109425871561798,
                -0.12121659529764982,
                0.1966823337879084,
                0.23981473941847736,
                0.00020429415188171512,
                0.08334258750670753,
                -0.3954474203082052,
                0.3438576211048538,
                0.038095082251185644,
                -0.06473080091450518,
                -0.152982592887489,
                0.15604560196060674,
                -0.009516067300109649,
                -0.08604152322111146,
                0.06588716113270876,
                -0.06585953942571296,
                -0.023234343016723825,
                -0.036723845182277975,
                0.24279201488825572,
                0.09738260162352591,
                0.3483082175913669,
                -0.2594002694575607,
                0.06397625241102187,
                -0.11581141651041775,
                0.0838870755784594,
                0.18975737751066934,
                0.0973272773782316,
                0.19255803295180865,
                0.01800368280537687,
                -0.04560489185982594,
                0.07985894494232222,
                0.03551696719292939,
                0.04278567998672778,
                -0.16367596500604162,
                -0.04931892280476875,
                -0.003552115575946558,
                -0.16473319169301995,
                -0.05309585484434244,
                -0.011859465313377117,
                -0.09933506695762384,
                0.1565096035070036,
                0.36034309119555014
            ],
            [
                0.046005143357577744,
                -0.013209239835017744,
                -0.2570902029089035,
                -0.22818902390378595,
                -0.19354272203646605,
                0.1066662887642398,
                0.1500893173395948,
                0.09705970609292476,
                0.13131956565594055,
                0.06097253175270825,
                0.22331323129832192,
                -0.02222614798400416,
                0.22978135239268327,
                0.09592915656268958,
                0.2663594729189474,
                0.0705297095259325,
                0.27361969248764295,
                0.042137708221388584,
                -0.05970181223281315,
                -0.2524038653290903,
                0.18540489057277004,
                0.11449776324685287,
                0.033560061906694166,
                -0.07626721619646792,
                -0.04251320006720545,
                -0.010477095499581944,
                -0.033430049892291425,
                -0.15417688954321937,
                0.3016435271444175,
                0.11292346105828996,
                0.27392422481263634,
                0.08332221666521657,
                0.06642478225780714,
                0.0687951766603082,
                -0.10546895067576345,
                0.02965989039448881,
                0.12264169611445012,
                0.0029270051100474576,
                0.08468728525404444,
                0.015982522289638527,
                0.08444724794312368,
                0.0743963504733757
            ],
            [
                0.08282412012376282,
                0.13530704409062955,
                -0.2903824863208539,
                -0.03605504943041194,
                -0.022029922542056025,
                0.16841341185468614,
                -0.15753254655608714,
                0.023987059781342968,
                0.013375682541048286,
                -0.21104412700132322,
                0.14714161207237106,
                0.16042160071738723,
                0.05259967609153906,
                -0.12361508756391215,
                -0.00789264914558912,
                -0.029634904078261057,
                0.08793844218393906,
                -0.27033076490154034,
                -0.06829646997608492,
                -0.1202770772325378,
                -0.11141987708674296,
                -0.11045645039346953,
                -0.03648349345721914,
                -0.13719882921088242,
                0.2947473742809848,
                -0.18180670891913517,
                -0.042055175500882204,
                0.10042077316220115,
                0.07265610514367862,
                -0.16774774875879794,
                0.17563193739928737,
                -0.07784559509863719,
                0.033022276030307204,
                -0.29949849140894,
                -0.47457487376119695,
                0.04578717040695566,
                -0.20225857779668022,
                -0.5209546249224545,
                -0.1797017371245665,
                0.16629898748475508,
                0.03904261393758156,
                0.042188020566112254
            ],
            [
                0.04974580228101319,
                -0.18077515543565992,
                0.14487358950316842,
                0.01013519355708411,
                -0.0501411945251969,
                -0.1352464398933717,
                -0.16875322242491586,
                -0.2537039796881055,
                -0.15622326750907514,
                -0.1761762025053017,
                0.1321852144217864,
                -0.0015660623731503552,
                0.022658246738148924,
                -0.032797581861676195,
                -0.06215111353981118,
                -0.1235064833863249,
                -0.11949440085245819,
                -0.08865142700643011,
                -0.11241483673716954,
                0.06959217630626616,
                0.2021595106603863,
                -0.23775099674612213,
                0.0697094383462401,
                0.018359010735965325,
                -0.0924258547898694,
                -0.16420886784549563,
                -0.15804716498682034,
                -0.06899172480743238,
                0.08371977316396886,
                0.30596415009226513,
                -0.15106846582329617,
                -0.01236013899599239,
                -0.2127517757620879,
                0.15628983768435004,
                -0.22104102923580538,
                0.1883014997906583,
                0.0834202049687422,
                0.04112138252090436,
                -0.058274598963205936,
                -0.051067028071833026,
                -0.19037079447844293,
                -0.14337997928591412
            ],
            [
                0.16048803370720008,
                0.1541937002509919,
                0.034753553838154205,
                -0.05886723732717542,
                0.09211291436379526,
                -0.16609947363361577,
                -0.0002009324109954142,
                0.09787817782954357,
                0.03805945807425726,
                -0.23734445423128014,
                0.15019271597876221,
                0.054147131984587656,
                -0.07092717026944387,
                0.16680414272446006,
                0.06805005659662662,
                -0.15957576638170046,
                0.06573544345445309,
                -0.23081370239191895,
                -0.14157775584144286,
                0.09447132458363827,
                0.0395654186298926,
                -0.13758062900485646,
                0.05365939716656315,
                -0.12124515358262167,
                -0.13750193595538865,
                0.1379442147199323,
                0.07250336163082965,
                -0.06183682339777475,
                0.3403697864351958,
                -0.1569883855068071,
                -0.008514350668142361,
                -0.2618946289868527,
                0.00963803289973845,
                -0.07003103137849588,
                0.0011046393069346417,
                -0.0024019158278236127,
                0.013016762544239797,
                -0.1725461844693301,
                0.16661861994013846,
                0.04688518073079163,
                -0.05126325714785093,
                -0.03944257975167102
            ],
            [
                0.10444001134379176,
                0.1555495951155164,
                -0.3430537254607307,
                0.21995635953107007,
                -0.031240282082789565,
                0.03091375830427742,
                0.14075088208062977,
                -0.04338994627408693,
                0.301028192447671,
                -0.002015701433690919,
                -0.09896394402995416,
                0.17660555782489762,
                0.3328008017956434,
                -0.20074827646472265,
                0.048928153036322045,
                0.23591695390144024,
                -0.04816469101290653,
                0.24390096255700167,
                0.17078200857074083,
                0.1013275679244171,
                0.028751231323012716,
                -0.2909193511933009,
                0.12482751271861636,
                -0.013680743877055673,
                0.15593223128853353,
                -0.10260503472111115,
                0.01985220193890454,
                0.24919493738080267,
                0.1108487358595502,
                0.13795479355414658,
                -0.1798062116439095,
                -0.18070879624585268,
                -0.021460264095318086,
                -0.05022063038437038,
                -0.002894445032068471,
                0.019420748325741675,
                0.1110134417909373,
                -0.06811736901086429,
                -0.05942705909490546,
                0.017360085482734215,
                0.07741749553759418,
                -0.1602689509302603
            ],
            [
                -0.17516138304818724,
                0.07848524116900035,
                -0.12177140018388072,
                0.1334633281198433,
                -0.45118115671724746,
                -0.04135694645915359,
                0.20419928101079607,
                -0.23980871072722382,
                0.058892157183395015,
                0.09036585827853684,
                0.07229425330996078,
                -0.02564352833776502,
                -0.12173728033881626,
                -0.17940752925141712,
                -0.02956025511666012,
                -0.02400653118518713,
                0.11779674999061925,
                -0.10789113937005917,
                0.0888740871255553,
                -0.04898551964435168,
                0.27132606695638894,
                -0.09966760630619485,
                0.005901803932551755,
                -0.1377423622562344,
                0.19412155905597386,
                0.11307711481023387,
                -0.1811837179398797,
                -0.12219821578494947,
                0.004769821258586875,
                -0.057506158739580655,
                0.21647971137445104,
                0.0027137459802437413,
                -0.17855343452141853,
                0.1466334390098663,
                0.24782727843553223,
                -0.05654609361076155,
                0.02698394706998533,
                -0.14549188238552924,
                0.1767569152200818,
                0.006867109161400238,
                -0.2980643395810089,
                0.12628770405187603
            ],
            [
                -0.03712745434287053,
                0.009297909371384841,
                0.033013459042329364,
                0.03422094128154408,
                -0.1684066353385111,
                -0.013061187363988954,
                -0.09048436307229672,
                0.14872478562720726,
                -0.11662696762258545,
                0.06544738145491234,
                -0.10653301555922856,
                -0.17465895655627187,
                -0.03589963802491075,
                -0.3919360413217482,
                0.15929849095572765,
                0.21889943542414086,
                0.030510084780862836,
                0.025121657717904523,
                0.08212815798843409,
                -0.07588938289645436,
                0.40604596199294696,
                0.2787835014144747,
                0.41215126634614496,
                0.07904728451283602,
                -0.14551664808146925,
                0.10292817023767135,
                -0.11961045702997741,
                0.11937812538385943,
                0.3574743621675652,
                0.05630003320261859,
                0.044518347183082355,
                0.27358409951239937,
                0.015509666725155892,
                0.18612350163045988,
                -0.030216293140647495,
                0.03582438647268722,
                -0.02423067627875796,
                0.04761913850581568,
                -0.13274864782710344,
                0.1995473047584972,
                0.017676447427173357,
                -0.013184878643715947
            ],
            [
                0.09603764030461359,
                0.09274714355071052,
                -0.047880048977599704,
                0.0601483634022795,
                0.012875859064447081,
                0.13016377399445941,
                0.12075980911489356,
                -0.08311610778434164,
                0.010680404158513348,
                -0.07365332381414348,
                0.13627508347748576,
                -0.014103958629261166,
                0.274364190960347,
                -0.22372868846829574,
                0.15496868485044218,
                0.214231179513047,
                -0.13108600227943223,
                -0.0928869835315051,
                -0.01199583607510428,
                -0.13703037524735043,
                0.1573345550003466,
                -0.09117181588765634,
                0.36924552678025135,
                0.006041670797669513,
                -0.05118225892985507,
                -0.004765658373870953,
                -0.15623511157284278,
                -0.105478167153601,
                -0.06661326800966032,
                0.055645086527764065,
                0.17743164859815208,
                -0.01868276436461307,
                -0.2006907153790653,
                -0.12741347588823257,
                -0.05141653200597167,
                0.20724526786099212,
                0.19707091062816615,
                0.09005110347920846,
                -0.2508254160921858,
                -0.2339705615357935,
                0.03434139708413219,
                0.10037058797878419
            ],
            [
                -0.042335987632043236,
                -0.3121314353260831,
                0.049341026034167616,
                -0.09765982819617595,
                -0.13197295450623742,
                -0.09643909792841972,
                -0.13217551477556921,
                0.3325233662927462,
                0.05392434546069536,
                0.07801228899403405,
                -0.04961106696485315,
                -0.04674376484222457,
                0.13096757700599848,
                0.19571223842889637,
                -0.08521744586058896,
                -0.1317538390730928,
                0.06369041483663718,
                -0.20253225889953372,
                0.13175685312655144,
                0.0068213886760875725,
                0.2906007085580923,
                -0.20744264198114926,
                0.08731442885454067,
                0.06229474843444843,
                0.11995652430392127,
                -0.22615513444156948,
                0.07749695003197687,
                0.27144213454338567,
                -0.13092952104700536,
                0.008124261193422796,
                -0.07288504687692803,
                -0.2565880826779984,
                0.05805343217357957,
                -0.04733204039259678,
                0.19580987706059821,
                -0.04361062857254605,
                0.20464587893567276,
                0.08265744736373018,
                -0.04350388966395176,
                0.0465790655959853,
                -0.3322726866513286,
                0.1615136919914893
            ],
            [
                -0.012673608875380186,
                0.004823063864166347,
                0.03714060541686746,
                -0.013469922762242237,
                -0.1568106317873355,
                0.14923179954290192,
                -0.07028016759557358,
                0.06010839879146806,
                -0.31061330936257264,
                0.37464627803919726,
                0.052222827797236665,
                0.23125715708625147,
                0.2770306481857384,
                -0.06480850483340975,
                0.20910954506442037,
                -0.23532986724260643,
                -0.15461856507794014,
                -0.012572895734978001,
                -0.11816653623377833,
                -0.26582691973180883,
                0.17606739898786386,
                -0.008083475983116706,
                0.03235597251358563,
                -0.025169856792042908,
                -0.19849857739826585,
                0.0998703118063261,
                -0.13745498543028245,
                0.1399625635773793,
                -0.07775149591159088,
                -0.10386373499748933,
                0.14141084420777836,
                -0.18611634819253042,
                0.2704894836027548,
                -0.16873223579214514,
                0.09407558478062565,
                -0.27058208010656964,
                -0.011878908229098494,
                -0.11618025759837346,
                0.10903535645625884,
                0.006575829897326009,
                0.07095866711142394,
                -0.011796610981718525
            ],
            [
                -0.047354594531101524,
                -0.31942822655709463,
                0.013543660222560499,
                -0.06928761182088057,
                -0.21871796569770005,
                -0.07509826609208861,
                0.12965693113545268,
                0.008758442580156163,
                0.19754130566020325,
                -0.03972560935271384,
                0.017202650598423883,
                0.006857587569597851,
                0.2322914060086993,
                -0.18465404851607753,
                0.13135121628122173,
                0.20925984005759057,
                -0.04453267295129054,
                -0.0926333216400883,
                0.029875432524782322,
                -0.34600433106220807,
                0.0657692679980113,
                0.16649916814374485,
                0.3307150591452569,
                0.06300907805024872,
                0.3681845905041096,
                -0.047479665695450014,
                0.03986311011064334,
                -0.12014991602404262,
                0.07969880651256007,
                -0.2574950819474981,
                -0.06490841133535784,
                0.0021888413468247317,
                -0.07156016463689824,
                0.037343970038802736,
                0.1657442936144229,
                -0.0031169890062804693,
                -0.04965916941812031,
                0.17059142652028683,
                0.1641968098433414,
                -0.030030613027563182,
                -0.09351428096014347,
                0.11822759817036135
            ],
            [
                -0.0355582279289483,
                0.04302915417324355,
                0.08059100281551063,
                -0.3152110093696665,
                -0.38524828667251454,
                -0.22927041224583686,
                0.05725035773064939,
                -0.07805300577285798,
                -0.3147733555080891,
                -0.23984111249158493,
                0.05054763102808431,
                0.060811191356726954,
                0.008415682781760955,
                -0.0072358790568755466,
                -0.0001365772908655421,
                0.021820133343521553,
                0.05738977813714676,
                0.19935650997882706,
                0.19191529541617883,
                -0.09216744162272988,
                0.18382087291421367,
                0.03173947199356031,
                0.22372673243896132,
                0.06183116617873602,
                0.05399249375431173,
                -0.41408305448064525,
                0.2632107821136997,
                -0.1273818291116963,
                -0.15305332741603184,
                0.1518669585386664,
                -0.19631549729954723,
                0.05027780122442472,
                0.042846720064524356,
                0.27887308744618017,
                0.24344994870473288,
                -0.021529537634797806,
                0.41427051098421336,
                -0.16244308161648885,
                0.17889924930775297,
                -0.18212436654721748,
                0.07483804353354352,
                -0.05294069154145423
            ],
            [
                -0.12186911592079912,
                -0.18260039585491136,
                0.14365875344154788,
                -0.34859478543498,
                -0.010082210453233596,
                -0.1316369538028963,
                -0.15678320830130396,
                -0.03085616683319387,
                -0.03937705688854911,
                -0.22090296325653827,
                -0.08231023070561505,
                -0.12272919266795353,
                -0.05899842301105776,
                0.13975182026602317,
                -0.014261866567478609,
                0.22005930975918533,
                -0.07492020254455603,
                0.31763097460741674,
                0.12294812004103581,
                -0.26137905678603424,
                0.06728908710007772,
                -0.3914307943461003,
                0.06872139233990235,
                -0.12075337266258007,
                0.16202572843118035,
                0.16832700189956148,
                0.29959375964760626,
                0.0915713561974974,
                -0.211194347404049,
                0.14680340380924584,
                0.10934410436470002,
                -0.043532391268755445,
                0.05968319430152237,
                0.07549169338115941,
                -0.11772133026481668,
                0.08181166994889387,
                -0.149110991402213,
                -0.10763002039329905,
                -0.12285671454456526,
                -0.22377866824706963,
                0.031020622708381962,
                -0.31555641310495436
            ],
            [
                0.04682043405060799,
                0.33832658289027007,
                0.11534542717904889,
                0.015538671620745225,
                -0.00753396907659832,
                -0.06356824276965595,
                0.16300937428753795,
                -0.07719155265746401,
                0.13266682090392318,
                -0.07647365369366259,
                -0.08527693692338521,
                0.3457285676129638,
                0.11942569888305501,
                0.008047944771868737,
                -0.01451899249757869,
                0.44298459011314834,
                0.16323913509570864,
                -0.013054663447740552,
                -0.08966950832273068,
                -0.08952872623358012,
                0.06449288216139107,
                -0.18146368941479862,
                0.3422540927672788,
                -0.4097321880718261,
                0.10511793246752657,
                0.05408407862521798,
                -0.3265404481492361,
                -0.013995613079478452,
                0.19228866309777928,
                -0.1274672054501615,
                -0.2337596106555371,
                -0.14538378240411404,
                0.21641212501513,
                0.01500002124821148,
                -0.330788171561659,
                0.1940037149888412,
                0.14840790740767526,
                0.07112795994488115,
                -0.1218411612828916,
                0.10696589634963145,
                0.0828422080467376,
                -0.10756962972537049
            ],
            [
                -0.02461546675002435,
                0.20110347598234857,
                0.05886447738317297,
                0.05623928569116388,
                0.19670256710567363,
                0.04938708206070932,
                0.22953634352379967,
                -0.14025398690292754,
                0.13771910181860694,
                0.0933222422510407,
                -0.026689482480514403,
                0.01137448797804966,
                0.08159483946926706,
                -0.11964355422292502,
                -0.006167424873425145,
                0.12053198385904061,
                0.008983123725474256,
                -0.07476947351065938,
                0.04727192403635543,
                -0.1565560403218709,
                0.10926560562267941,
                -0.09260585236036975,
                0.1804984885515454,
                -0.2903415096190587,
                -0.08768852742090237,
                -0.12210479439495886,
                -0.2612066704681398,
                -0.11418159260474417,
                0.07710249404781969,
                0.00040963949877697485,
                -0.018403865920678955,
                0.05791018000972419,
                0.13048679827488427,
                0.35794498360761284,
                0.06821696237719918,
                -0.03082016381080362,
                0.21613641287756533,
                0.12249681010255158,
                0.1767589870716542,
                -0.13675434934959793,
                0.1488808402442548,
                -0.17768371720499002
            ],
            [
                -0.14637904252794626,
                0.18170401209597112,
                0.07125151945279334,
                0.12420325204238086,
                -0.21101303530323695,
                0.04913302031738738,
                0.010036728402279755,
                -0.06285624741337026,
                0.013032094858585683,
                0.08883041868468042,
                0.16137492157371014,
                0.11282061387071556,
                0.0013092816212105507,
                -0.2708622671435074,
                -0.07603540367401808,
                -0.021155867449770282,
                -0.23926437907882836,
                0.13320951863862943,
                0.15511124506469898,
                0.17862514600410015,
                0.042169515228403315,
                -0.06250631267846658,
                0.2373087676211822,
                -0.15620792582478868,
                -0.028838778419779797,
                0.1539055947127785,
                0.30768188444765415,
                0.20285008855873016,
                0.03012579671416712,
                0.07256233768148669,
                -0.0474217233507678,
                -0.05548103450940493,
                0.12305983935957987,
                -0.09296800970739547,
                0.06580914817156591,
                -0.11182512333108091,
                -0.030079082608746237,
                0.0746362301708585,
                0.01574184509938388,
                0.11248634828249196,
                -0.024347661705072552,
                0.23054333178474154
            ],
            [
                0.01916217408111924,
                0.23890444288418336,
                0.14480176333578684,
                0.2536099746899205,
                -0.09335626573461532,
                0.06938299118468463,
                0.25308728838813704,
                0.06918884892024027,
                -0.06610576345715469,
                0.07275251837009705,
                -0.1623258891537323,
                0.03390913261704696,
                -0.10724943476424897,
                -0.375692256417717,
                -0.012624356476726663,
                -0.21667441972240808,
                0.057910472316662194,
                0.06553172436798317,
                0.03966908989571821,
                0.06262479063223564,
                0.28647082898991666,
                -0.11653184721750272,
                -0.12236252399798578,
                0.211753553722504,
                0.08339629026918327,
                -0.063299033555173,
                -0.04887037313113882,
                0.07164538333073642,
                0.19814694418550455,
                -0.07507624825902119,
                0.3657640198103907,
                0.06347841881354752,
                0.31931459625573766,
                -0.07342988612578245,
                -0.11467119677585433,
                0.004200154983429013,
                0.09909082324056387,
                0.19760675487355506,
                -0.1521250566628931,
                -0.046084364036498654,
                -0.0683907476797562,
                -0.16039396415555165
            ],
            [
                0.017938298736359496,
                0.12684425744793917,
                0.2328332978774169,
                -0.029487697725831506,
                0.10642707684543312,
                -0.3418069376676694,
                -0.01646525089650747,
                0.12160847089885642,
                -0.04333581740174973,
                -0.015019117756510889,
                0.03796822033503647,
                -0.16400258462650613,
                -0.021909542701303422,
                0.10873479219630175,
                0.14942952138955148,
                -0.10057444546008544,
                0.17829890973020077,
                0.12496981224502544,
                -0.042710050210748945,
                -0.2166906145464266,
                0.10921875216417817,
                -0.1876257735527364,
                0.30532413844902245,
                -0.02508674727824821,
                0.07811010372037144,
                0.07188586387000985,
                0.11992651136873647,
                -0.4484056238886427,
                -0.07373767012922915,
                -0.25674150030137527,
                -0.219889424342677,
                -0.06059289934981612,
                0.1330989822499977,
                -0.1288715638092411,
                8.528548223608008e-05,
                0.02367168135394117,
                0.11024187304455382,
                0.03858033553911747,
                0.18340700949278044,
                0.3892077589420571,
                -0.19168821443329787,
                0.05037927953897354
            ],
            [
                0.034317297019123644,
                0.05587608419174849,
                -0.07915971071668286,
                0.16063363797267827,
                -0.2356409309561818,
                -0.01371719448132546,
                -0.05088878173557147,
                0.2182486844131697,
                -0.20965399223138548,
                0.05138159107838708,
                -0.006654637131233103,
                0.10989782938785739,
                0.17671166288184542,
                0.07609439562746995,
                -0.027430647167791936,
                -0.24830114379904597,
                0.08528299153902527,
                0.11707847199089935,
                0.20772235407467005,
                0.14679992153770777,
                -0.24252480066900536,
                -0.3075495227078625,
                0.23671921713643992,
                -0.2337612489229856,
                0.09172534786880454,
                0.02175673105423685,
                0.015047575296379597,
                -0.028953315540790295,
                -0.14152380951222873,
                0.2799976479423884,
                0.0013103883018057074,
                -0.115528059465369,
                0.018873966922773183,
                0.10568520239454618,
                -0.03309153383171133,
                0.0736425609407588,
                -0.04918556955619416,
                -0.05126398190520027,
                0.06135015659612106,
                0.045469745199686926,
                0.26409129172801493,
                0.07186491115446092
            ],
            [
                -0.0959732995992783,
                -0.15720250742962535,
                -0.014089062331047281,
                0.04272932767348984,
                0.2570402591399213,
                -0.13851347760317806,
                0.017140410617974212,
                0.10124155305910845,
                0.25443858508217987,
                0.027765777745415304,
                -0.04726776534869342,
                -0.00023714347831569295,
                0.07229268278506693,
                0.02548124025659934,
                0.25355968923868166,
                -0.12184868625615394,
                0.20936436389744872,
                0.1675967894481193,
                0.18108436937815042,
                0.024349359540337692,
                0.39864108426311406,
                -0.13891392362039653,
                0.026595637947092854,
                -0.12901851893058577,
                0.06979498078747177,
                -0.02267382451305307,
                0.061129655440829225,
                0.20958693084939567,
                0.18910669698904192,
                0.08652198101101201,
                -0.2159035245620356,
                -0.001059634072259296,
                -0.09053022829573334,
                -0.1047296553472462,
                -0.15131352577325216,
                0.2290883058431073,
                -0.04643296516879226,
                -0.22906584309437011,
                -0.17378175527078646,
                -0.09912603882142941,
                0.29083030673717375,
                0.31021120574747624
            ],
            [
                -0.20873954346830545,
                -0.20410915739633717,
                -0.0018696185074144576,
                -0.011356669990910598,
                -0.33715541722838005,
                0.08169702968186755,
                0.25708939711968126,
                0.07050681066597263,
                -0.10486290105836728,
                0.11708045538444203,
                0.02127938680516356,
                0.22019470504699887,
                0.19422977074979947,
                -0.055524962892028164,
                0.3364711583566561,
                -0.06605113262161152,
                -0.01923506875695672,
                0.049490019924522004,
                0.22982501517282125,
                -0.18795128077979,
                0.2289562586846613,
                0.21374071931014096,
                0.08474993072152809,
                -0.25535204064389144,
                -0.05777114643618253,
                0.020009428835312783,
                -0.21539300280058535,
                -0.163713799585039,
                -0.15034786569458522,
                0.17683382834001277,
                -0.1125879242793499,
                -0.061152217659124375,
                -0.034108849981619206,
                -0.20058746815826514,
                0.0020329884832154155,
                0.05768801571078716,
                0.0316358779137595,
                -0.2222795172657145,
                0.2565499964611558,
                -0.09236655311027901,
                -0.005426366891243572,
                -0.15572109754471145
            ],
            [
                -0.03749360138058467,
                -0.170460849057714,
                -0.07117176889226821,
                -0.39234998263861265,
                -0.0683390631643118,
                -0.011098469614028017,
                -0.11451530033931498,
                -0.003061287511186893,
                -0.008482857909253863,
                -0.07140408079690205,
                -0.22700150605440156,
                0.10931941717285859,
                0.10157312564213201,
                -0.21992199145829544,
                0.16922221322570843,
                -0.010055075707872792,
                0.004989869003613844,
                0.05994764535632128,
                -0.11527535867101496,
                -0.10287006897644589,
                0.32763946574229175,
                0.052531713659117824,
                0.22570548605912794,
                -0.24653881807756076,
                -0.014968552410635537,
                -0.2149270284940595,
                0.11310649971145677,
                -0.151629170293109,
                0.10859567623375944,
                -0.04238037353279705,
                -0.2156109239031995,
                0.38925485517215946,
                -0.07127889260394835,
                -0.21941907510586703,
                0.18819654266181599,
                0.12051219300267539,
                0.03030318922436197,
                -0.15467900771028775,
                -0.10221504073194677,
                -0.09717507875946328,
                -0.027213779342241232,
                -0.12711524814884972
            ],
            [
                0.14122642305671956,
                -0.08446543816012159,
                -0.15317633994007698,
                -0.11056078864162312,
                -0.05000910290206002,
                -0.07459217732560444,
                0.0694755818121771,
                0.05436593907609279,
                -0.02602451095336554,
                -0.12693678670084244,
                -0.06815519776075776,
                -0.0693767646131311,
                0.14012877311771643,
                -0.07024022123255311,
                0.23310407558732532,
                -0.2734584757521698,
                0.013746742665210438,
                0.007919030106351782,
                0.026697049614848964,
                -0.1018954161233345,
                0.25796430225009437,
                -0.24561047611014125,
                0.23416482285827445,
                0.08305104284305756,
                0.2712116509636871,
                0.06544772382961514,
                0.04049604182393492,
                0.11908247597603912,
                0.13925851470569556,
                0.1482499194857644,
                0.2686559073128742,
                -0.21697009672128198,
                0.10781653784479521,
                -0.261804517105515,
                0.09990149096400786,
                0.25330534949305356,
                -0.19659876666860945,
                0.0647971535359971,
                0.20239560959932457,
                0.1029444299941681,
                0.18307035780312625,
                -0.06155315013785974
            ],
            [
                -0.06590976975910938,
                0.02171857047077714,
                -0.09151368316686719,
                -0.017794503002259644,
                -0.10418795154354146,
                -0.17589063267147861,
                -0.04717801203392189,
                0.06321356861105362,
                -0.09583280330403393,
                0.0007430239365936451,
                -0.09369879963654676,
                0.015379110748134646,
                -0.06411767734452692,
                -0.08206386219094275,
                -0.24232810855087242,
                -0.1303034744410901,
                0.10526931876764138,
                0.10051815301910433,
                0.04645565067898702,
                0.12175769552205429,
                0.11894082605216923,
                -0.08427120844180988,
                -0.08070796366303001,
                -0.09589210732887542,
                0.22266663875223597,
                -0.020142031875346144,
                0.12459894259462076,
                -0.046236208393758256,
                0.32405869003755716,
                0.062191333524481175,
                0.2254808829928689,
                -0.0933135299130756,
                0.11567985589298818,
                0.1553839274281807,
                0.14937936759650552,
                -0.15311815771044884,
                0.018980468357775178,
                -0.26241707764139355,
                -0.06682587274026082,
                -0.0676100859947972,
                -0.13316791137710246,
                0.07871073923589812
            ],
            [
                -0.06558388621232661,
                -0.011401214638132252,
                -0.252772129587626,
                0.2719130044715144,
                0.15749304845069526,
                -0.023731157309388844,
                0.1531038943345347,
                -0.1432199580199315,
                0.06973309463373453,
                0.004751750479445839,
                -0.13233408771577124,
                0.037431978421451184,
                0.26148058559363574,
                -0.24253306864144059,
                0.19021305436257657,
                -0.15396251246463533,
                0.1402434263167601,
                -0.041612796656359384,
                0.238310559433091,
                -0.21918038204172755,
                0.05533547457414082,
                -0.361034334909206,
                0.11764006248878846,
                -0.17132028843670655,
                -0.1304546557721629,
                0.024609108061861944,
                -0.047339411240759584,
                -0.16689401322537029,
                -0.1866804218369213,
                0.0480784006090239,
                -0.2127907989038045,
                -0.03959309413510232,
                0.09103899414639913,
                -0.2311096419381375,
                -0.09093244184233053,
                0.20203677827033203,
                0.15421183415788908,
                0.1999756044843275,
                0.3189126420221487,
                -0.12580863888305008,
                0.010679359307653348,
                0.03951163269326623
            ],
            [
                -0.035624372638443175,
                0.0392625897619651,
                -0.07406318529909517,
                0.10265074398271161,
                0.24180282052919264,
                0.22665523972752452,
                0.12304966960452561,
                -0.07460687692933357,
                0.1612815659496891,
                -0.15239001323805879,
                0.168654432030123,
                -0.29114490901052725,
                -0.06029828842348059,
                -0.33522102435269124,
                0.04779264322420589,
                0.028436837823642383,
                -0.0610721864374925,
                0.22101893436556963,
                0.017749029978484182,
                -0.11009046928200623,
                0.1507230012411153,
                0.20327580721722585,
                -0.005910693286818938,
                -0.2973055961534925,
                -0.16006748978150162,
                -0.12517614647414357,
                -0.24202196467542142,
                0.21897896281550833,
                0.04824170768879293,
                -0.02654581155047349,
                0.050493420096145145,
                -0.06109702612049854,
                -0.20014863537687982,
                -0.25036300504060005,
                -0.013459421745185898,
                -0.09048240372519424,
                -0.10624017551162673,
                0.019909462690297225,
                0.18031715217808666,
                -0.1756148933766561,
                0.07146462664436394,
                0.012251417835727394
            ],
            [
                0.024308018718058873,
                -0.36620159378409756,
                0.05834627088305886,
                0.10292094420684957,
                -0.04852959651311415,
                -0.03880998437759771,
                0.03813383317079154,
                0.19042891974273293,
                0.20851760927837812,
                0.23017824763623754,
                -0.370959615635595,
                0.03435054036694225,
                0.2938769655491098,
                -0.09846872956412109,
                0.0580393688256563,
                0.06948764996076263,
                -0.10875506669155748,
                -0.295427309705791,
                0.09641555336013911,
                -0.30357799616503023,
                -0.10992402149210917,
                -0.04307365837525472,
                0.023476930667367224,
                -0.004208674301631285,
                0.08288159832643545,
                0.026156427970383565,
                0.21579313566536693,
                0.07937800234900426,
                -0.05760756813314506,
                0.07464649311837374,
                -0.0663402687078714,
                -0.018234139846380164,
                -0.1743116493777416,
                0.1398153574476677,
                -0.07510983846903185,
                -0.04175749994505527,
                -0.37759650490382923,
                -0.13319438448589513,
                0.20584894321165612,
                -0.12070378889041375,
                -0.09327393536200204,
                -0.07270125528465732
            ],
            [
                0.12094649905106689,
                -0.18338370599078002,
                -0.027135404606787646,
                0.25784129362854435,
                -0.15556035574437008,
                -0.019085986244464833,
                -0.17821016408863305,
                0.2114937932340489,
                0.21642247165855766,
                -0.04935635720057916,
                -0.14196175201984568,
                0.17620511609329706,
                -0.13411024452701079,
                -0.2797609538734469,
                0.020122197288136138,
                0.017595037763098356,
                0.08020103497042215,
                -0.27563005805047197,
                0.12049150612564724,
                -0.07814759749306996,
                0.29894610810600586,
                -0.057164142613411704,
                -0.09240386006840437,
                -0.24217167777066262,
                0.1975487701640479,
                -0.1680073405125662,
                0.022881725306761372,
                0.21142350889053313,
                0.08995928656649345,
                0.08527497293669745,
                -0.19126251333797162,
                0.1154396774790509,
                -0.24712859712505042,
                0.24927324530980707,
                0.12473577183348261,
                -0.04854146095243092,
                -0.1740410301060811,
                -0.043805185911118046,
                -0.09351932937626346,
                0.10451673779074085,
                -0.014845617442431413,
                -0.2702257229541187
            ],
            [
                0.21057907029673079,
                -0.13180134864237839,
                -0.13440369767846844,
                -0.024193757475129453,
                -0.10828725063289461,
                -0.09525585100311094,
                -0.10171576947857808,
                -0.20449709578366077,
                -0.004383253256163991,
                -0.05046318871441673,
                0.14128690805450497,
                -0.11413578835135699,
                0.42594410841958685,
                -0.15471043510865365,
                0.13214711305970472,
                -0.055806474549139694,
                -0.16375955781419538,
                -0.10122862835905705,
                0.04314330799833917,
                0.2553867440623546,
                0.033996410816952496,
                0.15453458332816497,
                0.23331009150212842,
                0.194382065809745,
                -0.10018403010762976,
                -0.3424185385644784,
                0.06665132645282383,
                0.19404873865652186,
                0.1151604850784865,
                -0.07155630749589839,
                0.20509561274403304,
                0.07661276434517103,
                0.09860372090875975,
                0.06502848895886566,
                -0.1009836671362154,
                0.023938077802496186,
                -0.31294050318534444,
                0.16491592276226805,
                -0.19358704418748077,
                0.030430693712899613,
                0.3822673012502231,
                0.05964939467862856
            ],
            [
                -0.3303502913751651,
                0.11308660009372411,
                -0.026533789483089053,
                0.04020578651199295,
                -0.22920384649592276,
                -0.21178628759080229,
                0.20206795547466183,
                0.2350475123799429,
                -0.24340747768494653,
                -0.3114129320414798,
                0.2935016396616229,
                0.1365641117597723,
                0.06812992169316384,
                0.0021187283823252273,
                -0.06605399531766164,
                -0.09937347139855045,
                -0.05677239024409114,
                0.039895378823544186,
                0.19854379222438184,
                0.10220881427819709,
                0.20381091403768054,
                -0.5004291160751528,
                0.24851080376834983,
                -0.17171930427419518,
                -0.41130914340927194,
                0.037109258304055016,
                0.025387930954376522,
                0.06388149608714186,
                0.08262639634843746,
                -0.22121746854334154,
                -0.008384418985989114,
                0.2817186281811711,
                0.03659579940438161,
                -0.24129579064347018,
                -0.3620840546189041,
                -0.16707562695987127,
                0.25079901695733325,
                -0.27284311843584974,
                0.06275928243001232,
                0.053866026858035224,
                -0.010881741419475966,
                -0.012784592783160366
            ],
            [
                0.0020602238274228,
                -0.1917375154157326,
                -0.02111108691677656,
                -0.17071333882844325,
                0.05241094980238349,
                -0.05109289021712247,
                0.1434886876936147,
                -0.018351155676928504,
                0.008838014430671849,
                0.2715956441587117,
                0.03688333542260667,
                0.09082254809099577,
                0.16041457308316012,
                -0.09587225875926739,
                -0.01442940614916436,
                -0.09130617733246825,
                -0.017842323733586136,
                0.05683173244360365,
                -0.08546436475758734,
                0.014310612494573188,
                0.43727579424355856,
                -0.018193678249442777,
                0.46197152809918796,
                -0.12444591856952852,
                -0.0017576455201993378,
                -0.06151089776518364,
                -0.03823260052323524,
                -0.161151539694384,
                0.009801748254907693,
                0.06318569260410976,
                -0.19895078159305798,
                -0.025553012509240917,
                -0.20947753447816264,
                -0.06814770907248864,
                0.16776691931983692,
                -0.011612140075927087,
                -0.055368747165692254,
                0.12945418507278258,
                -0.20418671201020555,
                0.3197302522150511,
                -0.042723836225135654,
                -0.12090596121701092
            ],
            [
                -0.019935140890632495,
                -0.1158870396690539,
                -0.05377215033077733,
                0.18137859748052723,
                -0.18541630427175693,
                -0.1304560684613171,
                -0.038119921030119096,
                -0.181923705225555,
                -0.15853569816770574,
                0.009394387561167797,
                0.06320426301680165,
                -0.0719517608260733,
                0.15998052402004254,
                0.1400379535156399,
                0.11259051801319969,
                0.21229497484426196,
                -0.14863925655356386,
                -0.1610139321514226,
                0.12648984275753647,
                0.05374716833632007,
                0.15467379577857632,
                -0.0860715816358907,
                0.19311216517611984,
                0.04812400402412856,
                0.15463150275941656,
                -0.008788302890030955,
                0.311199526971633,
                0.2864044536735087,
                -0.08989294098844432,
                0.08039326544998036,
                -0.1726016202968738,
                0.1215406386856605,
                0.16904994496234194,
                0.0791063734032671,
                -0.27015707316231663,
                0.2618463890554584,
                0.012739637963287804,
                0.2991590827758579,
                -0.17258578601713379,
                0.0887537370240656,
                -0.03058461619159834,
                -0.16579953782561718
            ],
            [
                0.13994982012354173,
                -0.0348691329625289,
                -0.11488215919543944,
                -0.01812182768560603,
                -0.12116599640356561,
                0.15320609740821103,
                -0.09098242183956558,
                0.04947595784725419,
                0.09540754654517641,
                -0.11696842346841074,
                0.10731628485365813,
                -0.2398547035658779,
                0.1414044974935936,
                -0.06494445685679795,
                0.06315781088990252,
                -0.06090922822115863,
                -0.10035315348825456,
                -0.11565717669133482,
                0.23280166503142627,
                0.13140229131658437,
                0.249217428014833,
                -0.2764733652635274,
                -0.012233820583567673,
                0.11043016085493851,
                0.09084667220996512,
                0.11562097968737134,
                0.006903561285786773,
                -0.17034077975593964,
                0.17363839266075867,
                -0.26803272203681633,
                0.17117032975571952,
                -0.08834644673999993,
                -0.14953612884042244,
                0.0014127120306395293,
                0.06691778445374683,
                0.09143992449228878,
                0.4146228669331194,
                -0.06950293977878158,
                -0.06292372114540383,
                0.14321838823201508,
                -0.3504863681415057,
                0.0825921157134878
            ],
            [
                -0.10023999624887392,
                -0.07237965161420398,
                -0.1482768826293869,
                -0.3073278081114546,
                0.14120349709128144,
                -0.1398823314525623,
                0.007095136092445384,
                -0.2973682559719393,
                -0.2096169900435407,
                -0.11587116777561246,
                -0.12202302612408204,
                0.1461783445655523,
                -0.020225304297934094,
                -0.1405463605347267,
                0.09117376598587652,
                0.08566386551138301,
                0.04822878371587339,
                0.06417485136515341,
                0.03852907091477261,
                -0.017942663373408774,
                0.23280891208791665,
                -0.11744558022203617,
                0.31601130519213305,
                -0.20017806687119813,
                -0.1011561359934375,
                -0.2941587159151282,
                -0.07660844468072492,
                -0.029347677133494513,
                -0.08660987879085823,
                -0.033112702289424326,
                0.17297394689851484,
                -0.08526683338889657,
                0.24589720873005005,
                0.06597930573367763,
                -0.002761469953665039,
                0.13691309966424775,
                -0.08308055888115784,
                -0.12216821580577189,
                0.16863236021980413,
                0.11965794125174346,
                0.06309457912722795,
                -0.022719003351703588
            ],
            [
                -0.24283781873969165,
                -0.1128777748927542,
                0.04123531731943257,
                -0.17443702660283208,
                -0.18348808896487584,
                -0.05860038300349739,
                0.026688927659277578,
                0.10089823687862835,
                0.24766213972812665,
                -0.1816734891590865,
                -0.03999069730640126,
                -0.04323632529476522,
                0.4320841035450036,
                -0.027301567938116472,
                0.0025267718924599294,
                -0.22437618004710239,
                -0.08511130720676353,
                -0.3236002180769312,
                0.03178114071626317,
                -0.4915044899864367,
                0.28951819218604924,
                0.006300206209424106,
                0.13716581031457983,
                -0.09933052892522988,
                -0.09897739103957182,
                -0.22067351991342252,
                -0.07847662093111864,
                0.1236507037667108,
                -0.28871790116963014,
                -0.013463879658830464,
                -0.012210273090306624,
                0.0165800470819899,
                -0.11093111523984812,
                -0.25876774206418124,
                0.1970340720071866,
                0.06941125796421456,
                0.092979072811795,
                -0.170976701196303,
                0.022398177459090163,
                0.09427089563016823,
                0.11734610144194536,
                -0.13928375405293944
            ],
            [
                -0.16163301655946846,
                0.03093756773596251,
                -0.2821354793039912,
                0.12673795083893255,
                0.032058107838486845,
                -0.009090481600679686,
                0.29049692435929025,
                -0.16683075004181422,
                -0.07045077126321588,
                0.25108104298119766,
                0.14044258677600294,
                0.06960734433795648,
                -0.21143514815910214,
                -0.10239280375158538,
                0.04063049318965034,
                -0.1426260415465122,
                0.05961852925428696,
                -0.16869504208536007,
                0.36202154474247317,
                -0.23785679621062472,
                -0.1910539702543393,
                0.1198599378760183,
                0.13814616794608908,
                -0.15958086987066175,
                -6.27532604077125e-07,
                -0.13612108185999283,
                -0.22691546793578862,
                -0.009823017451241395,
                -0.04778813941010997,
                0.0353089100042295,
                -0.04386378843755925,
                -0.007997789630532728,
                0.11651335459766374,
                -0.042108722824279056,
                -0.08463396525370263,
                0.009346116065602187,
                0.39418929175578465,
                -0.12135826038770436,
                -0.01734960502338028,
                -0.1359566753976888,
                -0.013889775949105974,
                -0.1677857604982441
            ],
            [
                0.10685853987375131,
                -0.028794169652788915,
                -0.039001969624418736,
                -0.2519140268340707,
                -0.0872511094273405,
                0.23430524712366493,
                0.19388905209510102,
                -0.05109872511522653,
                -0.06423262664895499,
                -0.03816679481820511,
                0.08673470652327163,
                0.18086616328913713,
                0.5320103270325691,
                0.014023297925835787,
                -0.08396111160042359,
                -0.22359214579396214,
                -0.10901301462750275,
                0.2849127969243802,
                0.1399865636534035,
                -0.163611016132977,
                0.08055968491464374,
                -0.09697794186639294,
                0.17413683908446126,
                0.013717704536946401,
                -0.10613574928278124,
                -0.03216761362211564,
                -0.2136962170277466,
                0.0484547229090079,
                -0.15950456909599917,
                0.07585581450476575,
                0.013776535182224256,
                -0.06176823361965949,
                0.1819352827858211,
                -0.019583635386071167,
                0.04811921394411339,
                0.18033523997371995,
                -0.1479245103227923,
                -0.07702437211804188,
                -0.18773102735155858,
                -0.316136821810531,
                0.030155936891430868,
                0.23283032920462898
            ],
            [
                0.007523950694951502,
                0.030880244517531984,
                0.11077103394076424,
                -0.24051018404557323,
                0.2575751320650424,
                0.14986633889672069,
                0.1633977827115104,
                0.17975867543042298,
                0.013418665129587358,
                0.13032572536651155,
                -0.0443814910649442,
                -0.255579086501608,
                0.13674315428632267,
                0.11053280776441224,
                -0.048618590842076224,
                -0.1123822532333242,
                0.11618393803544695,
                0.20017631491902366,
                0.36426614842312255,
                -0.12897892087660567,
                0.07933239816980805,
                -0.06516841498351092,
                0.2267958820488609,
                -0.24854353326416057,
                -0.1884336633096999,
                0.22844950125137273,
                0.03943111163644616,
                -0.14916165544426757,
                0.40730803425594025,
                -0.23432957734030685,
                -0.016637517950753147,
                -0.019533654597717127,
                0.231121168168706,
                0.04188974792724566,
                0.1073366805835277,
                0.2578534852955639,
                -0.19676734506461713,
                0.021501133098681596,
                -0.08546054413694161,
                -0.07326723943101754,
                -0.23459650342159624,
                0.2542626321314781
            ],
            [
                0.14113590643134938,
                -0.06139051903377836,
                -0.3820643727830906,
                0.06985986160898104,
                -0.16196307545423158,
                -0.2528052041973357,
                0.08371692957197281,
                0.29651227871119135,
                0.1764646387965712,
                0.01591439299124164,
                -0.09010517048986032,
                0.021407986583780292,
                0.06234826779064391,
                0.18733691173193626,
                0.20621790884817506,
                0.03245714820229575,
                -0.06306034394000194,
                -0.05154447030412319,
                -0.12268980403493412,
                -0.22707475534298083,
                -0.07058178039779284,
                -0.26843358345798957,
                0.3375521955962091,
                -0.1317699274153103,
                0.0038751506647061586,
                0.08097709505490855,
                0.1728777577046289,
                -0.020654100679578496,
                0.037901548716459454,
                -0.030829115643813083,
                0.03862953359743652,
                0.017751129438205185,
                0.2893830469189921,
                -0.022988664048515156,
                -0.3646754711157246,
                0.12919181031907517,
                -0.18820897180050938,
                -0.10030798499957526,
                -0.1619477880145376,
                0.08557234080352312,
                0.2373386940974688,
                -0.060601251728986595
            ]
        ]
    ],
    "tresholds": [
        [
            0.01668731113149944,
            -0.17273873213550028,
            0.015096403148065918,
            0.006961765156968847,
            -0.10338382513694612,
            0.15448739022740213,
            -0.048946074603599884,
            -0.007401743313645741,
            0.15691202674994836,
            -0.024348959132323857,
            -0.1605343560725825,
            0.11237422461998911,
            -0.022681839918982576,
            0.10815008355360937,
            0.36472656862288644,
            -0.25731953731058405,
            0.02719451651042129,
            0.05436849978067107,
            0.03208813530002026,
            -0.1830620678980244,
            0.11536108178214656,
            0.286092767259014,
            -0.03401834112310611,
            -0.16287635165749073,
            -0.1469917553592872,
            0.10119250639533184,
            -0.3118015799659111,
            -0.18435641881544443,
            -0.13736261619371473,
            -0.17743270754525542,
            -0.0011027687099046935,
            -0.05482072768570726,
